{"learner":{"attributes":{"scikit_learn":"{\"_estimator_type\": \"regressor\"}"},"feature_names":["wordCountNorm","paragraphCountNorm","h2CountNorm","actionableScoreNorm","evidenceCountNorm","experienceCueNorm","recentYearNorm","uniqueWordRatio","titleIntentMatch","referenceKeywordNorm","hasH1Keyword","hasUniqueTitle","hasAuthorInfo","hasPublisherInfo","hasArticleSchema","hasPublishedDate","hasModifiedDate","hasVisibleDate","metaDescriptionPresent","canonicalPresent","externalLinkPresent","authorityLinkPresent","listPresent","tablePresent","longParagraphPenalty","avgSentenceLengthNorm","depthLowFlag","readabilityWeakFlag","actionableWeakFlag","freshnessWeakFlag","titleMismatchFlag","hcuYesRatio","hcuNoRatio"],"feature_types":["float","float","float","float","float","float","float","float","int","float","int","int","int","int","int","int","int","int","int","int","int","int","int","int","int","float","int","int","int","int","int","float","float"],"gradient_booster":{"model":{"cats":{"enc":[],"feature_segments":[],"sorted_idx":[]},"gbtree_model_param":{"num_parallel_tree":"1","num_trees":"50"},"iteration_indptr":[0,1,2,3,4,5,6,7,8,9,10,11,12,13,14,15,16,17,18,19,20,21,22,23,24,25,26,27,28,29,30,31,32,33,34,35,36,37,38,39,40,41,42,43,44,45,46,47,48,49,50],"tree_info":[0,0,0,0,0,0,0,0,0,0,0,0,0,0,0,0,0,0,0,0,0,0,0,0,0,0,0,0,0,0,0,0,0,0,0,0,0,0,0,0,0,0,0,0,0,0,0,0,0,0],"trees":[{"base_weights":[8.333333E-1,-2.7777777E0,8.75E0,-5E0,1.25E0,2.5E-1,1E0,-7.5E-1,-0E0,-0E0,2.5E-1,2.5E-1,-2.5E-1],"categories":[],"categories_nodes":[],"categories_segments":[],"categories_sizes":[],"default_left":[0,0,0,0,0,0,0,0,0,0,0,0,0],"id":0,"left_children":[1,3,5,7,9,-1,-1,-1,11,-1,-1,-1,-1],"loss_changes":[3.673611E2,8.680556E1,6.25E0,7.5E1,6.25E0,0E0,0E0,0E0,2.5E1,0E0,0E0,0E0,0E0],"parents":[2147483647,0,0,1,1,2,2,3,3,4,4,8,8],"right_children":[2,4,6,8,10,-1,-1,-1,12,-1,-1,-1,-1],"split_conditions":[2.34E-1,1E0,3.84E-1,3.3333334E-1,1.1133333E-1,2.5E-1,1E0,-7.5E-1,2.0666666E-2,-0E0,2.5E-1,2.5E-1,-2.5E-1],"split_indices":[0,27,0,6,0,0,0,0,0,0,0,0,0],"split_type":[0,0,0,0,0,0,0,0,0,0,0,0,0],"sum_hessian":[1.1E1,8E0,3E0,5E0,3E0,1E0,2E0,3E0,2E0,2E0,1E0,1E0,1E0],"tree_param":{"num_deleted":"0","num_feature":"33","num_nodes":"13","size_leaf_vector":"1"}},{"base_weights":[9.6428573E-1,-4.6E0,3.65E0,-6.9375E-1,2.375E-1,5.2777777E0,-5.5E-1,1.1875E0,7.125E0,2.375E-1,-0E0,9.583333E-1,3.5E-1],"categories":[],"categories_nodes":[],"categories_segments":[],"categories_sizes":[],"default_left":[0,0,0,0,0,0,0,0,0,0,0,0,0],"id":1,"left_children":[1,3,5,-1,-1,7,-1,9,11,-1,-1,-1,-1],"loss_changes":[2.2600716E2,9.799687E1,1.7796945E2,0E0,0E0,5.9539932E1,0E0,5.640625E0,1.9927094E1,0E0,0E0,0E0,0E0],"parents":[2147483647,0,0,1,1,2,2,5,5,7,7,8,8],"right_children":[2,4,6,-1,-1,8,-1,10,12,-1,-1,-1,-1],"split_conditions":[1.6666667E-1,1E0,1E0,-6.9375E-1,2.375E-1,1E0,-5.5E-1,1E0,3.6363637E-1,2.375E-1,-0E0,9.583333E-1,3.5E-1],"split_indices":[4,24,5,0,0,4,0,27,32,0,0,0,0],"split_type":[0,0,0,0,0,0,0,0,0,0,0,0,0],"sum_hessian":[1.3E1,4E0,9E0,3E0,1E0,8E0,1E0,3E0,5E0,1E0,2E0,2E0,3E0],"tree_param":{"num_deleted":"0","num_feature":"33","num_nodes":"13","size_leaf_vector":"1"}},{"base_weights":[-1.6263261E0,6.101387E-1,-4.021528E0,-8.087509E-1,-6.429999E-1,-4.2781258E-1,1.1281242E0,2.2562484E-1,-0E0],"categories":[],"categories_nodes":[],"categories_segments":[],"categories_sizes":[],"default_left":[0,0,0,0,0,0,0,0,0],"id":2,"left_children":[1,-1,3,5,-1,-1,7,-1,-1],"loss_changes":[2.2814062E2,0E0,6.444064E1,3.8424988E1,0E0,0E0,5.090657E0,0E0,0E0],"parents":[2147483647,0,0,2,2,3,3,6,6],"right_children":[2,-1,4,6,-1,-1,8,-1,-1],"split_conditions":[1E0,6.101387E-1,1.1133333E-1,1.6666667E-1,-6.429999E-1,-4.2781258E-1,2.0666666E-2,2.2562484E-1,-0E0],"split_indices":[25,0,0,4,0,0,0,0,0],"split_type":[0,0,0,0,0,0,0,0,0],"sum_hessian":[1E1,2E0,8E0,4E0,4E0,1E0,3E0,1E0,2E0],"tree_param":{"num_deleted":"0","num_feature":"33","num_nodes":"9","size_leaf_vector":"1"}},{"base_weights":[2.8539531E-2,3.0333543E0,-4.9842415E0,-1.4261608E0,5.148312E0,-1.7425022E0,-7.645147E-1,1.3007864E0,-4.803501E-1,-2.8535005E-1,6.957531E0,-3.752294E-1,2.1434365E-1,-0E0,1.9511795E-1,-2.2285004E-1,9.240438E-1],"categories":[],"categories_nodes":[],"categories_segments":[],"categories_sizes":[],"default_left":[0,0,0,0,0,0,0,0,0,0,0,0,0,0,0,0,0],"id":3,"left_children":[1,3,5,7,9,11,-1,13,-1,-1,15,-1,-1,-1,-1,-1,-1],"loss_changes":[2.4105614E2,1.0165918E2,3.8434067E1,4.3087643E1,1.2119255E2,3.9282513E1,0E0,2.5380678E0,0E0,0E0,1.4641742E2,0E0,0E0,0E0,0E0,0E0,0E0],"parents":[2147483647,0,0,1,1,2,2,3,3,4,4,5,5,7,7,10,10],"right_children":[2,4,6,8,10,12,-1,14,-1,-1,16,-1,-1,-1,-1,-1,-1],"split_conditions":[8.79E-1,1E0,5E-2,1.2466667E-1,1E0,1.6666667E-1,-7.645147E-1,1.04666665E-1,-4.803501E-1,-2.8535005E-1,2.34E-1,-3.752294E-1,2.1434365E-1,-0E0,1.9511795E-1,-2.2285004E-1,9.240438E-1],"split_indices":[7,4,0,0,28,4,0,0,0,0,0,0,0,0,0,0,0],"split_type":[0,0,0,0,0,0,0,0,0,0,0,0,0,0,0,0,0],"sum_hessian":[1.4E1,9E0,5E0,3E0,6E0,3E0,2E0,2E0,1E0,1E0,5E0,2E0,1E0,1E0,1E0,1E0,4E0],"tree_param":{"num_deleted":"0","num_feature":"33","num_nodes":"17","size_leaf_vector":"1"}},{"base_weights":[3.5801044E-1,3.6502728E0,-4.6400514E0,-1.3548527E0,6.3786445E0,-1.6084728E0,-7.135473E-1,1.2357483E0,-4.5633277E-1,8.542148E-1,3.161356E0,-3.5021412E-1,2.0362663E-1,1.8536225E-1,-0E0,-2.117077E-1,5.626526E-1],"categories":[],"categories_nodes":[],"categories_segments":[],"categories_sizes":[],"default_left":[0,0,0,0,0,0,0,0,0,0,0,0,0,0,0,0,0],"id":4,"left_children":[1,3,5,7,9,11,-1,13,-1,-1,15,-1,-1,-1,-1,-1,-1],"loss_changes":[2.4730649E2,1.315447E2,3.3913177E1,3.8886642E1,1.4758911E1,3.4739E1,0E0,2.2906108E0,0E0,0E0,6.3960724E1,0E0,0E0,0E0,0E0,0E0,0E0],"parents":[2147483647,0,0,1,1,2,2,3,3,4,4,5,5,7,7,10,10],"right_children":[2,4,6,8,10,12,-1,14,-1,-1,16,-1,-1,-1,-1,-1,-1],"split_conditions":[8.79E-1,1E0,2.5E-1,6.666667E-1,6.43E-1,1.6666667E-1,-7.135473E-1,2.5E-1,-4.5633277E-1,8.542148E-1,8.13E-1,-3.5021412E-1,2.0362663E-1,1.8536225E-1,-0E0,-2.117077E-1,5.626526E-1],"split_indices":[7,4,1,6,7,4,0,1,0,0,7,0,0,0,0,0,0],"split_type":[0,0,0,0,0,0,0,0,0,0,0,0,0,0,0,0,0],"sum_hessian":[1.3E1,8E0,5E0,3E0,5E0,3E0,2E0,2E0,1E0,2E0,3E0,2E0,1E0,1E0,1E0,1E0,2E0],"tree_param":{"num_deleted":"0","num_feature":"33","num_nodes":"17","size_leaf_vector":"1"}},{"base_weights":[-2.7917916E-1,2.4453235E0,-4.319403E0,5.9003086E0,-2.655538E-1,-1.4842739E0,-6.659775E-1,-0E0,7.867078E-1,7.233246E-1,-2.604973E-1,-3.2686666E-1,1.934452E-1,1.9097672E-1,-2.0112228E-1],"categories":[],"categories_nodes":[],"categories_segments":[],"categories_sizes":[],"default_left":[0,0,0,0,0,0,0,0,0,0,0,0,0,0,0],"id":5,"left_children":[1,3,5,7,9,11,-1,-1,-1,13,-1,-1,-1,-1,-1],"loss_changes":[1.6466876E2,8.5861206E1,2.9926598E1,4.6418182E1,1.5764647E1,3.072448E1,0E0,0E0,0E0,2.0062885E1,0E0,0E0,0E0,0E0,0E0],"parents":[2147483647,0,0,1,1,2,2,3,3,4,4,5,5,9,9],"right_children":[2,4,6,8,10,12,-1,-1,-1,14,-1,-1,-1,-1,-1],"split_conditions":[8.96E-1,3.6363637E-1,5E-2,1.04666665E-1,3.84E-1,1.6666667E-1,-6.659775E-1,-0E0,7.867078E-1,2.5E-1,-2.604973E-1,-3.2686666E-1,1.934452E-1,1.9097672E-1,-2.0112228E-1],"split_indices":[7,32,0,0,0,4,0,0,0,1,0,0,0,0,0],"split_type":[0,0,0,0,0,0,0,0,0,0,0,0,0,0,0],"sum_hessian":[1.3E1,8E0,5E0,3E0,5E0,3E0,2E0,1E0,2E0,4E0,1E0,2E0,1E0,3E0,1E0],"tree_param":{"num_deleted":"0","num_feature":"33","num_nodes":"15","size_leaf_vector":"1"}},{"base_weights":[2.6228434E-1,-2.3205833E0,4.52335E0,-2.952351E0,1.682663E-1,8.700766E-1,-2.5543213E0,1.6654511E-1,-3.7377577E0,-0E0,-3.831482E-1,-1.3692017E-1,-4.885051E-1],"categories":[],"categories_nodes":[],"categories_segments":[],"categories_sizes":[],"default_left":[0,0,0,0,0,0,0,0,0,0,0,0,0],"id":6,"left_children":[1,3,5,7,-1,-1,9,-1,11,-1,-1,-1,-1],"loss_changes":[1.7558334E2,3.0259033E1,1.996228E2,3.886673E1,0E0,0E0,9.786837E0,0E0,1.5050812E1,0E0,0E0,0E0,0E0],"parents":[2147483647,0,0,1,1,2,2,3,3,6,6,8,8],"right_children":[2,4,6,8,-1,-1,10,-1,12,-1,-1,-1,-1],"split_conditions":[3.3333334E-1,7.5E-1,3.3333334E-1,1E0,1.682663E-1,8.700766E-1,1.04666665E-1,1.6654511E-1,5E-2,-0E0,-3.831482E-1,-1.3692017E-1,-4.885051E-1],"split_indices":[1,5,9,25,0,0,0,0,0,0,0,0,0],"split_type":[0,0,0,0,0,0,0,0,0,0,0,0,0],"sum_hessian":[1.4E1,9E0,5E0,8E0,1E0,3E0,2E0,1E0,7E0,1E0,1E0,3E0,4E0],"tree_param":{"num_deleted":"0","num_feature":"33","num_nodes":"13","size_leaf_vector":"1"}},{"base_weights":[1.7306339E0,-1.8794076E0,6.4385653E0,-3.9179115E0,6.289482E-1,-0E0,8.0482066E-1,-6.2895685E-1,1.5985298E-1,2.3255794E-1,-2.2304726E-1],"categories":[],"categories_nodes":[],"categories_segments":[],"categories_sizes":[],"default_left":[0,0,0,0,0,0,0,0,0,0,0],"id":7,"left_children":[1,3,5,7,9,-1,-1,-1,-1,-1,-1],"loss_changes":[1.9905478E2,3.8257217E1,5.181891E1,6.238649E1,2.459267E1,0E0,0E0,0E0,0E0,0E0,0E0],"parents":[2147483647,0,0,1,1,2,2,3,3,4,4],"right_children":[2,4,6,8,10,-1,-1,-1,-1,-1,-1],"split_conditions":[3.3333334E-1,8.181818E-1,1.04666665E-1,3.4E-1,1.2466667E-1,-0E0,8.0482066E-1,-6.2895685E-1,1.5985298E-1,2.3255794E-1,-2.2304726E-1],"split_indices":[1,32,0,0,0,0,0,0,0,0,0],"split_type":[0,0,0,0,0,0,0,0,0,0,0],"sum_hessian":[1E1,6E0,4E0,3E0,3E0,1E0,3E0,2E0,1E0,2E0,1E0],"tree_param":{"num_deleted":"0","num_feature":"33","num_nodes":"11","size_leaf_vector":"1"}},{"base_weights":[-1.2276102E0,1.8200575E-1,-4.107511E-1,-1.4103876E0,4.868183E-1,-3.5858878E-1,-2.5811005E-1,1.0514164E-1,-2.748108E-1],"categories":[],"categories_nodes":[],"categories_segments":[],"categories_sizes":[],"default_left":[0,0,0,0,0,0,0,0,0],"id":8,"left_children":[1,3,-1,5,-1,-1,7,-1,-1],"loss_changes":[3.728358E1,5.9101692E1,0E0,1.4115127E1,0E0,0E0,1.9192997E1,0E0,0E0],"parents":[2147483647,0,0,1,1,3,3,6,6],"right_children":[2,4,-1,6,-1,-1,8,-1,-1],"split_conditions":[2.5E-1,2.34E-1,-4.107511E-1,1.6666667E-1,4.868183E-1,-3.5858878E-1,1.1133333E-1,1.0514164E-1,-2.748108E-1],"split_indices":[5,0,0,4,0,0,0,0,0],"split_type":[0,0,0,0,0,0,0,0,0],"sum_hessian":[8E0,6E0,2E0,5E0,1E0,1E0,4E0,3E0,1E0],"tree_param":{"num_deleted":"0","num_feature":"33","num_nodes":"9","size_leaf_vector":"1"}},{"base_weights":[-5.1847196E-1,4.3998146E0,-2.4339395E0,-5.257034E-3,5.9014666E-1,-3.0874836E0,1.72398E-1,-3.884718E0,1.645195E-1,-1.0725441E-1,-5.3575134E-1],"categories":[],"categories_nodes":[],"categories_segments":[],"categories_sizes":[],"default_left":[0,0,0,0,0,0,0,0,0,0,0],"id":9,"left_children":[1,3,5,-1,-1,7,-1,9,-1,-1,-1],"loss_changes":[1.331795E2,2.7053963E1,3.2496605E1,0E0,0E0,4.0348602E1,0E0,2.7387878E1,0E0,0E0,0E0],"parents":[2147483647,0,0,1,1,2,2,5,5,7,7],"right_children":[2,4,6,-1,-1,8,-1,10,-1,-1,-1],"split_conditions":[3.6363637E-1,1.04666665E-1,7.5E-1,-5.257034E-3,5.9014666E-1,1E0,1.72398E-1,5E-2,1.645195E-1,-1.0725441E-1,-5.3575134E-1],"split_indices":[32,0,5,0,0,32,0,0,0,0,0],"split_type":[0,0,0,0,0,0,0,0,0,0,0],"sum_hessian":[1.2E1,3E0,9E0,1E0,2E0,8E0,1E0,7E0,1E0,3E0,4E0],"tree_param":{"num_deleted":"0","num_feature":"33","num_nodes":"11","size_leaf_vector":"1"}},{"base_weights":[-8.663269E-1,3.6635235E-1,-1.8450364E0,-2.668498E0,1.7893347E0,-1.0473295E0,-4.404434E0,4.3297005E-1,-1.6456985E-1,-2.3326646E-1,1.4440054E-1,-5.480572E-1,-4.994202E-3],"categories":[],"categories_nodes":[],"categories_segments":[],"categories_sizes":[],"default_left":[0,0,0,0,0,0,0,0,0,0,0,0,0],"id":10,"left_children":[1,-1,3,5,7,9,11,-1,-1,-1,-1,-1,-1],"loss_changes":[7.3260445E1,0E0,4.3680782E1,2.6343796E1,3.3304104E1,2.5783781E1,2.3156456E1,0E0,0E0,0E0,0E0,0E0,0E0],"parents":[2147483647,0,0,2,2,3,3,4,4,5,5,6,6],"right_children":[2,-1,4,6,8,10,12,-1,-1,-1,-1,-1,-1],"split_conditions":[1E0,3.6635235E-1,4.28E-1,2.5E-1,7.6666665E-1,1E0,1E0,4.3297005E-1,-1.6456985E-1,-2.3326646E-1,1.4440054E-1,-5.480572E-1,-4.994202E-3],"split_indices":[25,0,0,1,0,10,27,0,0,0,0,0,0],"split_type":[0,0,0,0,0,0,0,0,0,0,0,0,0],"sum_hessian":[1.4E1,2E0,1.2E1,1E1,2E0,6E0,4E0,1E0,1E0,4E0,2E0,3E0,1E0],"tree_param":{"num_deleted":"0","num_feature":"33","num_nodes":"13","size_leaf_vector":"1"}},{"base_weights":[-2.813441E-1,-1.6611112E0,3.9282932E0,3.419286E-1,-3.0191193E0,-1.5634155E-1,6.2800014E-1,-4.0636835E0,-4.3635178E-1,-3.055725E-2,-4.6391067E-1,-3.236332E-1,1.5757523E-1],"categories":[],"categories_nodes":[],"categories_segments":[],"categories_sizes":[],"default_left":[0,0,0,0,0,0,0,0,0,0,0,0,0],"id":11,"left_children":[1,3,5,-1,7,-1,-1,9,11,-1,-1,-1,-1],"loss_changes":[9.3650116E1,9.311388E1,6.147783E1,0E0,2.5205475E1,0E0,0E0,1.3719948E1,2.7635063E1,0E0,0E0,0E0,0E0],"parents":[2147483647,0,0,1,1,2,2,4,4,7,7,8,8],"right_children":[2,4,6,-1,8,-1,-1,10,12,-1,-1,-1,-1],"split_conditions":[4.28E-1,1E0,2.5E-1,3.419286E-1,8.181818E-1,-1.5634155E-1,6.2800014E-1,5E-2,1.6666667E-1,-3.055725E-2,-4.6391067E-1,-3.236332E-1,1.5757523E-1],"split_indices":[0,25,1,0,32,0,0,0,4,0,0,0,0],"split_type":[0,0,0,0,0,0,0,0,0,0,0,0,0],"sum_hessian":[1.4E1,1.1E1,3E0,2E0,9E0,1E0,2E0,6E0,3E0,1E0,5E0,1E0,2E0],"tree_param":{"num_deleted":"0","num_feature":"33","num_nodes":"13","size_leaf_vector":"1"}},{"base_weights":[3.2358116E-1,2.5349808E0,-3.0474484E0,-6.3754463E-1,4.227501E0,-7.6799965E-1,-5.070898E-1,3.7450157E-2,-1.8368416E-1,5.6670994E-1,-1.4852448E-1,-3.0745164E-1,1.025678E0,1.8288116E-1,-2.9029464E-2],"categories":[],"categories_nodes":[],"categories_segments":[],"categories_sizes":[],"default_left":[0,0,0,0,0,0,0,0,0,0,0,0,0,0,0],"id":12,"left_children":[1,3,5,7,9,11,-1,-1,-1,-1,-1,-1,13,-1,-1],"loss_changes":[1.1209094E2,5.1021286E1,2.3779644E1,5.542876E0,5.7761375E1,1.9702053E1,0E0,0E0,0E0,0E0,0E0,0E0,3.7016E0,0E0,0E0],"parents":[2147483647,0,0,1,1,2,2,3,3,4,4,5,5,12,12],"right_children":[2,4,6,8,10,12,-1,-1,-1,-1,-1,-1,14,-1,-1],"split_conditions":[8.96E-1,2.34E-1,5E-2,1.1133333E-1,2.5E-1,9.090909E-2,-5.070898E-1,3.7450157E-2,-1.8368416E-1,5.6670994E-1,-1.4852448E-1,-3.0745164E-1,2.0666666E-2,1.8288116E-1,-2.9029464E-2],"split_indices":[7,0,0,0,3,31,0,0,0,0,0,0,0,0,0],"split_type":[0,0,0,0,0,0,0,0,0,0,0,0,0,0,0],"sum_hessian":[1.3E1,8E0,5E0,3E0,5E0,3E0,2E0,2E0,1E0,4E0,1E0,1E0,2E0,1E0,1E0],"tree_param":{"num_deleted":"0","num_feature":"33","num_nodes":"15","size_leaf_vector":"1"}},{"base_weights":[6.400119E-1,-1.4411697E0,4.6743727E0,-1.937784E0,1.5141793E-1,1.6578674E-2,5.760073E-1,1.3006364E-1,-2.505166E0,-7.296009E-2,-3.424585E-1],"categories":[],"categories_nodes":[],"categories_segments":[],"categories_sizes":[],"default_left":[0,0,0,0,0,0,0,0,0,0,0],"id":13,"left_children":[1,3,5,7,-1,-1,-1,-1,9,-1,-1],"loss_changes":[1.242839E2,1.7610832E1,2.351992E1,1.9795105E1,0E0,0E0,0E0,0E0,1.0561321E1,0E0,0E0],"parents":[2147483647,0,0,1,1,2,2,3,3,8,8],"right_children":[2,4,6,8,-1,-1,-1,-1,10,-1,-1],"split_conditions":[3.3333334E-1,7.5E-1,1.04666665E-1,1E0,1.5141793E-1,1.6578674E-2,5.760073E-1,1.3006364E-1,5E-2,-7.296009E-2,-3.424585E-1],"split_indices":[1,5,0,25,0,0,0,0,0,0,0],"split_type":[0,0,0,0,0,0,0,0,0,0,0],"sum_hessian":[1.3E1,9E0,4E0,8E0,1E0,1E0,3E0,1E0,7E0,3E0,4E0],"tree_param":{"num_deleted":"0","num_feature":"33","num_nodes":"11","size_leaf_vector":"1"}},{"base_weights":[-6.591083E-1,8.782298E-1,-2.855264E0,-2.743246E0,3.1461754E0,-6.74881E-1,-4.8106867E-1,-3.7626597E-1,1.5749741E-2,3.5635135E-1,5.297432E-2,-2.8843117E-1,1.0230331E0,-2.3929978E-2,1.7738496E-1],"categories":[],"categories_nodes":[],"categories_segments":[],"categories_sizes":[],"default_left":[0,0,0,0,0,0,0,0,0,0,0,0,0,0,0],"id":14,"left_children":[1,3,5,7,9,11,-1,-1,-1,-1,-1,-1,13,-1,-1],"loss_changes":[4.977485E1,8.255052E1,2.2334782E1,1.2420837E1,4.663872E0,1.795644E1,0E0,0E0,0E0,0E0,0E0,0E0,3.2678223E0,0E0,0E0],"parents":[2147483647,0,0,1,1,2,2,3,3,4,4,5,5,12,12],"right_children":[2,4,6,8,10,12,-1,-1,-1,-1,-1,-1,14,-1,-1],"split_conditions":[8.96E-1,1E0,2.5E-1,8.13E-1,8.5E-1,9.090909E-2,-4.8106867E-1,-3.7626597E-1,1.5749741E-2,3.5635135E-1,5.297432E-2,-2.8843117E-1,1.6666667E-1,-2.3929978E-2,1.7738496E-1],"split_indices":[7,10,1,7,7,31,0,0,0,0,0,0,4,0,0],"split_type":[0,0,0,0,0,0,0,0,0,0,0,0,0,0,0],"sum_hessian":[1.3E1,8E0,5E0,3E0,5E0,3E0,2E0,2E0,1E0,4E0,1E0,1E0,2E0,1E0,1E0],"tree_param":{"num_deleted":"0","num_feature":"33","num_nodes":"15","size_leaf_vector":"1"}},{"base_weights":[2.9007822E-1,5.106163E-1,-8.436397E-1,2.5907338E-1,-1.7035924E0,-3.342827E-1,-6.7102623E-1,-3.141218E-1,1.4393327E-1],"categories":[],"categories_nodes":[],"categories_segments":[],"categories_sizes":[],"default_left":[0,0,0,0,0,0,0,0,0],"id":15,"left_children":[1,-1,3,-1,5,-1,7,-1,-1],"loss_changes":[8.6208984E1,0E0,4.280774E1,0E0,1.6375675E1,0E0,4.6225185E1,0E0,0E0],"parents":[2147483647,0,0,2,2,4,4,6,6],"right_children":[2,-1,4,-1,6,-1,8,-1,-1],"split_conditions":[1E0,5.106163E-1,1E0,2.5907338E-1,8.13E-1,-3.342827E-1,1.6666667E-1,-3.141218E-1,1.4393327E-1],"split_indices":[26,0,25,0,7,0,4,0,0],"split_type":[0,0,0,0,0,0,0,0,0],"sum_hessian":[1.4E1,2E0,1.2E1,2E0,1E1,3E0,7E0,3E0,4E0],"tree_param":{"num_deleted":"0","num_feature":"33","num_nodes":"9","size_leaf_vector":"1"}},{"base_weights":[3.9692923E-1,-1.6323073E0,3.970169E0,-3.2419643E0,-2.8715134E-1,7.7655795E-3,4.9238834E-1,-7.0270537E-3,-4.2757723E-1,-1.4529667E0,1.3629862E0,9.2789076E-2,-2.5558826E-1,1.6131897E-1,4.3128967E-2],"categories":[],"categories_nodes":[],"categories_segments":[],"categories_sizes":[],"default_left":[0,0,0,0,0,0,0,0,0,0,0,0,0,0,0],"id":16,"left_children":[1,3,5,7,9,-1,-1,-1,-1,11,13,-1,-1,-1,-1],"loss_changes":[1.0074287E2,1.8556225E1,1.8179367E1,1.2815224E1,1.3522907E1,0E0,0E0,0E0,0E0,1.2875124E1,3.5891533E-3,0E0,0E0,0E0,0E0],"parents":[2147483647,0,0,1,1,2,2,3,3,4,4,9,9,10,10],"right_children":[2,4,6,8,10,-1,-1,-1,-1,12,14,-1,-1,-1,-1],"split_conditions":[3.3333334E-1,8.181818E-1,1.04666665E-1,5E-2,9.090909E-2,7.7655795E-3,4.9238834E-1,-7.0270537E-3,-4.2757723E-1,1E0,2.0666666E-2,9.2789076E-2,-2.5558826E-1,1.6131897E-1,4.3128967E-2],"split_indices":[1,32,0,0,31,0,0,0,0,25,0,0,0,0,0],"split_type":[0,0,0,0,0,0,0,0,0,0,0,0,0,0,0],"sum_hessian":[1.2E1,8E0,4E0,3E0,5E0,1E0,3E0,1E0,2E0,3E0,2E0,1E0,2E0,1E0,1E0],"tree_param":{"num_deleted":"0","num_feature":"33","num_nodes":"15","size_leaf_vector":"1"}},{"base_weights":[-5.2708554E-1,-1.5301118E0,3.3263729E0,2.4529457E-1,-2.1737123E0,8.8149644E-2,4.1080627E-1,-3.2374141E0,-4.6252745E-1,-6.1514027E-2,-4.3947658E-1,-3.0419275E-1,9.428044E-2],"categories":[],"categories_nodes":[],"categories_segments":[],"categories_sizes":[],"default_left":[0,0,0,0,0,0,0,0,0,0,0,0,0],"id":17,"left_children":[1,3,5,-1,7,-1,-1,9,11,-1,-1,-1,-1],"loss_changes":[5.533628E1,3.3530464E1,2.1121635E0,0E0,1.6704514E1,0E0,0E0,1.5505962E1,2.0992506E1,0E0,0E0,0E0,0E0],"parents":[2147483647,0,0,1,1,2,2,4,4,7,7,8,8],"right_children":[2,4,6,-1,8,-1,-1,10,12,-1,-1,-1,-1],"split_conditions":[1E0,1E0,1.2466667E-1,2.4529457E-1,1E0,8.8149644E-2,4.1080627E-1,2.0666666E-2,6.07E-1,-6.1514027E-2,-4.3947658E-1,-3.0419275E-1,9.428044E-2],"split_indices":[32,25,0,0,27,0,0,0,7,0,0,0,0],"split_type":[0,0,0,0,0,0,0,0,0,0,0,0,0],"sum_hessian":[1.2E1,1E1,2E0,1E0,9E0,1E0,1E0,5E0,4E0,2E0,3E0,1E0,3E0],"tree_param":{"num_deleted":"0","num_feature":"33","num_nodes":"13","size_leaf_vector":"1"}},{"base_weights":[1.230761E0,4.4470522E-1,2.4170338E-1,-1.3786011E0,1.0216427E0,8.374214E-2,-2.3964158E-1,1.6545007E0,-1.7041817E-1,1.921374E-1,2.6630403E-3],"categories":[],"categories_nodes":[],"categories_segments":[],"categories_sizes":[],"default_left":[0,0,0,0,0,0,0,0,0,0,0],"id":18,"left_children":[1,-1,3,5,7,-1,-1,9,-1,-1,-1],"loss_changes":[4.0279396E1,0E0,1.5309568E1,1.1028812E1,1.6620049E1,0E0,0E0,2.9898796E0,0E0,0E0,0E0],"parents":[2147483647,0,0,2,2,3,3,4,4,7,7],"right_children":[2,-1,4,6,8,-1,-1,10,-1,-1,-1],"split_conditions":[1E0,4.4470522E-1,9.090909E-2,1E0,7.5E-1,8.374214E-2,-2.3964158E-1,5.4545456E-1,-1.7041817E-1,1.921374E-1,2.6630403E-3],"split_indices":[26,0,31,25,1,0,0,31,0,0,0],"split_type":[0,0,0,0,0,0,0,0,0,0,0],"sum_hessian":[1.2E1,2E0,1E1,3E0,7E0,1E0,2E0,6E0,1E0,5E0,1E0],"tree_param":{"num_deleted":"0","num_feature":"33","num_nodes":"11","size_leaf_vector":"1"}},{"base_weights":[2.9507828E-1,9.2147946E-1,-3.9240685E-1,-5.5461967E-1,3.394162E0,-2.6908138E-1,4.401234E-1,2.5299073E-3,4.230053E-1,-7.2610095E-2,1.496317E-1],"categories":[],"categories_nodes":[],"categories_segments":[],"categories_sizes":[],"default_left":[0,0,0,0,0,0,0,0,0,0,0],"id":19,"left_children":[1,3,-1,5,7,-1,9,-1,-1,-1,-1],"loss_changes":[4.0616245E1,4.9331486E1,0E0,2.030897E1,1.3973E1,0E0,9.708787E0,0E0,0E0,0E0,0E0],"parents":[2147483647,0,0,1,1,3,3,4,4,6,6],"right_children":[2,4,-1,6,8,-1,10,-1,-1,-1,-1],"split_conditions":[1E0,2.5E-1,-3.9240685E-1,7.37E-1,1.04666665E-1,-2.6908138E-1,1.6666667E-1,2.5299073E-3,4.230053E-1,-7.2610095E-2,1.496317E-1],"split_indices":[5,1,0,7,0,0,4,0,0,0,0],"split_type":[0,0,0,0,0,0,0,0,0,0,0],"sum_hessian":[1.3E1,1.2E1,1E0,8E0,4E0,2E0,6E0,1E0,3E0,3E0,3E0],"tree_param":{"num_deleted":"0","num_feature":"33","num_nodes":"11","size_leaf_vector":"1"}},{"base_weights":[-3.5908842E-1,-1.1938154E0,2.4435463E0,1.9030558E-1,-1.9298879E0,-9.157791E-2,3.868581E-1,-6.4523536E-1,-3.342424E0,9.171855E-2,-1.4536408E-1,-4.1900465E-1,2.4032593E-3],"categories":[],"categories_nodes":[],"categories_segments":[],"categories_sizes":[],"default_left":[0,0,0,0,0,0,0,0,0,0,0,0,0],"id":20,"left_children":[1,3,5,-1,7,-1,-1,9,11,-1,-1,-1,-1],"loss_changes":[4.0348103E1,3.330647E1,2.2691391E1,0E0,1.7804146E1,0E0,0E0,1.0174744E1,1.4368114E1,0E0,0E0,0E0,0E0],"parents":[2147483647,0,0,1,1,2,2,4,4,7,7,8,8],"right_children":[2,4,6,-1,8,-1,-1,10,12,-1,-1,-1,-1],"split_conditions":[4.28E-1,1E0,2.5E-1,1.9030558E-1,2.5E-1,-9.157791E-2,3.868581E-1,1E0,1E0,9.171855E-2,-1.4536408E-1,-4.1900465E-1,2.4032593E-3],"split_indices":[0,25,1,0,1,0,0,30,27,0,0,0,0],"split_type":[0,0,0,0,0,0,0,0,0,0,0,0,0],"sum_hessian":[1.5E1,1.2E1,3E0,2E0,1E1,1E0,2E0,6E0,4E0,2E0,4E0,3E0,1E0],"tree_param":{"num_deleted":"0","num_feature":"33","num_nodes":"13","size_leaf_vector":"1"}},{"base_weights":[-5.863342E-1,7.2103405E-1,-2.2317696E0,2.0455208E0,-4.8276216E-1,-4.0870744E-1,-2.8234863E-1,2.2830963E-3,2.7121404E-1,-1.660642E-1,8.560384E-1,-2.1956788E-1,1.0873209E0,1.4583588E-2,1.1382218E-1,1.6589737E-2,1.4650841E-1],"categories":[],"categories_nodes":[],"categories_segments":[],"categories_sizes":[],"default_left":[0,0,0,0,0,0,0,0,0,0,0,0,0,0,0,0,0],"id":21,"left_children":[1,3,5,7,9,-1,11,-1,-1,-1,13,-1,15,-1,-1,-1,-1],"loss_changes":[2.9574654E1,1.3742798E1,2.0546638E1,5.3315372E0,9.306304E0,0E0,1.2869927E1,0E0,0E0,0E0,4.3522835E-1,0E0,8.011856E-1,0E0,0E0,0E0,0E0],"parents":[2147483647,0,0,1,1,2,2,3,3,4,4,6,6,10,10,12,12],"right_children":[2,4,6,8,10,-1,12,-1,-1,-1,14,-1,16,-1,-1,-1,-1],"split_conditions":[8.96E-1,3.6363637E-1,9.35E-1,1E0,8.13E-1,-4.0870744E-1,9.090909E-2,2.2830963E-3,2.7121404E-1,-1.660642E-1,5E-1,-2.1956788E-1,1.6666667E-1,1.4583588E-2,1.1382218E-1,1.6589737E-2,1.4650841E-1],"split_indices":[7,32,7,4,7,0,31,0,0,0,4,0,4,0,0,0,0],"split_type":[0,0,0,0,0,0,0,0,0,0,0,0,0,0,0,0,0],"sum_hessian":[1.2E1,7E0,5E0,3E0,4E0,2E0,3E0,1E0,2E0,2E0,2E0,1E0,2E0,1E0,1E0,1E0,1E0],"tree_param":{"num_deleted":"0","num_feature":"33","num_nodes":"17","size_leaf_vector":"1"}},{"base_weights":[-3.4655586E-1,-1.3847365E0,3.575625E-1,-1.8816032E0,1.7919655E-1,-2.5292838E0,-2.7776146E-1,-1.2522355E-1,-3.814603E-1,-2.0858955E-1,1.02024846E-1],"categories":[],"categories_nodes":[],"categories_segments":[],"categories_sizes":[],"default_left":[0,0,0,0,0,0,0,0,0,0,0],"id":22,"left_children":[1,3,-1,5,-1,7,9,-1,-1,-1,-1],"loss_changes":[5.7886417E1,2.0734142E1,0E0,9.685234E0,0E0,6.7131233E0,1.1516035E1,0E0,0E0,0E0,0E0],"parents":[2147483647,0,0,1,1,3,3,5,5,6,6],"right_children":[2,4,-1,6,-1,8,10,-1,-1,-1,-1],"split_conditions":[4.28E-1,1E0,3.575625E-1,8.181818E-1,1.7919655E-1,8.79E-1,3.3333334E-1,-1.2522355E-1,-3.814603E-1,-2.0858955E-1,1.02024846E-1],"split_indices":[0,23,0,32,0,7,6,0,0,0,0],"split_type":[0,0,0,0,0,0,0,0,0,0,0],"sum_hessian":[1.2E1,1E1,2E0,9E0,1E0,6E0,3E0,4E0,2E0,1E0,2E0],"tree_param":{"num_deleted":"0","num_feature":"33","num_nodes":"11","size_leaf_vector":"1"}},{"base_weights":[1.654757E-1,-7.145975E-1,3.3372524E-1,1.485155E-1,-3.0657375E-1,-1.2758087E0,1.5431366E0,-2.7824212E-2,-2.6330376E-1,8.752823E-3,1.8851566E-1],"categories":[],"categories_nodes":[],"categories_segments":[],"categories_sizes":[],"default_left":[0,0,0,0,0,0,0,0,0,0,0],"id":23,"left_children":[1,3,-1,5,-1,7,9,-1,-1,-1,-1],"loss_changes":[3.8672935E1,2.2777603E1,0E0,1.9846281E1,0E0,6.0370083E0,2.324232E0,0E0,0E0,0E0,0E0],"parents":[2147483647,0,0,1,1,3,3,5,5,6,6],"right_children":[2,4,-1,6,-1,8,10,-1,-1,-1,-1],"split_conditions":[4.28E-1,7.5E-1,3.3372524E-1,1E0,-3.0657375E-1,1.04666665E-1,1.1133333E-1,-2.7824212E-2,-2.6330376E-1,8.752823E-3,1.8851566E-1],"split_indices":[0,1,0,10,0,0,0,0,0,0,0],"split_type":[0,0,0,0,0,0,0,0,0,0,0],"sum_hessian":[1.2E1,1E1,2E0,8E0,2E0,4E0,4E0,3E0,1E0,1E0,3E0],"tree_param":{"num_deleted":"0","num_feature":"33","num_nodes":"11","size_leaf_vector":"1"}},{"base_weights":[-5.783662E-1,-2.501385E-1,-2.0966594E-1,-1.1988862E0,4.3480492E-1,-1.9134922E-1,8.2976915E-2,8.205207E-1,-1.1326027E-1,8.562013E-3,1.771848E-1],"categories":[],"categories_nodes":[],"categories_segments":[],"categories_sizes":[],"default_left":[0,0,0,0,0,0,0,0,0,0,0],"id":24,"left_children":[1,-1,3,5,7,-1,-1,9,-1,-1,-1],"loss_changes":[8.692772E0,0E0,8.171564E0,8.836203E0,5.765915E0,0E0,0E0,4.742211E0,0E0,0E0,0E0],"parents":[2147483647,0,0,2,2,3,3,4,4,7,7],"right_children":[2,-1,4,6,8,-1,-1,10,-1,-1,-1],"split_conditions":[6.07E-1,-2.501385E-1,1.6666667E-1,8.866667E-2,3.84E-1,-1.9134922E-1,8.2976915E-2,2.34E-1,-1.1326027E-1,8.562013E-3,1.771848E-1],"split_indices":[7,0,4,0,0,0,0,0,0,0,0],"split_type":[0,0,0,0,0,0,0,0,0,0,0],"sum_hessian":[1.2E1,1E0,1.1E1,4E0,7E0,3E0,1E0,6E0,1E0,4E0,2E0],"tree_param":{"num_deleted":"0","num_feature":"33","num_nodes":"11","size_leaf_vector":"1"}},{"base_weights":[-4.0459442E-1,-9.1846114E-1,3.1378365E-1,-9.093475E-2,-2.2243164E0,1.0665003E0,-1.8043537E0,-3.4770966E-1,-3.3594844E-1,-6.647339E-2,2.0983009E-1,9.393311E-3,-2.468427E-1,-1.872013E-1,1.3504486E-1],"categories":[],"categories_nodes":[],"categories_segments":[],"categories_sizes":[],"default_left":[0,0,0,0,0,0,0,0,0,0,0,0,0,0,0],"id":25,"left_children":[1,3,-1,5,7,9,11,13,-1,-1,-1,-1,-1,-1,-1],"loss_changes":[2.8366703E1,1.3845921E1,0E0,1.9772884E1,9.483192E0,1.2112543E1,5.274274E0,1.0293582E1,0E0,0E0,0E0,0E0,0E0,0E0,0E0],"parents":[2147483647,0,0,1,1,3,3,4,4,5,5,6,6,7,7],"right_children":[2,4,-1,6,8,10,12,14,-1,-1,-1,-1,-1,-1,-1],"split_conditions":[1E0,8.96E-1,3.1378365E-1,1E0,2.0666666E-2,1.8181819E-1,1.04666665E-1,3.3333334E-1,-3.3594844E-1,-6.647339E-2,2.0983009E-1,9.393311E-3,-2.468427E-1,-1.872013E-1,1.3504486E-1],"split_indices":[0,7,0,30,0,31,0,6,0,0,0,0,0,0,0],"split_type":[0,0,0,0,0,0,0,0,0,0,0,0,0,0,0],"sum_hessian":[1.3E1,1.2E1,1E0,8E0,4E0,5E0,3E0,2E0,2E0,2E0,3E0,1E0,2E0,1E0,1E0],"tree_param":{"num_deleted":"0","num_feature":"33","num_nodes":"15","size_leaf_vector":"1"}},{"base_weights":[-1.9867429E-1,1.17316E0,-2.0795074E0,-6.710701E-1,2.7241E-1,-3.303248E-1,-3.135521E-1,6.071701E-1,-2.2528954E-1,-1.7784119E-1,1.2829247E-1,8.215179E-2,8.9237215E-3],"categories":[],"categories_nodes":[],"categories_segments":[],"categories_sizes":[],"default_left":[0,0,0,0,0,0,0,0,0,0,0,0,0],"id":26,"left_children":[1,3,5,7,-1,9,-1,11,-1,-1,-1,-1,-1],"loss_changes":[3.08217E1,2.1850094E1,8.200062E0,9.455702E0,0E0,9.289946E0,0E0,2.5974333E-1,0E0,0E0,0E0,0E0,0E0],"parents":[2147483647,0,0,1,1,2,2,3,3,5,5,7,7],"right_children":[2,4,6,8,-1,10,-1,12,-1,-1,-1,-1,-1],"split_conditions":[8.79E-1,1E0,2.5E-1,6.666667E-1,2.7241E-1,3.3333334E-1,-3.135521E-1,2.5E-1,-2.2528954E-1,-1.7784119E-1,1.2829247E-1,8.215179E-2,8.9237215E-3],"split_indices":[7,6,1,6,0,6,0,1,0,0,0,0,0],"split_type":[0,0,0,0,0,0,0,0,0,0,0,0,0],"sum_hessian":[1E1,6E0,4E0,3E0,3E0,2E0,2E0,2E0,1E0,1E0,1E0,1E0,1E0],"tree_param":{"num_deleted":"0","num_feature":"33","num_nodes":"13","size_leaf_vector":"1"}},{"base_weights":[2.8887764E-1,2.8797582E-1,-4.4398776E-1,1.5337944E-1,-1.5277252E0,1.3267727E-1,-8.160111E-1,-2.093483E-1,8.477402E-3,-1.4102344E-1,7.804413E-2],"categories":[],"categories_nodes":[],"categories_segments":[],"categories_sizes":[],"default_left":[0,0,0,0,0,0,0,0,0,0,0],"id":27,"left_children":[1,-1,3,5,7,-1,9,-1,-1,-1,-1],"loss_changes":[2.5962543E1,0E0,7.3556027E0,1.0182471E1,3.8266087E0,0E0,5.8438516E0,0E0,0E0,0E0,0E0],"parents":[2147483647,0,0,2,2,3,3,4,4,6,6],"right_children":[2,-1,4,6,8,-1,10,-1,-1,-1,-1],"split_conditions":[1E0,2.8797582E-1,2.5E-1,9.0909094E-1,1.6666667E-1,1.3267727E-1,1E0,-2.093483E-1,8.477402E-3,-1.4102344E-1,7.804413E-2],"split_indices":[26,0,1,32,9,0,32,0,0,0,0],"split_type":[0,0,0,0,0,0,0,0,0,0,0],"sum_hessian":[1.2E1,2E0,1E1,7E0,3E0,3E0,4E0,2E0,1E0,3E0,1E0],"tree_param":{"num_deleted":"0","num_feature":"33","num_nodes":"11","size_leaf_vector":"1"}},{"base_weights":[-3.4803596E-1,-1.0371648E0,2.294782E-1,-1.66785E0,1.2006124E-1,-2.194871E0,1.2741585E-1,-2.5965092E-1,-6.599706E-2],"categories":[],"categories_nodes":[],"categories_segments":[],"categories_sizes":[],"default_left":[0,0,0,0,0,0,0,0,0],"id":28,"left_children":[1,3,-1,5,-1,7,-1,-1,-1],"loss_changes":[2.6056217E1,1.7527103E1,0E0,1.6751114E1,0E0,3.2181778E0,0E0,0E0,0E0],"parents":[2147483647,0,0,1,1,3,3,5,5],"right_children":[2,4,-1,6,-1,8,-1,-1,-1],"split_conditions":[1E0,9.35E-1,2.294782E-1,1E0,1.2006124E-1,8.181818E-1,1.2741585E-1,-2.5965092E-1,-6.599706E-2],"split_indices":[32,7,0,23,0,32,0,0,0],"split_type":[0,0,0,0,0,0,0,0,0],"sum_hessian":[1.2E1,1E1,2E0,8E0,2E0,7E0,1E0,5E0,2E0],"tree_param":{"num_deleted":"0","num_feature":"33","num_nodes":"9","size_leaf_vector":"1"}},{"base_weights":[2.6434654E-1,6.851079E-1,-2.6027757E-1,2.6978302E-1,7.390109E-2,-2.0767632E-1,4.9664384E-1,7.972946E-2,-1.1046066E-1],"categories":[],"categories_nodes":[],"categories_segments":[],"categories_sizes":[],"default_left":[0,0,0,0,0,0,0,0,0],"id":29,"left_children":[1,3,-1,-1,5,-1,7,-1,-1],"loss_changes":[1.867242E1,1.5793093E1,0E0,0E0,1.1032367E1,0E0,5.694869E0,0E0,0E0],"parents":[2147483647,0,0,1,1,4,4,6,6],"right_children":[2,4,-1,-1,6,-1,8,-1,-1],"split_conditions":[1E0,1E0,-2.6027757E-1,2.6978302E-1,6.07E-1,-2.0767632E-1,7.5E-1,7.972946E-2,-1.1046066E-1],"split_indices":[5,26,0,0,7,0,1,0,0],"split_type":[0,0,0,0,0,0,0,0,0],"sum_hessian":[1.3E1,1.2E1,1E0,2E0,1E1,1E0,9E0,8E0,1E0],"tree_param":{"num_deleted":"0","num_feature":"33","num_nodes":"9","size_leaf_vector":"1"}},{"base_weights":[-2.8356552E-1,-8.371499E-1,2.025294E0,-3.00177E-1,-2.3480098E-1,5.868187E-2,2.4511223E-1,-1.0244414E0,1.0423298E0,-5.887413E-3,-1.7338982E-1,1.704979E-2,1.2761079E-1],"categories":[],"categories_nodes":[],"categories_segments":[],"categories_sizes":[],"default_left":[0,0,0,0,0,0,0,0,0,0,0,0,0],"id":30,"left_children":[1,3,5,7,-1,-1,-1,9,11,-1,-1,-1,-1],"loss_changes":[1.9589554E1,9.030671E0,3.9926624E-1,1.0791103E1,0E0,0E0,0E0,4.6931157E0,5.9768677E-1,0E0,0E0,0E0,0E0],"parents":[2147483647,0,0,1,1,2,2,3,3,7,7,8,8],"right_children":[2,4,6,8,-1,-1,-1,10,12,-1,-1,-1,-1],"split_conditions":[1E0,7.5E-1,1.2466667E-1,3.6363637E-1,-2.3480098E-1,5.868187E-2,2.4511223E-1,5E-2,1.04666665E-1,-5.887413E-3,-1.7338982E-1,1.704979E-2,1.2761079E-1],"split_indices":[32,1,0,31,0,0,0,0,0,0,0,0,0],"split_type":[0,0,0,0,0,0,0,0,0,0,0,0,0],"sum_hessian":[1.3E1,1.1E1,2E0,9E0,2E0,1E0,1E0,6E0,3E0,3E0,3E0,1E0,2E0],"tree_param":{"num_deleted":"0","num_feature":"33","num_nodes":"13","size_leaf_vector":"1"}},{"base_weights":[-6.0105664E-1,-1.0392393E0,2.3285675E-1,-1.3349484E0,1.106781E-1,-6.0665005E-1,-1.8407555E-1,-2.1571426E-1,7.07882E-2],"categories":[],"categories_nodes":[],"categories_segments":[],"categories_sizes":[],"default_left":[0,0,0,0,0,0,0,0,0],"id":31,"left_children":[1,3,-1,5,-1,7,-1,-1,-1],"loss_changes":[1.9108173E1,9.0926695E0,0E0,2.9354687E0,0E0,1.3756035E1,0E0,0E0,0E0],"parents":[2147483647,0,0,1,1,3,3,5,5],"right_children":[2,4,-1,6,-1,8,-1,-1,-1],"split_conditions":[1E0,1E0,2.3285675E-1,1.1133333E-1,1.106781E-1,1.6666667E-1,-1.8407555E-1,-2.1571426E-1,7.07882E-2],"split_indices":[0,23,0,0,0,4,0,0,0],"split_type":[0,0,0,0,0,0,0,0,0],"sum_hessian":[1.2E1,1.1E1,1E0,1E1,1E0,5E0,5E0,2E0,3E0],"tree_param":{"num_deleted":"0","num_feature":"33","num_nodes":"9","size_leaf_vector":"1"}},{"base_weights":[-4.245464E-1,-7.975329E-1,2.2121392E-1,-3.8002778E-2,-2.4969749E-1,1.13396965E-1,-4.7274208E-1,-1.1803074E-1,1.8785859E-2],"categories":[],"categories_nodes":[],"categories_segments":[],"categories_sizes":[],"default_left":[0,0,0,0,0,0,0,0,0],"id":32,"left_children":[1,3,-1,5,-1,-1,7,-1,-1],"loss_changes":[1.5532527E1,1.6685215E1,0E0,5.6310997E0,0E0,0E0,3.9610758E0,0E0,0E0],"parents":[2147483647,0,0,1,1,3,3,6,6],"right_children":[2,4,-1,6,-1,-1,8,-1,-1],"split_conditions":[1E0,3.3533335E-1,2.2121392E-1,7.86E-1,-2.4969749E-1,1.13396965E-1,1.6666667E-1,-1.1803074E-1,1.8785859E-2],"split_indices":[0,0,0,7,0,0,4,0,0],"split_type":[0,0,0,0,0,0,0,0,0],"sum_hessian":[1.3E1,1.2E1,1E0,9E0,3E0,2E0,7E0,3E0,4E0],"tree_param":{"num_deleted":"0","num_feature":"33","num_nodes":"9","size_leaf_vector":"1"}},{"base_weights":[-1.5627384E-2,-4.7307116E-1,1.4749718E0,-1.586914E-2,-1.9917883E-1,-8.1171416E-2,2.5077718E-1,-1.669342E-1,3.1641236E-1,-6.362992E-2,1.0576033E-1],"categories":[],"categories_nodes":[],"categories_segments":[],"categories_sizes":[],"default_left":[0,0,0,0,0,0,0,0,0,0,0],"id":33,"left_children":[1,3,5,7,-1,-1,-1,-1,9,-1,-1],"loss_changes":[1.1607612E1,8.995079E0,1.1482352E1,6.5718036E0,0E0,0E0,0E0,0E0,7.734363E0,0E0,0E0],"parents":[2147483647,0,0,1,1,2,2,3,3,8,8],"right_children":[2,4,6,8,-1,-1,-1,-1,10,-1,-1],"split_conditions":[4.28E-1,7.5E-1,2.5E-1,6.07E-1,-1.9917883E-1,-8.1171416E-2,2.5077718E-1,-1.669342E-1,1.6666667E-1,-6.362992E-2,1.0576033E-1],"split_indices":[0,1,1,7,0,0,0,0,4,0,0],"split_type":[0,0,0,0,0,0,0,0,0,0,0],"sum_hessian":[1.5E1,1.2E1,3E0,1E1,2E0,1E0,2E0,1E0,9E0,4E0,5E0],"tree_param":{"num_deleted":"0","num_feature":"33","num_nodes":"11","size_leaf_vector":"1"}},{"base_weights":[2.248642E-1,1.9917145E-1,-1.2849884E0,-2.4755478E-1,-2.2399037E-1,-1.5172425E-1,6.8142194E-1,9.578247E-2,6.430817E-3],"categories":[],"categories_nodes":[],"categories_segments":[],"categories_sizes":[],"default_left":[0,0,0,0,0,0,0,0,0],"id":34,"left_children":[1,-1,3,5,-1,-1,7,-1,-1],"loss_changes":[2.9236164E1,0E0,5.389468E0,5.751923E0,0E0,0E0,4.501201E-1,0E0,0E0],"parents":[2147483647,0,0,2,2,3,3,6,6],"right_children":[2,-1,4,6,-1,-1,8,-1,-1],"split_conditions":[8.5E-1,1.9917145E-1,1E0,1.6666667E-1,-2.2399037E-1,-1.5172425E-1,2.0666666E-2,9.578247E-2,6.430817E-3],"split_indices":[7,0,10,4,0,0,0,0,0],"split_type":[0,0,0,0,0,0,0,0,0],"sum_hessian":[9E0,4E0,5E0,3E0,2E0,1E0,2E0,1E0,1E0],"tree_param":{"num_deleted":"0","num_feature":"33","num_nodes":"9","size_leaf_vector":"1"}},{"base_weights":[2.6173225E-1,-5.5862594E-1,1.6860306E0,-1.5413971E-1,-5.7634626E-2,6.1092377E-3,2.0769921E-1,1.1573435E-1,-7.750946E-1,-1.3409634E-1,7.441902E-2],"categories":[],"categories_nodes":[],"categories_segments":[],"categories_sizes":[],"default_left":[0,0,0,0,0,0,0,0,0,0,0],"id":35,"left_children":[1,3,5,-1,7,-1,-1,-1,9,-1,-1],"loss_changes":[1.6131514E1,4.3424006E0,3.049553E0,0E0,6.9989376E0,0E0,0E0,0E0,5.296511E0,0E0,0E0],"parents":[2147483647,0,0,1,1,2,2,4,4,8,8],"right_children":[2,4,6,-1,8,-1,-1,-1,10,-1,-1],"split_conditions":[3.3333334E-1,9.090909E-2,1.04666665E-1,-1.5413971E-1,5E-2,6.1092377E-3,2.0769921E-1,1.1573435E-1,3.4E-1,-1.3409634E-1,7.441902E-2],"split_indices":[1,31,0,0,0,0,0,0,0,0,0],"split_type":[0,0,0,0,0,0,0,0,0,0,0],"sum_hessian":[1.2E1,8E0,4E0,2E0,6E0,1E0,3E0,2E0,4E0,3E0,1E0],"tree_param":{"num_deleted":"0","num_feature":"33","num_nodes":"11","size_leaf_vector":"1"}},{"base_weights":[-1.0950529E-2,-7.5461674E-1,9.824295E-1,-1.3097732E0,1.279831E-1,1.6740875E-1,2.1807861E-1,-1.8403117E-1,-3.4264374E-1,-1.3643113E-1,1.08018495E-1,-5.9676105E-1,1.3312988E-1,2.7968217E-2,-7.936478E-2,5.8036805E-3,-9.531784E-2],"categories":[],"categories_nodes":[],"categories_segments":[],"categories_sizes":[],"default_left":[0,0,0,0,0,0,0,0,0,0,0,0,0,0,0,0,0],"id":36,"left_children":[1,3,5,7,9,-1,11,-1,13,-1,-1,15,-1,-1,-1,-1,-1],"loss_changes":[1.0345018E1,4.0874767E0,2.8069344E0,1.9349251E0,7.15757E0,0E0,4.422851E0,0E0,1.0639836E0,0E0,0E0,7.5546336E-1,0E0,0E0,0E0,0E0,0E0],"parents":[2147483647,0,0,1,1,2,2,3,3,4,4,6,6,8,8,11,11],"right_children":[2,4,6,8,10,-1,12,-1,14,-1,-1,16,-1,-1,-1,-1,-1],"split_conditions":[3.3333334E-1,9.35E-1,6.43E-1,8.181818E-1,9.090909E-2,1.6740875E-1,1E0,-1.8403117E-1,2.5E-1,-1.3643113E-1,1.08018495E-1,7.5E-1,1.3312988E-1,2.7968217E-2,-7.936478E-2,5.8036805E-3,-9.531784E-2],"split_indices":[1,7,7,32,31,0,1,0,3,0,0,1,0,0,0,0,0],"split_type":[0,0,0,0,0,0,0,0,0,0,0,0,0,0,0,0,0],"sum_hessian":[1.2E1,7E0,5E0,4E0,3E0,2E0,3E0,2E0,2E0,1E0,2E0,2E0,1E0,1E0,1E0,1E0,1E0],"tree_param":{"num_deleted":"0","num_feature":"33","num_nodes":"17","size_leaf_vector":"1"}},{"base_weights":[8.320618E-2,-4.834722E-1,9.1935605E-1,-1.520246E-1,2.9926846E-2,1.5624796E-1,2.071743E-1,-8.790035E-1,9.3137555E-2,-5.669225E-1,1.2647323E-1,5.8812715E-2,-1.5640895E-1,5.513382E-3,-9.055176E-2],"categories":[],"categories_nodes":[],"categories_segments":[],"categories_sizes":[],"default_left":[0,0,0,0,0,0,0,0,0,0,0,0,0,0,0],"id":37,"left_children":[1,3,5,-1,7,-1,9,11,-1,13,-1,-1,-1,-1,-1],"loss_changes":[7.078076E0,4.836004E0,2.4244194E0,0E0,6.5541606E0,0E0,3.9916148E0,4.9403257E0,0E0,6.8180025E-1,0E0,0E0,0E0,0E0,0E0],"parents":[2147483647,0,0,1,1,2,2,4,4,6,6,7,7,9,9],"right_children":[2,4,6,-1,8,-1,10,12,-1,14,-1,-1,-1,-1,-1],"split_conditions":[3.3333334E-1,7.37E-1,6.43E-1,-1.520246E-1,1.6666667E-1,1.5624796E-1,1E0,7.86E-1,9.3137555E-2,7.5E-1,1.2647323E-1,5.8812715E-2,-1.5640895E-1,5.513382E-3,-9.055176E-2],"split_indices":[1,7,7,0,4,0,1,7,0,1,0,0,0,0,0],"split_type":[0,0,0,0,0,0,0,0,0,0,0,0,0,0,0],"sum_hessian":[1.3E1,8E0,5E0,2E0,6E0,2E0,3E0,3E0,3E0,2E0,1E0,1E0,2E0,1E0,1E0],"tree_param":{"num_deleted":"0","num_feature":"33","num_nodes":"15","size_leaf_vector":"1"}},{"base_weights":[1.9789886E-1,5.744603E-1,-2.1604195E-1,1.8749136E-1,1.2687835E-1,1.0292639E-1,-2.2737598E-1,-8.064728E-2,2.8137667E-2],"categories":[],"categories_nodes":[],"categories_segments":[],"categories_sizes":[],"default_left":[0,0,0,0,0,0,0,0,0],"id":38,"left_children":[1,3,-1,-1,5,-1,7,-1,-1],"loss_changes":[1.2785749E1,6.746827E0,0E0,0E0,3.4307697E0,0E0,2.5838585E0,0E0,0E0],"parents":[2147483647,0,0,1,1,4,4,6,6],"right_children":[2,4,-1,-1,6,-1,8,-1,-1],"split_conditions":[1E0,1E0,-2.1604195E-1,1.8749136E-1,5E-2,1.0292639E-1,1.6666667E-1,-8.064728E-2,2.8137667E-2],"split_indices":[5,26,0,0,0,0,9,0,0],"split_type":[0,0,0,0,0,0,0,0,0],"sum_hessian":[1.2E1,1.1E1,1E0,2E0,9E0,2E0,7E0,3E0,4E0],"tree_param":{"num_deleted":"0","num_feature":"33","num_nodes":"9","size_leaf_vector":"1"}},{"base_weights":[-1.3740246E-1,1.9321378E-1,-2.0523988E-1,1.7499186E-1,-2.9311904E-1,-9.655487E-1,3.1609216E-1,-1.4881992E-1,5.625267E-2,-3.7955474E-2,7.588043E-2],"categories":[],"categories_nodes":[],"categories_segments":[],"categories_sizes":[],"default_left":[0,0,0,0,0,0,0,0,0,0,0],"id":39,"left_children":[1,3,-1,-1,5,7,9,-1,-1,-1,-1],"loss_changes":[8.627227E0,9.597855E0,0E0,0E0,4.4017196E0,4.8303986E0,2.135836E0,0E0,0E0,0E0,0E0],"parents":[2147483647,0,0,1,1,4,4,5,5,6,6],"right_children":[2,4,-1,-1,6,8,10,-1,-1,-1,-1],"split_conditions":[1E0,1E0,-2.0523988E-1,1.7499186E-1,8.13E-1,1E0,2.0666666E-2,-1.4881992E-1,5.625267E-2,-3.7955474E-2,7.588043E-2],"split_indices":[5,26,0,0,7,23,0,0,0,0,0],"split_type":[0,0,0,0,0,0,0,0,0,0,0],"sum_hessian":[1.2E1,1.1E1,1E0,2E0,9E0,4E0,5E0,3E0,1E0,2E0,3E0],"tree_param":{"num_deleted":"0","num_feature":"33","num_nodes":"11","size_leaf_vector":"1"}},{"base_weights":[2.3523657E-1,-2.7338964E-1,1.5751496E-1,8.0523685E-2,-6.0255516E-1,-1.6455515E-1,-1.4237036E-1,-7.5841144E-2,4.704399E-2],"categories":[],"categories_nodes":[],"categories_segments":[],"categories_sizes":[],"default_left":[0,0,0,0,0,0,0,0,0],"id":40,"left_children":[1,3,-1,-1,5,7,-1,-1,-1],"loss_changes":[9.971837E0,4.3907127E0,0E0,0E0,3.0026896E0,2.9964576E0,0E0,0E0,0E0],"parents":[2147483647,0,0,1,1,4,4,5,5],"right_children":[2,4,-1,-1,6,8,-1,-1,-1],"split_conditions":[3.4E-1,1E0,1.5751496E-1,8.0523685E-2,1.1133333E-1,1.6666667E-1,-1.4237036E-1,-7.5841144E-2,4.704399E-2],"split_indices":[0,25,0,0,0,4,0,0,0],"split_type":[0,0,0,0,0,0,0,0,0],"sum_hessian":[1.3E1,1E1,3E0,2E0,8E0,6E0,2E0,3E0,3E0],"tree_param":{"num_deleted":"0","num_feature":"33","num_nodes":"9","size_leaf_vector":"1"}},{"base_weights":[-2.0916983E-1,2.4823761E-1,-1.8166071E-1,-4.320657E-1,1.1510147E-1,7.062397E-1,-1.4623547E-1,-2.3155212E-3,9.570897E-2],"categories":[],"categories_nodes":[],"categories_segments":[],"categories_sizes":[],"default_left":[0,0,0,0,0,0,0,0,0],"id":41,"left_children":[1,3,-1,5,-1,7,-1,-1,-1],"loss_changes":[1.000925E1,7.2530985E0,0E0,9.242257E0,0E0,7.5403666E-1,0E0,0E0,0E0],"parents":[2147483647,0,0,1,1,3,3,5,5],"right_children":[2,4,-1,6,-1,8,-1,-1,-1],"split_conditions":[2.5E-1,8.181818E-1,-1.8166071E-1,3.6363637E-1,1.1510147E-1,1.04666665E-1,-1.4623547E-1,-2.3155212E-3,9.570897E-2],"split_indices":[5,32,0,32,0,0,0,0,0],"split_type":[0,0,0,0,0,0,0,0,0],"sum_hessian":[1.2E1,1E1,2E0,6E0,4E0,3E0,3E0,1E0,2E0],"tree_param":{"num_deleted":"0","num_feature":"33","num_nodes":"9","size_leaf_vector":"1"}},{"base_weights":[3.7612326E-2,3.6369768E-1,-1.937706E-1,-6.571884E-1,7.77014E-1,-1.2700081E-1,-2.9579163E-2,1.025526E0,-6.0554124E-2,8.140411E-2,-8.584099E-2,4.8106235E-2,1.4497243E-1],"categories":[],"categories_nodes":[],"categories_segments":[],"categories_sizes":[],"default_left":[0,0,0,0,0,0,0,0,0,0,0,0,0],"id":42,"left_children":[1,3,-1,5,7,-1,9,11,-1,-1,-1,-1,-1],"loss_changes":[9.07833E0,5.5740304E0,0E0,1.5008793E0,3.7132335E0,0E0,2.7964363E0,1.1502762E0,0E0,0E0,0E0,0E0,0E0],"parents":[2147483647,0,0,1,1,3,3,4,4,6,6,7,7],"right_children":[2,4,-1,6,8,-1,10,12,-1,-1,-1,-1,-1],"split_conditions":[1E0,1.6666667E-1,-1.937706E-1,2.0666666E-2,2.5E-1,-1.2700081E-1,5E-2,3.3533335E-1,-6.0554124E-2,8.140411E-2,-8.584099E-2,4.8106235E-2,1.4497243E-1],"split_indices":[5,4,0,0,3,0,0,0,0,0,0,0,0],"split_type":[0,0,0,0,0,0,0,0,0,0,0,0,0],"sum_hessian":[1.2E1,1.1E1,1E0,3E0,8E0,1E0,2E0,7E0,1E0,1E0,1E0,4E0,3E0],"tree_param":{"num_deleted":"0","num_feature":"33","num_nodes":"13","size_leaf_vector":"1"}},{"base_weights":[9.173643E-2,-4.171402E-1,1.340994E-1,-1.7054833E-1,-1.3182335E-1,-1.20650865E-1,1.09760284E-1,7.518005E-2,-4.25824E-2],"categories":[],"categories_nodes":[],"categories_segments":[],"categories_sizes":[],"default_left":[0,0,0,0,0,0,0,0,0],"id":43,"left_children":[1,3,-1,5,-1,-1,7,-1,-1],"loss_changes":[8.823715E0,1.9972004E0,0E0,2.745924E0,0E0,0E0,3.0710678E0,0E0,0E0],"parents":[2147483647,0,0,1,1,3,3,6,6],"right_children":[2,4,-1,6,-1,-1,8,-1,-1],"split_conditions":[3.4E-1,3.3533335E-1,1.340994E-1,9.090909E-2,-1.3182335E-1,-1.20650865E-1,2.5E-1,7.518005E-2,-4.25824E-2],"split_indices":[0,0,0,31,0,0,1,0,0],"split_type":[0,0,0,0,0,0,0,0,0],"sum_hessian":[1.2E1,9E0,3E0,8E0,1E0,1E0,7E0,3E0,4E0],"tree_param":{"num_deleted":"0","num_feature":"33","num_nodes":"9","size_leaf_vector":"1"}},{"base_weights":[-2.3179753E-1,2.2421035E-1,-1.674558E-1,-1.6408865E-1,8.476811E-2,-6.023178E-1,3.1516266E-1,-1.146183E-1,-3.8968404E-3,5.762863E-2,3.6026002E-3],"categories":[],"categories_nodes":[],"categories_segments":[],"categories_sizes":[],"default_left":[0,0,0,0,0,0,0,0,0,0,0],"id":44,"left_children":[1,3,-1,5,-1,7,9,-1,-1,-1,-1],"loss_changes":[8.270375E0,2.5600252E0,0E0,1.6599814E0,0E0,1.1808797E0,2.707954E-1,0E0,0E0,0E0,0E0],"parents":[2147483647,0,0,1,1,3,3,5,5,6,6],"right_children":[2,4,-1,6,-1,8,10,-1,-1,-1,-1],"split_conditions":[7.5E-1,1.1133333E-1,-1.674558E-1,1.6666667E-1,8.476811E-2,2.0666666E-2,2.0666666E-2,-1.146183E-1,-3.8968404E-3,5.762863E-2,3.6026002E-3],"split_indices":[1,0,0,4,0,0,0,0,0,0,0],"split_type":[0,0,0,0,0,0,0,0,0,0,0],"sum_hessian":[1.1E1,9E0,2E0,6E0,3E0,3E0,3E0,1E0,2E0,1E0,2E0],"tree_param":{"num_deleted":"0","num_feature":"33","num_nodes":"11","size_leaf_vector":"1"}},{"base_weights":[1.6528103E-1,-2.4051389E-1,1.2398968E-1,6.917598E-2,-5.24548E-1,-1.5586308E-1,-1.2099635E-1,-5.717144E-2,2.98954E-2],"categories":[],"categories_nodes":[],"categories_segments":[],"categories_sizes":[],"default_left":[0,0,0,0,0,0,0,0,0],"id":45,"left_children":[1,3,-1,-1,5,7,-1,-1,-1],"loss_changes":[6.4032426E0,3.2756338E0,0E0,0E0,2.0857325E0,1.4948703E0,0E0,0E0,0E0],"parents":[2147483647,0,0,1,1,4,4,5,5],"right_children":[2,4,-1,-1,6,8,-1,-1,-1],"split_conditions":[3.4E-1,1E0,1.2398968E-1,6.917598E-2,1.1133333E-1,1.6666667E-1,-1.2099635E-1,-5.717144E-2,2.98954E-2],"split_indices":[0,25,0,0,0,4,0,0,0],"split_type":[0,0,0,0,0,0,0,0,0],"sum_hessian":[1.3E1,1E1,3E0,2E0,8E0,6E0,2E0,3E0,3E0],"tree_param":{"num_deleted":"0","num_feature":"33","num_nodes":"9","size_leaf_vector":"1"}},{"base_weights":[-3.8057417E-1,-9.793218E-2,-1.8861389E-1,-1.23421095E-1,1.1756689E-1,-1.0602875E-1,3.4138107E-1,1.0202408E-2,8.658727E-2],"categories":[],"categories_nodes":[],"categories_segments":[],"categories_sizes":[],"default_left":[0,0,0,0,0,0,0,0,0],"id":46,"left_children":[1,3,-1,-1,5,-1,7,-1,-1],"loss_changes":[5.3472514E0,3.0835066E0,0E0,0E0,3.2617877E0,0E0,1.1670675E0,0E0,0E0],"parents":[2147483647,0,0,1,1,4,4,6,6],"right_children":[2,4,-1,-1,6,-1,8,-1,-1],"split_conditions":[1E0,6.07E-1,-1.8861389E-1,-1.23421095E-1,9.090909E-2,-1.0602875E-1,9.35E-1,1.0202408E-2,8.658727E-2],"split_indices":[5,7,0,0,31,0,7,0,0],"split_type":[0,0,0,0,0,0,0,0,0],"sum_hessian":[1.2E1,1.1E1,1E0,1E0,1E1,1E0,9E0,7E0,2E0],"tree_param":{"num_deleted":"0","num_feature":"33","num_nodes":"9","size_leaf_vector":"1"}},{"base_weights":[-3.0604553E-1,-6.5139264E-1,1.177358E-1,-2.84568E-1,-1.6570105E-1,-8.4527206E-1,7.648686E-2,-3.4536235E-2,-1.1725006E-1,7.9097494E-2,-3.6750335E-2],"categories":[],"categories_nodes":[],"categories_segments":[],"categories_sizes":[],"default_left":[0,0,0,0,0,0,0,0,0,0,0],"id":47,"left_children":[1,3,-1,5,-1,7,9,-1,-1,-1,-1],"loss_changes":[7.938969E0,3.9550915E0,0E0,2.0891018E0,0E0,2.4940133E-1,2.5112658E0,0E0,0E0,0E0,0E0],"parents":[2147483647,0,0,1,1,3,3,5,5,6,6],"right_children":[2,4,-1,6,-1,8,10,-1,-1,-1,-1],"split_conditions":[1E0,3.84E-1,1.177358E-1,1.8181819E-1,-1.6570105E-1,2.0666666E-2,2.5E-1,-3.4536235E-2,-1.1725006E-1,7.9097494E-2,-3.6750335E-2],"split_indices":[32,0,0,31,0,0,1,0,0,0,0],"split_type":[0,0,0,0,0,0,0,0,0,0,0],"sum_hessian":[1.3E1,1.1E1,2E0,9E0,2E0,3E0,6E0,2E0,1E0,2E0,4E0],"tree_param":{"num_deleted":"0","num_feature":"33","num_nodes":"11","size_leaf_vector":"1"}},{"base_weights":[-6.008339E-2,2.4517822E-1,-1.7089806E-1,1.2705511E-1,-1.2385474E-1,-1.1498057E-1,3.3353207E-1,6.09066E-2,-2.5384903E-3],"categories":[],"categories_nodes":[],"categories_segments":[],"categories_sizes":[],"default_left":[0,0,0,0,0,0,0,0,0],"id":48,"left_children":[1,3,-1,-1,5,-1,7,-1,-1],"loss_changes":[6.4591446E0,4.319724E0,0E0,0E0,4.606805E0,0E0,7.0771766E-1,0E0,0E0],"parents":[2147483647,0,0,1,1,4,4,6,6],"right_children":[2,4,-1,-1,6,-1,8,-1,-1],"split_conditions":[1E0,1E0,-1.7089806E-1,1.2705511E-1,7.37E-1,-1.1498057E-1,5E-1,6.09066E-2,-2.5384903E-3],"split_indices":[5,26,0,0,7,0,4,0,0],"split_type":[0,0,0,0,0,0,0,0,0],"sum_hessian":[1.1E1,1E1,1E0,2E0,8E0,2E0,6E0,3E0,3E0],"tree_param":{"num_deleted":"0","num_feature":"33","num_nodes":"9","size_leaf_vector":"1"}},{"base_weights":[-1.6445706E-2,1.1858495E-1,-3.1564903E-1,6.686147E-2,-5.793632E-1,-8.237629E-1,2.654902E-1,-1.1412106E-1,-4.050522E-2,4.251938E-2,-2.6958466E-3],"categories":[],"categories_nodes":[],"categories_segments":[],"categories_sizes":[],"default_left":[0,0,0,0,0,0,0,0,0,0,0],"id":49,"left_children":[1,-1,3,-1,5,7,9,-1,-1,-1,-1],"loss_changes":[5.410542E0,0E0,3.5021431E0,0E0,2.28352E0,6.0109997E-1,1.5157786E-1,0E0,0E0,0E0,0E0],"parents":[2147483647,0,0,2,2,4,4,5,5,6,6],"right_children":[2,-1,4,-1,6,8,10,-1,-1,-1,-1],"split_conditions":[1E0,1.1858495E-1,1E0,6.686147E-2,3.3333334E-1,8.181818E-1,2.5E-1,-1.1412106E-1,-4.050522E-2,4.251938E-2,-2.6958466E-3],"split_indices":[26,0,25,0,9,32,1,0,0,0,0],"split_type":[0,0,0,0,0,0,0,0,0,0,0],"sum_hessian":[1.3E1,2E0,1.1E1,2E0,9E0,7E0,2E0,3E0,4E0,1E0,1E0],"tree_param":{"num_deleted":"0","num_feature":"33","num_nodes":"11","size_leaf_vector":"1"}}]},"name":"gbtree"},"learner_model_param":{"base_score":"[8.5E1]","boost_from_average":"1","num_class":"0","num_feature":"33","num_target":"1"},"objective":{"name":"reg:squarederror","reg_loss_param":{"scale_pos_weight":"1"}}},"version":[3,1,1]}