{"learner":{"attributes":{"scikit_learn":"{\"_estimator_type\": \"regressor\"}"},"feature_names":["serp_rank","target_score","wordCountNorm","paragraphCountNorm","h2CountNorm","actionableScoreNorm","evidenceCountNorm","experienceCueNorm","recentYearNorm","uniqueWordRatio","titleIntentMatch","referenceKeywordNorm","hasH1Keyword","hasUniqueTitle","hasAuthorInfo","hasPublisherInfo","hasArticleSchema","hasPublishedDate","hasModifiedDate","hasVisibleDate","metaDescriptionPresent","canonicalPresent","externalLinkPresent","authorityLinkPresent","listPresent","tablePresent","longParagraphPenalty","avgSentenceLengthNorm","depthLowFlag","readabilityWeakFlag","actionableWeakFlag","freshnessWeakFlag","titleMismatchFlag","hcuYesRatio","hcuNoRatio","hcuPartialRatio","hcuContentHelpfulness","qaFormatScore","firstParagraphAnswerQuality","semanticParagraphFocus","headingHierarchyQuality","topicCohesion","faqSchemaPresent","howtoSchemaPresent","articleSchemaPresent","organizationSchemaPresent","ogTagsComplete","metaTagsQuality","htmlStructureValidity","authorInfoPresent","brandEntityClarity","externalCitationCount","socialMediaLinksPresent","reviewRatingPresent","semanticNaturalness","paragraphExtractability","richSnippetFormat","citabilityTrustScore","multimediaSupport","analysis_http_status","analysis_error_code","analysis_attempts"],"feature_types":["int","int","float","float","float","float","float","float","float","float","float","float","float","float","float","float","float","float","float","float","float","float","float","float","float","float","float","float","float","float","float","float","float","float","float","float","float","float","float","float","float","float","float","float","float","float","float","float","float","float","float","float","float","float","float","float","float","float","float","float","float","float"],"gradient_booster":{"model":{"cats":{"enc":[],"feature_segments":[],"sorted_idx":[]},"gbtree_model_param":{"num_parallel_tree":"1","num_trees":"200"},"iteration_indptr":[0,1,2,3,4,5,6,7,8,9,10,11,12,13,14,15,16,17,18,19,20,21,22,23,24,25,26,27,28,29,30,31,32,33,34,35,36,37,38,39,40,41,42,43,44,45,46,47,48,49,50,51,52,53,54,55,56,57,58,59,60,61,62,63,64,65,66,67,68,69,70,71,72,73,74,75,76,77,78,79,80,81,82,83,84,85,86,87,88,89,90,91,92,93,94,95,96,97,98,99,100,101,102,103,104,105,106,107,108,109,110,111,112,113,114,115,116,117,118,119,120,121,122,123,124,125,126,127,128,129,130,131,132,133,134,135,136,137,138,139,140,141,142,143,144,145,146,147,148,149,150,151,152,153,154,155,156,157,158,159,160,161,162,163,164,165,166,167,168,169,170,171,172,173,174,175,176,177,178,179,180,181,182,183,184,185,186,187,188,189,190,191,192,193,194,195,196,197,198,199,200],"tree_info":[0,0,0,0,0,0,0,0,0,0,0,0,0,0,0,0,0,0,0,0,0,0,0,0,0,0,0,0,0,0,0,0,0,0,0,0,0,0,0,0,0,0,0,0,0,0,0,0,0,0,0,0,0,0,0,0,0,0,0,0,0,0,0,0,0,0,0,0,0,0,0,0,0,0,0,0,0,0,0,0,0,0,0,0,0,0,0,0,0,0,0,0,0,0,0,0,0,0,0,0,0,0,0,0,0,0,0,0,0,0,0,0,0,0,0,0,0,0,0,0,0,0,0,0,0,0,0,0,0,0,0,0,0,0,0,0,0,0,0,0,0,0,0,0,0,0,0,0,0,0,0,0,0,0,0,0,0,0,0,0,0,0,0,0,0,0,0,0,0,0,0,0,0,0,0,0,0,0,0,0,0,0,0,0,0,0,0,0,0,0,0,0,0,0,0,0,0,0,0,0],"trees":[{"base_weights":[9.632742E-2,4.729845E0,-2.9879158E1,-3.446458E1,-2.7341692E1,-2.8611832E0,-2.2952662E0,-2.3970894E1,-2.9482353E1,-2.4112095E1,-7.1740884E-1,-2.3640625E0,-5.661655E-1,-1.455793E0,-1.978878E0],"categories":[],"categories_nodes":[],"categories_segments":[],"categories_sizes":[],"default_left":[0,0,0,0,0,0,0,0,0,0,0,0,0,0,0],"id":0,"left_children":[1,-1,3,5,7,-1,-1,9,11,13,-1,-1,-1,-1,-1],"loss_changes":[1.534028E6,0E0,5.748E3,4.8279688E2,1.9991875E3,0E0,0E0,1.03671875E2,1.3584375E2,9.967969E1,0E0,0E0,0E0,0E0,0E0],"parents":[2147483647,0,0,2,2,3,3,4,4,7,7,8,8,9,9],"right_children":[2,-1,4,6,8,-1,-1,10,12,14,-1,-1,-1,-1,-1],"split_conditions":[1E-1,4.729845E0,1E0,1.8181819E-1,6.363636E-1,-2.8611832E0,-2.2952662E0,1E0,1E0,1.8181819E-1,-7.1740884E-1,-2.3640625E0,-5.661655E-1,-1.455793E0,-1.978878E0],"split_indices":[9,0,19,33,34,0,0,16,16,34,0,0,0,0,0],"split_type":[0,0,0,0,0,0,0,0,0,0,0,0,0,0,0],"sum_hessian":[8.65E2,2.91E2,5.74E2,2E2,3.74E2,1.59E2,4.1E1,1.5E2,2.24E2,1.48E2,2E0,2.23E2,1E0,1.7E1,1.31E2],"tree_param":{"num_deleted":"0","num_feature":"62","num_nodes":"15","size_leaf_vector":"1"}},{"base_weights":[-2.9576442E-1,4.352223E0,-2.7693092E1,-2.3757023E1,-3.0223837E1,-2.770077E1,-2.2411497E1,-2.6418605E0,-2.226188E0,-2.3353045E0,-1.5484697E0,-2.013762E1,-1.9126202E0,-1.6313446E0,-5.791904E-1],"categories":[],"categories_nodes":[],"categories_segments":[],"categories_sizes":[],"default_left":[0,0,0,0,0,0,0,0,0,0,0,0,0,0,0],"id":1,"left_children":[1,-1,3,5,7,9,11,-1,-1,-1,-1,13,-1,-1,-1],"loss_changes":[1.2663199E6,0E0,4.890125E3,5.731328E2,1.3553125E3,9.421094E1,1.0714844E2,0E0,0E0,0E0,0E0,9.825E1,0E0,0E0,0E0],"parents":[2147483647,0,0,2,2,3,3,4,4,5,5,6,6,11,11],"right_children":[2,-1,4,6,8,10,12,-1,-1,-1,-1,14,-1,-1,-1],"split_conditions":[1E-1,4.352223E0,7.2727275E-1,1E0,1E0,6.363636E-1,4.5454547E-1,-2.6418605E0,-2.226188E0,-2.3353045E0,-1.5484697E0,9E0,-1.9126202E0,-1.6313446E0,-5.791904E-1],"split_indices":[9,0,34,19,19,36,34,0,0,0,0,0,0,0,0],"split_type":[0,0,0,0,0,0,0,0,0,0,0,0,0,0,0],"sum_hessian":[8.43E2,2.81E2,5.62E2,2.24E2,3.38E2,5.2E1,1.72E2,1.5E2,1.88E2,4.2E1,1E1,7.4E1,9.8E1,7.2E1,2E0],"tree_param":{"num_deleted":"0","num_feature":"62","num_nodes":"15","size_leaf_vector":"1"}},{"base_weights":[6.8932194E-1,4.005768E0,-2.5153797E1,-2.2114275E1,-2.7987743E1,-2.373103E1,-1.977576E1,-2.4327188E0,-2.5730658E1,-2.056707E0,-2.1706161E1,-1.6839803E0,-1.6655367E1,-2.0659657E0,-4.5447135E-1,-4.9952093E-1,-1.7453779E0,-1.4435638E0,-8.0158496E-1],"categories":[],"categories_nodes":[],"categories_segments":[],"categories_sizes":[],"default_left":[0,0,0,0,0,0,0,0,0,0,0,0,0,0,0,0,0,0,0],"id":2,"left_children":[1,-1,3,5,7,9,11,-1,13,-1,15,-1,17,-1,-1,-1,-1,-1,-1],"loss_changes":[1.0847575E6,0E0,4.1875938E3,5.6665625E2,7.750625E2,7.071094E1,1.185E2,0E0,1.4326562E2,0E0,8.0234375E0,0E0,1.7869824E2,0E0,0E0,0E0,0E0,0E0,0E0],"parents":[2147483647,0,0,2,2,3,3,4,4,5,5,6,6,8,8,10,10,12,12],"right_children":[2,-1,4,6,8,10,12,-1,14,-1,16,-1,18,-1,-1,-1,-1,-1,-1],"split_conditions":[1E-1,4.005768E0,8.181818E-1,1E0,1E0,1E0,1E0,-2.4327188E0,1E0,-2.056707E0,1.8181819E-1,-1.6839803E0,1E0,-2.0659657E0,-4.5447135E-1,-4.9952093E-1,-1.7453779E0,-1.4435638E0,-8.0158496E-1],"split_indices":[9,0,34,13,19,24,24,0,16,0,34,0,20,0,0,0,0,0,0],"split_type":[0,0,0,0,0,0,0,0,0,0,0,0,0,0,0,0,0,0,0],"sum_hessian":[8.48E2,2.91E2,5.57E2,2.73E2,2.84E2,1.56E2,1.17E2,1.31E2,1.53E2,7.3E1,8.3E1,7.9E1,3.8E1,1.52E2,1E0,1E0,8.2E1,3E1,8E0],"tree_param":{"num_deleted":"0","num_feature":"62","num_nodes":"19","size_leaf_vector":"1"}},{"base_weights":[7.2070634E-1,3.6868637E0,-2.3480602E1,-2.5385632E1,-1.9494982E1,-2.6817434E1,-2.2609093E1,-1.4486395E1,-1.6030445E0,-2.2142832E0,-1.8659041E0,-1.8202442E0,-6.913984E-1,-4.8768905E-1,-1.50206175E1,-1.2529032E0,-4.9357608E-1],"categories":[],"categories_nodes":[],"categories_segments":[],"categories_sizes":[],"default_left":[0,0,0,0,0,0,0,0,0,0,0,0,0,0,0,0,0],"id":3,"left_children":[1,-1,3,5,7,9,11,13,-1,-1,-1,-1,-1,-1,15,-1,-1],"loss_changes":[9.5625044E5,0E0,3.8177812E3,9.0834375E2,2.2108594E2,9.4484375E1,7.680469E1,7.0424805E0,0E0,0E0,0E0,0E0,0E0,0E0,1.6785645E1,0E0,0E0],"parents":[2147483647,0,0,2,2,3,3,4,4,5,5,6,6,7,7,14,14],"right_children":[2,-1,4,6,8,10,12,14,-1,-1,-1,-1,-1,-1,16,-1,-1],"split_conditions":[1E-1,3.6868637E0,1.8181819E-1,1E0,1.8181819E-1,1E0,1E0,3.7E-1,-1.6030445E0,-2.2142832E0,-1.8659041E0,-1.8202442E0,-6.913984E-1,-4.8768905E-1,1.25E-1,-1.2529032E0,-4.9357608E-1],"split_indices":[9,0,33,24,34,21,20,9,0,0,0,0,0,0,4,0,0],"split_type":[0,0,0,0,0,0,0,0,0,0,0,0,0,0,0,0,0],"sum_hessian":[8.69E2,3.02E2,5.67E2,3.8E2,1.87E2,2.45E2,1.35E2,2.1E1,1.66E2,1.91E2,5.4E1,1.33E2,2E0,2E0,1.9E1,1.7E1,2E0],"tree_param":{"num_deleted":"0","num_feature":"62","num_nodes":"17","size_leaf_vector":"1"}},{"base_weights":[8.447978E-2,3.392344E0,-2.1486088E1,-2.4995617E1,-1.9444933E1,-2.0832279E0,-1.971902E1,-1.6197542E1,-2.0703766E1,-2.0163733E1,-6.247578E-1,-5.893291E-1,-1.6383232E1,-1.7783351E0,-1.8414618E1,-1.1566771E0,-1.7441577E0,-1.3174269E0,-3.101487E-1,-1.4893163E0,-6.769781E-1],"categories":[],"categories_nodes":[],"categories_segments":[],"categories_sizes":[],"default_left":[0,0,0,0,0,0,0,0,0,0,0,0,0,0,0,0,0,0,0,0,0],"id":4,"left_children":[1,-1,3,5,7,-1,9,11,13,15,-1,-1,17,-1,19,-1,-1,-1,-1,-1,-1],"loss_changes":[7.814086E5,0E0,3.5756719E3,6.1660156E2,1.1485625E3,0E0,4.3791992E1,5.3132812E1,4.9157812E2,2.1254883E1,0E0,0E0,4.513867E1,0E0,6.141797E1,0E0,0E0,0E0,0E0,0E0,0E0],"parents":[2147483647,0,0,2,2,3,3,4,4,6,6,7,7,8,8,9,9,12,12,14,14],"right_children":[2,-1,4,6,8,-1,10,12,14,16,-1,-1,18,-1,20,-1,-1,-1,-1,-1,-1],"split_conditions":[1E-1,3.392344E0,1E0,1E0,5.4545456E-1,-2.0832279E0,1E0,6.5E1,1E0,3.6363637E-1,-6.247578E-1,-5.893291E-1,1E0,-1.7783351E0,1E0,-1.1566771E0,-1.7441577E0,-1.3174269E0,-3.101487E-1,-1.4893163E0,-6.769781E-1],"split_indices":[9,0,19,13,34,0,25,1,24,34,0,0,16,0,20,0,0,0,0,0,0],"split_type":[0,0,0,0,0,0,0,0,0,0,0,0,0,0,0,0,0,0,0,0,0],"sum_hessian":[8.54E2,2.88E2,5.66E2,2.04E2,3.62E2,1.67E2,3.7E1,1.05E2,2.57E2,3.5E1,2E0,3E0,1.02E2,1.49E2,1.08E2,1E1,2.5E1,1.01E2,1E0,1.05E2,3E0],"tree_param":{"num_deleted":"0","num_feature":"62","num_nodes":"21","size_leaf_vector":"1"}},{"base_weights":[2.4322481E-1,3.1223276E0,-1.9920488E1,-2.3260494E1,-1.8013514E1,-1.9725718E0,-2.0299309E1,-1.57661495E1,-1.9454493E1,-1.3270748E1,-1.6874193E0,-1.3500218E0,-1.3641013E1,-1.6524218E0,-1.7377665E1,-2.833393E-1,-1.1166577E0,-5.394857E-1,-1.14562E0,-1.4346818E0,-9.89022E-1],"categories":[],"categories_nodes":[],"categories_segments":[],"categories_sizes":[],"default_left":[0,0,0,0,0,0,0,0,0,0,0,0,0,0,0,0,0,0,0,0,0],"id":5,"left_children":[1,-1,3,5,7,-1,9,11,13,15,-1,-1,17,-1,19,-1,-1,-1,-1,-1,-1],"loss_changes":[6.882145E5,0E0,3.2688281E3,3.5557812E2,9.011953E2,0E0,1.21603516E2,1.2571484E2,1.9717969E2,1.7447998E1,0E0,0E0,1.7047559E2,0E0,2.3597656E1,0E0,0E0,0E0,0E0,0E0,0E0],"parents":[2147483647,0,0,2,2,3,3,4,4,6,6,7,7,8,8,9,9,12,12,14,14],"right_children":[2,-1,4,6,8,-1,10,12,14,16,-1,-1,18,-1,20,-1,-1,-1,-1,-1,-1],"split_conditions":[1E-1,3.1223276E0,1E0,1E0,6.363636E-1,-1.9725718E0,3.6363637E-1,1E0,1E0,3.8733333E-1,-1.6874193E0,-1.3500218E0,9.090909E-2,-1.6524218E0,1E0,-2.833393E-1,-1.1166577E0,-5.394857E-1,-1.14562E0,-1.4346818E0,-9.89022E-1],"split_indices":[9,0,19,24,34,0,34,24,24,2,0,0,35,0,13,0,0,0,0,0,0],"split_type":[0,0,0,0,0,0,0,0,0,0,0,0,0,0,0,0,0,0,0,0,0],"sum_hessian":[8.78E2,3E2,5.78E2,2.06E2,3.72E2,1.35E2,7.1E1,1.5E2,2.22E2,9E0,6.2E1,9.4E1,5.6E1,1.35E2,8.7E1,1E0,8E0,6E0,5E1,7.6E1,1.1E1],"tree_param":{"num_deleted":"0","num_feature":"62","num_nodes":"21","size_leaf_vector":"1"}},{"base_weights":[-1.3052025E-1,2.8728688E0,-1.8245995E1,-1.9832108E1,-1.5028305E1,-1.7613449E0,-1.7998634E1,-1.644452E1,-1.3560942E1,-1.5445265E0,-1.2730017E0,-1.3575987E0,-8.308934E-1,-1.3886905E1,-8.076498E0,-1.1169498E0,-2.7959648E-1,-2.7994165E-1,-7.215222E-1],"categories":[],"categories_nodes":[],"categories_segments":[],"categories_sizes":[],"default_left":[0,0,0,0,0,0,0,0,0,0,0,0,0,0,0,0,0,0,0],"id":6,"left_children":[1,-1,3,5,7,-1,9,11,13,-1,-1,-1,-1,15,17,-1,-1,-1,-1],"loss_changes":[5.5823756E5,0E0,2.6059062E3,1.1178438E3,1.7599219E2,0E0,2.685E2,1.1980859E2,6.6615234E1,0E0,0E0,0E0,0E0,2.365625E1,2.9534302E0,0E0,0E0,0E0,0E0],"parents":[2147483647,0,0,2,2,3,3,4,4,6,6,7,7,8,8,13,13,14,14],"right_children":[2,-1,4,6,8,-1,10,12,14,-1,-1,-1,-1,16,18,-1,-1,-1,-1],"split_conditions":[1E-1,2.8728688E0,1.8181819E-1,1E0,1E0,-1.7613449E0,1E0,1E0,1.25E-1,-1.5445265E0,-1.2730017E0,-1.3575987E0,-8.308934E-1,1E0,9.090909E-2,-1.1169498E0,-2.7959648E-1,-2.7994165E-1,-7.215222E-1],"split_indices":[9,0,33,19,13,0,24,25,4,0,0,0,0,25,35,0,0,0,0],"split_type":[0,0,0,0,0,0,0,0,0,0,0,0,0,0,0,0,0,0,0],"sum_hessian":[8.53E2,2.85E2,5.68E2,3.77E2,1.91E2,1.67E2,2.1E2,9.2E1,9.9E1,1.24E2,8.6E1,8.3E1,9E0,9.2E1,7E0,9.1E1,1E0,2E0,5E0],"tree_param":{"num_deleted":"0","num_feature":"62","num_nodes":"19","size_leaf_vector":"1"}},{"base_weights":[-2.1891576E-1,2.6439393E0,-1.6823887E1,-1.9648598E1,-1.5327041E1,-1.628403E0,-1.2416787E0,-1.6603447E1,-1.3342369E1,-1.3508254E0,-9.436543E-1,-1.3763735E1,-9.60187E0,-1.1140022E0,-3.9355862E-1,-7.9497397E-1,-1.4265518E-1],"categories":[],"categories_nodes":[],"categories_segments":[],"categories_sizes":[],"default_left":[0,0,0,0,0,0,0,0,0,0,0,0,0,0,0,0,0],"id":7,"left_children":[1,-1,3,5,7,-1,-1,9,11,-1,-1,13,15,-1,-1,-1,-1],"loss_changes":[4.795013E5,0E0,2.1469531E3,2.585E2,7.486953E2,0E0,0E0,1.1116016E2,1.12140625E2,0E0,0E0,1.26927734E2,3.209131E1,0E0,0E0,0E0,0E0],"parents":[2147483647,0,0,2,2,3,3,4,4,7,7,8,8,11,11,12,12],"right_children":[2,-1,4,6,8,-1,-1,10,12,-1,-1,14,16,-1,-1,-1,-1],"split_conditions":[1E-1,2.6439393E0,1E0,1E0,1.8181819E-1,-1.628403E0,-1.2416787E0,1E0,5.4545456E-1,-1.3508254E0,-9.436543E-1,1E0,9E0,-1.1140022E0,-3.9355862E-1,-7.9497397E-1,-1.4265518E-1],"split_indices":[9,0,19,13,33,0,0,25,33,0,0,16,0,0,0,0,0],"split_type":[0,0,0,0,0,0,0,0,0,0,0,0,0,0,0,0,0],"sum_hessian":[8.66E2,2.88E2,5.78E2,1.96E2,3.82E2,1.64E2,3.2E1,2.28E2,1.54E2,2.13E2,1.5E1,1.36E2,1.8E1,1.33E2,3E0,1.7E1,1E0],"tree_param":{"num_deleted":"0","num_feature":"62","num_nodes":"17","size_leaf_vector":"1"}},{"base_weights":[2.066786E-1,2.4332998E0,-1.5457907E1,-1.6852898E1,-1.2710271E1,-1.4943202E0,-1.2238598E0,-1.052125E0,-7.875823E-1],"categories":[],"categories_nodes":[],"categories_segments":[],"categories_sizes":[],"default_left":[0,0,0,0,0,0,0,0,0],"id":8,"left_children":[1,-1,3,5,7,-1,-1,-1,-1],"loss_changes":[4.074397E5,0E0,1.9590625E3,7.731797E2,1.17103516E2,0E0,0E0,0E0,0E0],"parents":[2147483647,0,0,2,2,3,3,4,4],"right_children":[2,-1,4,6,8,-1,-1,-1,-1],"split_conditions":[1E-1,2.4332998E0,1.8181819E-1,1E0,5.4545456E-1,-1.4943202E0,-1.2238598E0,-1.052125E0,-7.875823E-1],"split_indices":[9,0,33,19,33,0,0,0,0],"split_type":[0,0,0,0,0,0,0,0,0],"sum_hessian":[8.59E2,2.93E2,5.66E2,3.72E2,1.94E2,1.66E2,2.06E2,1.65E2,2.9E1],"tree_param":{"num_deleted":"0","num_feature":"62","num_nodes":"9","size_leaf_vector":"1"}},{"base_weights":[-2.259327E-1,2.2389731E0,-1.4257444E1,-1.2340389E1,-1.6033276E1,-1.3397243E1,-1.0780613E1,-1.7053629E1,-1.3748612E1,-1.492573E1,-9.3941236E-1,-5.887315E0,-1.1283777E1,-1.4849375E0,-1.246707E0,-1.4284857E1,-9.267313E0,-1.2241223E0,-7.7046734E-1,-1.8228497E-1,-5.790425E-1,-9.2967236E-1,-5.8771366E-1,-1.173606E0,-7.5899893E-1,-2.0302528E-1,-7.693296E-1],"categories":[],"categories_nodes":[],"categories_segments":[],"categories_sizes":[],"default_left":[0,0,0,0,0,0,0,0,0,0,0,0,0,0,0,0,0,0,0,0,0,0,0,0,0,0,0],"id":9,"left_children":[1,-1,3,5,7,9,11,13,15,17,-1,19,21,-1,-1,23,25,-1,-1,-1,-1,-1,-1,-1,-1,-1,-1],"loss_changes":[3.3609878E5,0E0,1.7324219E3,3.121914E2,4.4390625E2,2.319043E2,2.216377E2,1.4740234E2,9.59082E1,1.18203125E1,0E0,4.687491E1,5.4003906E1,0E0,0E0,1.4207031E1,6.1533203E0,0E0,0E0,0E0,0E0,0E0,0E0,0E0,0E0,0E0,0E0],"parents":[2147483647,0,0,2,2,3,3,4,4,5,5,6,6,7,7,8,8,9,9,11,11,12,12,15,15,16,16],"right_children":[2,-1,4,6,8,10,12,14,16,18,-1,20,22,-1,-1,24,26,-1,-1,-1,-1,-1,-1,-1,-1,-1,-1],"split_conditions":[2.5E-2,2.2389731E0,8.181818E-1,1E0,1E0,1E0,9.090909E-2,1E0,1E0,1E0,-9.3941236E-1,3.6363637E-1,1E0,-1.4849375E0,-1.246707E0,1E0,1.1466666E-1,-1.2241223E0,-7.7046734E-1,-1.8228497E-1,-5.790425E-1,-9.2967236E-1,-5.8771366E-1,-1.173606E0,-7.5899893E-1,-2.0302528E-1,-7.693296E-1],"split_indices":[27,0,34,24,24,21,35,19,13,25,0,34,25,0,0,25,2,0,0,0,0,0,0,0,0,0,0],"split_type":[0,0,0,0,0,0,0,0,0,0,0,0,0,0,0,0,0,0,0,0,0,0,0,0,0,0,0],"sum_hessian":[8.47E2,2.81E2,5.66E2,2.76E2,2.9E2,1.6E2,1.16E2,1.96E2,9.4E1,7.9E1,8.1E1,1.2E1,1.04E2,9.1E1,1.05E2,8.2E1,1.2E1,7.2E1,7E0,4E0,8E0,9.4E1,1E1,7.4E1,8E0,1E0,1.1E1],"tree_param":{"num_deleted":"0","num_feature":"62","num_nodes":"27","size_leaf_vector":"1"}},{"base_weights":[-8.2047755E-1,2.0603578E0,-1.3149524E1,-1.5339828E1,-1.1964952E1,-1.653792E1,-1.324611E1,-1.0557421E1,-1.3210338E1,-1.6788813E1,-1.0707282E1,-1.0836413E0,-6.550925E-1,-1.1414681E1,-9.132615E0,-1.4085897E1,-1.1409505E1,-1.3706394E0,-9.4566053E-1,-2.1046264E-1,-9.1881925E-1,-9.770288E-1,-7.7565277E-1,-3.0820167E-1,-7.689954E-1,-1.1605842E0,-8.635137E-1,-9.2012596E-1,-1.9490425E-1],"categories":[],"categories_nodes":[],"categories_segments":[],"categories_sizes":[],"default_left":[0,0,0,0,0,0,0,0,0,0,0,0,0,0,0,0,0,0,0,0,0,0,0,0,0,0,0,0,0],"id":10,"left_children":[1,-1,3,5,7,9,11,13,15,17,19,-1,-1,21,23,25,27,-1,-1,-1,-1,-1,-1,-1,-1,-1,-1,-1,-1],"loss_changes":[2.863717E5,0E0,1.3654141E3,2.976836E2,5.476797E2,6.0195312E0,1.0219727E1,1.26603516E2,1.609375E2,2.6640625E0,2.0050293E1,0E0,0E0,3.800586E1,1.5551709E2,2.7914062E1,3.1461914E1,0E0,0E0,0E0,0E0,0E0,0E0,0E0,0E0,0E0,0E0,0E0,0E0],"parents":[2147483647,0,0,2,2,3,3,4,4,5,5,6,6,7,7,8,8,9,9,10,10,13,13,14,14,15,15,16,16],"right_children":[2,-1,4,6,8,10,12,14,16,18,20,-1,-1,22,24,26,28,-1,-1,-1,-1,-1,-1,-1,-1,-1,-1,-1,-1],"split_conditions":[1E-1,2.0603578E0,1E0,1E0,7.2727275E-1,1E0,5.4545456E-1,1E0,1E0,1E0,3.1E-1,-1.0836413E0,-6.550925E-1,3.6363637E-1,9.090909E-2,1E0,1E0,-1.3706394E0,-9.4566053E-1,-2.1046264E-1,-9.1881925E-1,-9.770288E-1,-7.7565277E-1,-3.0820167E-1,-7.689954E-1,-1.1605842E0,-8.635137E-1,-9.2012596E-1,-1.9490425E-1],"split_indices":[9,0,19,24,34,25,33,24,24,20,9,0,0,33,35,20,16,0,0,0,0,0,0,0,0,0,0,0,0],"split_type":[0,0,0,0,0,0,0,0,0,0,0,0,0,0,0,0,0,0,0,0,0,0,0,0,0,0,0,0,0],"sum_hessian":[8.72E2,2.76E2,5.96E2,2.05E2,3.91E2,1.26E2,7.9E1,1.88E2,2.03E2,1.19E2,7E0,7.3E1,6E0,1.13E2,7.5E1,1.32E2,7.1E1,1.09E2,1E1,1E0,6E0,7.3E1,4E1,7E0,6.8E1,1.14E2,1.8E1,7E1,1E0],"tree_param":{"num_deleted":"0","num_feature":"62","num_nodes":"29","size_leaf_vector":"1"}},{"base_weights":[6.507376E-2,1.8963171E0,-1.2095845E1,-1.0512349E1,-1.3501123E1,-1.1378957E1,-9.167672E0,-1.4432149E1,-1.1124828E1,-1.1720031E1,-5.895031E-1,-9.295565E0,-3.4866118E0,-1.1844835E0,-1.114786E1,-9.1786456E-1,-5.8632416E-1,-1.0541109E0,-8.7696266E-1,-8.331025E-1,-6.7440116E-1,-3.6288604E-1,-1.3528824E-2,-9.133959E-1,-1.8710807E-1],"categories":[],"categories_nodes":[],"categories_segments":[],"categories_sizes":[],"default_left":[0,0,0,0,0,0,0,0,0,0,0,0,0,0,0,0,0,0,0,0,0,0,0,0,0],"id":11,"left_children":[1,-1,3,5,7,9,11,13,15,17,-1,19,21,-1,23,-1,-1,-1,-1,-1,-1,-1,-1,-1,-1],"loss_changes":[2.4118711E5,0E0,1.0908672E3,2.0448828E2,4.8103906E2,1.2837695E2,4.6785156E1,8.668359E1,2.9667969E1,1.3417969E1,0E0,1.4805664E1,1.3159298E1,0E0,3.2666748E1,0E0,0E0,0E0,0E0,0E0,0E0,0E0,0E0,0E0,0E0],"parents":[2147483647,0,0,2,2,3,3,4,4,5,5,6,6,7,7,8,8,9,9,11,11,12,12,14,14],"right_children":[2,-1,4,6,8,10,12,14,16,18,-1,20,22,-1,24,-1,-1,-1,-1,-1,-1,-1,-1,-1,-1],"split_conditions":[1E-1,1.8963171E0,8.181818E-1,1E0,3.7866667E-1,1E0,2.5E-1,1E0,1E0,1E0,-5.895031E-1,2.7272728E-1,2.78E-1,-1.1844835E0,1.8181819E-1,-9.1786456E-1,-5.8632416E-1,-1.0541109E0,-8.7696266E-1,-8.331025E-1,-6.7440116E-1,-3.6288604E-1,-1.3528824E-2,-9.133959E-1,-1.8710807E-1],"split_indices":[9,0,34,13,2,25,4,13,25,19,0,33,2,0,33,0,0,0,0,0,0,0,0,0,0],"split_type":[0,0,0,0,0,0,0,0,0,0,0,0,0,0,0,0,0,0,0,0,0,0,0,0,0],"sum_hessian":[8.37E2,2.84E2,5.53E2,2.64E2,2.89E2,1.56E2,1.08E2,2.04E2,8.5E1,1.42E2,1.4E1,1.05E2,3E0,1.8E2,2.4E1,7.6E1,9E0,4.3E1,9.9E1,4.1E1,6.4E1,2E0,1E0,2.3E1,1E0],"tree_param":{"num_deleted":"0","num_feature":"62","num_nodes":"25","size_leaf_vector":"1"}},{"base_weights":[-7.778255E-2,1.745312E0,-1.106223E1,-1.2500296E1,-9.477848E0,-1.3862802E1,-1.112753E1,-1.04394E1,-7.8559403E0,-1.1602612E0,-9.5208645E-1,-1.1376057E1,-6.2353504E-1,-1.1311851E1,-8.450129E0,-8.218814E0,-2.9108155E0,-9.8885894E-1,-8.1627303E-1,-9.550692E-1,-7.404014E-1,-6.9039994E-1,-3.127469E-1,-4.001909E-1,-6.877026E-1,-2.9482833E-1,-1.0662994E-2],"categories":[],"categories_nodes":[],"categories_segments":[],"categories_sizes":[],"default_left":[0,0,0,0,0,0,0,0,0,0,0,0,0,0,0,0,0,0,0,0,0,0,0,0,0,0,0],"id":12,"left_children":[1,-1,3,5,7,9,11,13,15,-1,-1,17,-1,19,21,23,25,-1,-1,-1,-1,-1,-1,-1,-1,-1,-1],"loss_changes":[2.1091539E5,0E0,1.2121328E3,4.1246875E2,3.5778125E2,1.3345703E1,4.0566406E1,2.0639648E2,1.7167236E2,0E0,0E0,3.9E1,0E0,4.1569336E1,1.2817383E1,7.962158E1,1.8870506E1,0E0,0E0,0E0,0E0,0E0,0E0,0E0,0E0,0E0,0E0],"parents":[2147483647,0,0,2,2,3,3,4,4,5,5,6,6,7,7,8,8,11,11,13,13,14,14,15,15,16,16],"right_children":[2,-1,4,6,8,10,12,14,16,-1,-1,18,-1,20,22,24,26,-1,-1,-1,-1,-1,-1,-1,-1,-1,-1],"split_conditions":[1E-1,1.745312E0,1.6666667E-1,1.42E-1,1E0,1E0,1E0,2.7272728E-1,1E0,-1.1602612E0,-9.5208645E-1,1E0,-6.2353504E-1,1E0,1E0,3.6363637E-1,4.0466666E-1,-9.8885894E-1,-8.1627303E-1,-9.550692E-1,-7.404014E-1,-6.9039994E-1,-3.127469E-1,-4.001909E-1,-6.877026E-1,-2.9482833E-1,-1.0662994E-2],"split_indices":[9,0,11,2,24,24,25,33,20,0,0,24,0,20,25,34,2,0,0,0,0,0,0,0,0,0,0],"split_type":[0,0,0,0,0,0,0,0,0,0,0,0,0,0,0,0,0,0,0,0,0,0,0,0,0,0,0],"sum_hessian":[8.75E2,2.92E2,5.83E2,3.02E2,2.81E2,1.47E2,1.55E2,1.73E2,1.08E2,1.06E2,4.1E1,1.42E2,1.3E1,1.17E2,5.6E1,1E2,8E0,7.2E1,7E1,8.6E1,3.1E1,5.3E1,3E0,1.2E1,8.8E1,6E0,2E0],"tree_param":{"num_deleted":"0","num_feature":"62","num_nodes":"27","size_leaf_vector":"1"}},{"base_weights":[-4.0341455E-1,1.6058031E0,-1.017856E1,-8.784937E0,-1.1551287E1,-9.63438E0,-7.4651175E0,-1.2915247E1,-1.0434439E1,-8.935518E-1,-9.040725E0,-8.497757E0,-6.687351E0,-1.0578563E0,-7.395924E-1,-1.1153442E1,-9.049328E0,-1.4241043E-1,-7.2665673E-1,-6.9471884E-1,-2.2973947E-1,-5.4548305E-1,-2.2020271E-1,-8.977324E-1,-1.6783057E-1,-7.363341E-1,-2.3900314E-1],"categories":[],"categories_nodes":[],"categories_segments":[],"categories_sizes":[],"default_left":[0,0,0,0,0,0,0,0,0,0,0,0,0,0,0,0,0,0,0,0,0,0,0,0,0,0,0],"id":13,"left_children":[1,-1,3,5,7,9,11,13,15,-1,17,19,21,-1,-1,23,25,-1,-1,-1,-1,-1,-1,-1,-1,-1,-1],"loss_changes":[1.7033645E5,0E0,1.0004453E3,2.5319922E2,3.024375E2,5.66709E1,3.7944336E1,1.9041016E1,6.1402344E1,0E0,2.3930664E1,2.4304932E1,1.8397705E1,0E0,0E0,4.0081055E1,2.9760254E1,0E0,0E0,0E0,0E0,0E0,0E0,0E0,0E0,0E0,0E0],"parents":[2147483647,0,0,2,2,3,3,4,4,5,5,6,6,7,7,8,8,10,10,11,11,12,12,15,15,16,16],"right_children":[2,-1,4,6,8,10,12,14,16,-1,18,20,22,-1,-1,24,26,-1,-1,-1,-1,-1,-1,-1,-1,-1,-1],"split_conditions":[1E-1,1.6058031E0,8.181818E-1,1E0,1E0,1E0,2.7272728E-1,1E0,3.8266668E-1,-8.935518E-1,2.1E-1,1E0,2.5E-1,-1.0578563E0,-7.395924E-1,1E0,6.7E-1,-1.4241043E-1,-7.2665673E-1,-6.9471884E-1,-2.2973947E-1,-5.4548305E-1,-2.2020271E-1,-8.977324E-1,-1.6783057E-1,-7.363341E-1,-2.3900314E-1],"split_indices":[9,0,34,13,19,19,33,21,2,0,9,16,4,0,0,16,9,0,0,0,0,0,0,0,0,0,0],"split_type":[0,0,0,0,0,0,0,0,0,0,0,0,0,0,0,0,0,0,0,0,0,0,0,0,0,0,0],"sum_hessian":[8.49E2,2.74E2,5.75E2,2.89E2,2.86E2,1.72E2,1.17E2,1.24E2,1.62E2,4.3E1,1.29E2,4.6E1,7.1E1,1.12E2,1.2E1,1.02E2,6E1,1E0,1.28E2,4.4E1,2E0,6.8E1,3E0,1.01E2,1E0,5.8E1,2E0],"tree_param":{"num_deleted":"0","num_feature":"62","num_nodes":"27","size_leaf_vector":"1"}},{"base_weights":[1.8176326E-1,1.47812E0,-9.443903E0,-1.0660686E1,-8.042461E0,-1.162366E1,-9.038238E0,-8.866557E0,-6.684231E0,-1.2167361E1,-9.008009E0,-8.0263054E-1,-8.134077E0,-9.754819E0,-7.5213366E0,-7.4554787E0,-4.6524453E0,-9.9174553E-1,-6.2272847E-1,-1.1133552E-1,-7.3528683E-1,-6.5557134E-1,-1.703189E-1,-7.8485906E-1,-1.8441047E-1,-6.258082E-1,-3.0228007E-1,-6.0339487E-1,-4.778381E-2,-5.118951E-1,-2.6976615E-1],"categories":[],"categories_nodes":[],"categories_segments":[],"categories_sizes":[],"default_left":[0,0,0,0,0,0,0,0,0,0,0,0,0,0,0,0,0,0,0,0,0,0,0,0,0,0,0,0,0,0,0],"id":14,"left_children":[1,-1,3,5,7,9,11,13,15,17,19,-1,21,23,25,27,29,-1,-1,-1,-1,-1,-1,-1,-1,-1,-1,-1,-1,-1,-1],"loss_changes":[1.4915427E5,0E0,8.606797E2,3.5428125E2,2.3399414E2,1.4780469E2,2.0914062E1,1.1781641E2,1.2671582E2,5.134961E1,3.6011475E1,0E0,6.1933594E0,1.6126953E1,4.711841E1,3.902954E1,4.773407E1,0E0,0E0,0E0,0E0,0E0,0E0,0E0,0E0,0E0,0E0,0E0,0E0,0E0,0E0],"parents":[2147483647,0,0,2,2,3,3,4,4,5,5,6,6,7,7,8,8,9,9,10,10,12,12,13,13,14,14,15,15,16,16],"right_children":[2,-1,4,6,8,10,12,14,16,18,20,-1,22,24,26,28,30,-1,-1,-1,-1,-1,-1,-1,-1,-1,-1,-1,-1,-1,-1],"split_conditions":[1E-1,1.47812E0,1.6666667E-1,1E0,1E0,1E0,1E0,1E0,1E0,1E0,1E0,-8.0263054E-1,6.363636E-1,7.2727275E-1,1E0,1E0,1E0,-9.9174553E-1,-6.2272847E-1,-1.1133552E-1,-7.3528683E-1,-6.5557134E-1,-1.703189E-1,-7.8485906E-1,-1.8441047E-1,-6.258082E-1,-3.0228007E-1,-6.0339487E-1,-4.778381E-2,-5.118951E-1,-2.6976615E-1],"split_indices":[9,0,11,24,13,13,19,24,24,25,21,0,33,33,25,25,19,0,0,0,0,0,0,0,0,0,0,0,0,0,0],"split_type":[0,0,0,0,0,0,0,0,0,0,0,0,0,0,0,0,0,0,0,0,0,0,0,0,0,0,0,0,0,0,0],"sum_hessian":[8.45E2,2.91E2,5.54E2,2.93E2,2.61E2,1.8E2,1.13E2,1.59E2,1.02E2,1.46E2,3.4E1,4.9E1,6.4E1,9.2E1,6.7E1,7.2E1,3E1,1.37E2,9E0,1E0,3.3E1,6.3E1,1E0,9.1E1,1E0,6.1E1,6E0,7.1E1,1E0,1.1E1,1.9E1],"tree_param":{"num_deleted":"0","num_feature":"62","num_nodes":"31","size_leaf_vector":"1"}},{"base_weights":[1.0402264E-1,1.3602914E0,-8.675574E0,-9.864103E0,-7.39963E0,-1.0722091E1,-8.432885E0,-8.172656E0,-5.9121685E0,-1.1250266E1,-6.5358055E-1,-5.071192E-1,-8.737648E0,-7.2784984E-1,-5.3892356E-1,-6.723264E0,-4.11082E0,-2.3610663E-1,-9.0301293E-1,-7.1490514E-1,-3.9481053E-1,-5.644407E-1,-2.74604E-1,-1.616137E-1,-4.167422E-1],"categories":[],"categories_nodes":[],"categories_segments":[],"categories_sizes":[],"default_left":[0,0,0,0,0,0,0,0,0,0,0,0,0,0,0,0,0,0,0,0,0,0,0,0,0],"id":15,"left_children":[1,-1,3,5,7,9,11,13,15,17,-1,-1,19,-1,-1,21,23,-1,-1,-1,-1,-1,-1,-1,-1],"loss_changes":[1.2715381E5,0E0,7.823125E2,2.644668E2,2.6903906E2,1.4669922E2,1.6722168E1,1.7661523E2,1.1554639E2,1.1375E1,0E0,0E0,2.8419434E1,0E0,0E0,4.7940918E1,6.52605E1,0E0,0E0,0E0,0E0,0E0,0E0,0E0,0E0],"parents":[2147483647,0,0,2,2,3,3,4,4,5,5,6,6,7,7,8,8,9,9,12,12,15,15,16,16],"right_children":[2,-1,4,6,8,10,12,14,16,18,-1,-1,20,-1,-1,22,24,-1,-1,-1,-1,-1,-1,-1,-1],"split_conditions":[1E-1,1.3602914E0,1.6666667E-1,1E0,1E0,1E0,5.4545456E-1,3.6666667E-1,1E0,2.7272728E-1,-6.5358055E-1,-5.071192E-1,1E0,-7.2784984E-1,-5.3892356E-1,1E0,4.5454547E-2,-2.3610663E-1,-9.0301293E-1,-7.1490514E-1,-3.9481053E-1,-5.644407E-1,-2.74604E-1,-1.616137E-1,-4.167422E-1],"split_indices":[9,0,11,24,24,13,34,2,13,34,0,0,25,0,0,25,36,0,0,0,0,0,0,0,0],"split_type":[0,0,0,0,0,0,0,0,0,0,0,0,0,0,0,0,0,0,0,0,0,0,0,0,0],"sum_hessian":[8.55E2,2.92E2,5.63E2,2.88E2,2.75E2,1.76E2,1.12E2,1.78E2,9.7E1,1.43E2,3.3E1,1.7E1,9.5E1,1.05E2,7.3E1,6.5E1,3.2E1,1E0,1.42E2,8.9E1,6E0,5.8E1,7E0,1.2E1,2E1],"tree_param":{"num_deleted":"0","num_feature":"62","num_nodes":"25","size_leaf_vector":"1"}},{"base_weights":[-1.1302447E-1,1.2516564E0,-7.936506E0,-9.539428E0,-7.1204476E0,-1.0360585E1,-8.103899E0,-7.6932354E0,-5.5924897E0,-8.397918E-1,-6.102787E0,-6.9073E-1,-6.004091E0,-8.468839E0,-6.4298716E0,-6.070428E0,-4.4358616E0,-5.7614136E-1,-2.4315566E-2,-1.748619E-2,-5.065246E-1,-7.058613E-1,-5.1921767E-1,-5.3756636E-1,-3.4752613E-1,-4.9488425E-1,-2.0235014E-1,-3.768158E-3,-3.650846E-1],"categories":[],"categories_nodes":[],"categories_segments":[],"categories_sizes":[],"default_left":[0,0,0,0,0,0,0,0,0,0,0,0,0,0,0,0,0,0,0,0,0,0,0,0,0,0,0,0,0],"id":16,"left_children":[1,-1,3,5,7,9,11,13,15,-1,17,-1,19,21,23,25,27,-1,-1,-1,-1,-1,-1,-1,-1,-1,-1,-1,-1],"loss_changes":[1.04425945E5,0E0,6.724492E2,1.3765039E2,2.8867578E2,3.508789E0,2.9436035E1,2.130498E2,3.2221436E1,0E0,3.6047897E1,0E0,3.27182E1,5.914746E1,3.607129E1,1.42421875E1,1.9400024E1,0E0,0E0,0E0,0E0,0E0,0E0,0E0,0E0,0E0,0E0,0E0,0E0],"parents":[2147483647,0,0,2,2,3,3,4,4,5,5,6,6,7,7,8,8,10,10,12,12,13,13,14,14,15,15,16,16],"right_children":[2,-1,4,6,8,10,12,14,16,-1,18,-1,20,22,24,26,28,-1,-1,-1,-1,-1,-1,-1,-1,-1,-1,-1,-1],"split_conditions":[1E-1,1.2516564E0,1E0,1E0,2.7272728E-1,9.0933335E-1,1E0,1E0,4.5454547E-1,-8.397918E-1,1E0,-6.9073E-1,1.6333333E-1,1E0,1E0,8.7E-1,6.5E1,-5.7614136E-1,-2.4315566E-2,-1.748619E-2,-5.065246E-1,-7.058613E-1,-5.1921767E-1,-5.3756636E-1,-3.4752613E-1,-4.9488425E-1,-2.0235014E-1,-3.768158E-3,-3.650846E-1],"split_indices":[9,0,19,24,33,2,13,24,33,0,13,0,2,20,13,9,1,0,0,0,0,0,0,0,0,0,0,0,0],"split_type":[0,0,0,0,0,0,0,0,0,0,0,0,0,0,0,0,0,0,0,0,0,0,0,0,0,0,0,0,0],"sum_hessian":[8.45E2,2.8E2,5.65E2,1.87E2,3.78E2,1.15E2,7.2E1,2.72E2,1.06E2,1.1E2,5E0,5.5E1,1.7E1,1.65E2,1.07E2,7.2E1,3.4E1,4E0,1E0,1E0,1.6E1,1.37E2,2.8E1,9.2E1,1.5E1,6.9E1,3E0,1E0,3.3E1],"tree_param":{"num_deleted":"0","num_feature":"62","num_nodes":"29","size_leaf_vector":"1"}},{"base_weights":[-2.5351256E-1,1.1517906E0,-7.321482E0,-8.862099E0,-6.4647655E0,-9.647288E0,-7.5274086E0,-5.1901283E0,-7.005014E0,-9.846037E0,-4.947164E0,-4.4728055E0,-7.8562465E0,-5.7731123E0,-4.0113244E0,-7.6561155E0,-6.020702E0,-8.0687785E-1,-5.5248773E-1,-4.539543E-1,-2.334297E-2,2.7065657E-2,-4.035973E-1,-6.400225E-1,-2.783681E-1,-4.9570152E-1,-3.191845E-1,-3.555618E-1,-1.5817833E-1,-6.4528763E-1,-4.7565603E-1,-5.3275317E-1,-4.1030142E-1],"categories":[],"categories_nodes":[],"categories_segments":[],"categories_sizes":[],"default_left":[0,0,0,0,0,0,0,0,0,0,0,0,0,0,0,0,0,0,0,0,0,0,0,0,0,0,0,0,0,0,0,0,0],"id":17,"left_children":[1,-1,3,5,7,9,11,13,15,17,19,21,23,25,27,29,31,-1,-1,-1,-1,-1,-1,-1,-1,-1,-1,-1,-1,-1,-1,-1,-1],"loss_changes":[8.7503375E4,0E0,6.9503516E2,1.3802539E2,2.1843164E2,6.618945E1,4.4213867E1,5.5185547E1,1.18612305E2,1.2876953E1,2.2044113E1,2.9234177E1,1.628955E1,3.1119873E1,2.7339966E1,5.792871E1,2.6802246E1,0E0,0E0,0E0,0E0,0E0,0E0,0E0,0E0,0E0,0E0,0E0,0E0,0E0,0E0,0E0,0E0],"parents":[2147483647,0,0,2,2,3,3,4,4,5,5,6,6,7,7,8,8,9,9,10,10,11,11,12,12,13,13,14,14,15,15,16,16],"right_children":[2,-1,4,6,8,10,12,14,16,18,20,22,24,26,28,30,32,-1,-1,-1,-1,-1,-1,-1,-1,-1,-1,-1,-1,-1,-1,-1,-1],"split_conditions":[1E-1,1.1517906E0,1E0,1E0,5.4545456E-1,1E0,3.6363637E-1,1E0,1E0,1E0,1.8181819E-1,3.8733333E-1,1E0,5.4545456E-1,1E0,1E0,1.6666667E-1,-8.0687785E-1,-5.5248773E-1,-4.539543E-1,-2.334297E-2,2.7065657E-2,-4.035973E-1,-6.400225E-1,-2.783681E-1,-4.9570152E-1,-3.191845E-1,-3.555618E-1,-1.5817833E-1,-6.4528763E-1,-4.7565603E-1,-5.3275317E-1,-4.1030142E-1],"split_indices":[9,0,19,24,34,25,34,24,24,20,33,2,25,33,20,20,11,0,0,0,0,0,0,0,0,0,0,0,0,0,0,0,0],"split_type":[0,0,0,0,0,0,0,0,0,0,0,0,0,0,0,0,0,0,0,0,0,0,0,0,0,0,0,0,0,0,0,0,0],"sum_hessian":[8.43E2,2.74E2,5.69E2,2E2,3.69E2,1.22E2,7.8E1,1.13E2,2.56E2,1.16E2,6E0,9E0,6.9E1,7.3E1,4E1,1.5E2,1.06E2,1.05E2,1.1E1,5E0,1E0,1E0,8E0,6.6E1,3E0,5.7E1,1.6E1,3.2E1,8E0,1.18E2,3.2E1,5.8E1,4.8E1],"tree_param":{"num_deleted":"0","num_feature":"62","num_nodes":"33","size_leaf_vector":"1"}},{"base_weights":[-5.519188E-2,1.060208E0,-6.8014073E0,-5.942444E0,-7.9376297E0,-6.488131E0,-5.033431E0,-8.592152E0,-6.1075926E0,-7.2085958E0,-5.6025186E0,-5.531508E0,-3.7869215E0,-7.212064E-1,-5.9859335E-1,-6.4419465E0,-3.7893994E0,-5.8927625E-1,-3.7133914E-1,-4.6612766E-1,-2.4742346E-1,-3.1243005E-1,-4.7758543E-1,-5.656363E-2,-3.726617E-1,-5.2609426E-1,-2.3886186E-1,-6.160812E-2,-3.211455E-1],"categories":[],"categories_nodes":[],"categories_segments":[],"categories_sizes":[],"default_left":[0,0,0,0,0,0,0,0,0,0,0,0,0,0,0,0,0,0,0,0,0,0,0,0,0,0,0,0,0],"id":18,"left_children":[1,-1,3,5,7,9,11,13,15,17,19,21,23,-1,-1,25,27,-1,-1,-1,-1,-1,-1,-1,-1,-1,-1,-1,-1],"loss_changes":[7.792699E4,0E0,5.149922E2,1.3202734E2,2.409834E2,8.977637E1,5.9143555E1,1.6088867E1,2.8295654E1,9.8359375E0,3.5967285E1,4.0833252E1,1.0405231E2,0E0,0E0,7.272705E0,4.378662E0,0E0,0E0,0E0,0E0,0E0,0E0,0E0,0E0,0E0,0E0,0E0,0E0],"parents":[2147483647,0,0,2,2,3,3,4,4,5,5,6,6,7,7,8,8,9,9,10,10,11,11,12,12,15,15,16,16],"right_children":[2,-1,4,6,8,10,12,14,16,18,20,22,24,-1,-1,26,28,-1,-1,-1,-1,-1,-1,-1,-1,-1,-1,-1,-1],"split_conditions":[1E-1,1.060208E0,9.0909094E-1,1E0,3.8266668E-1,1E0,1E0,1.6666667E-1,1E0,1E0,1E0,3.6363637E-1,4.5454547E-2,-7.212064E-1,-5.9859335E-1,6.7E-1,3.1E-1,-5.8927625E-1,-3.7133914E-1,-4.6612766E-1,-2.4742346E-1,-3.1243005E-1,-4.7758543E-1,-5.656363E-2,-3.726617E-1,-5.2609426E-1,-2.3886186E-1,-6.160812E-2,-3.211455E-1],"split_indices":[9,0,34,13,2,24,24,11,25,25,25,34,36,0,0,9,9,0,0,0,0,0,0,0,0,0,0,0,0],"split_type":[0,0,0,0,0,0,0,0,0,0,0,0,0,0,0,0,0,0,0,0,0,0,0,0,0,0,0,0,0],"sum_hessian":[8.66E2,2.91E2,5.75E2,3.31E2,2.44E2,2.03E2,1.28E2,1.77E2,6.7E1,1.08E2,9.5E1,8.9E1,3.9E1,1.23E2,5.4E1,5.7E1,1E1,1E2,8E0,8.6E1,9E0,2.1E1,6.8E1,9E0,3E1,5.4E1,3E0,1E0,9E0],"tree_param":{"num_deleted":"0","num_feature":"62","num_nodes":"29","size_leaf_vector":"1"}},{"base_weights":[-9.8787315E-2,9.7561115E-1,-6.267146E0,-8.134855E0,-5.7772093E0,-6.717713E-1,-5.083087E-1,-6.288408E0,-4.640933E0,-7.1093774E0,-5.348096E0,-5.128139E0,-3.5159464E0,-5.830248E-1,-3.4054232E-1,-4.483775E-1,-2.535264E-1,-4.3399894E-1,-2.3506801E-1,-1.3953625E-1,-3.4335557E-1],"categories":[],"categories_nodes":[],"categories_segments":[],"categories_sizes":[],"default_left":[0,0,0,0,0,0,0,0,0,0,0,0,0,0,0,0,0,0,0,0,0],"id":19,"left_children":[1,-1,3,5,7,-1,-1,9,11,13,15,17,19,-1,-1,-1,-1,-1,-1,-1,-1],"loss_changes":[6.491395E4,0E0,4.7458984E2,8.330078E-1,2.3510742E2,0E0,0E0,2.0206055E2,6.144409E1,5.1944336E1,6.555664E1,4.841333E1,5.7132874E1,0E0,0E0,0E0,0E0,0E0,0E0,0E0,0E0],"parents":[2147483647,0,0,2,2,3,3,4,4,7,7,8,8,9,9,10,10,11,11,12,12],"right_children":[2,-1,4,6,8,-1,-1,10,12,14,16,18,20,-1,-1,-1,-1,-1,-1,-1,-1],"split_conditions":[1E-1,9.7561115E-1,3.8E-2,1.3636364E-1,1E0,-6.717713E-1,-5.083087E-1,1E0,1E0,1E0,1E0,9.42E-1,4.5454547E-2,-5.830248E-1,-3.4054232E-1,-4.483775E-1,-2.535264E-1,-4.3399894E-1,-2.3506801E-1,-1.3953625E-1,-3.4335557E-1],"split_indices":[9,0,2,36,13,0,0,24,24,25,25,2,36,0,0,0,0,0,0,0,0],"split_type":[0,0,0,0,0,0,0,0,0,0,0,0,0,0,0,0,0,0,0,0,0],"sum_hessian":[8.54E2,2.85E2,5.69E2,1.15E2,4.54E2,9.7E1,1.8E1,3.1E2,1.44E2,1.62E2,1.48E2,9.8E1,4.6E1,1.51E2,1.1E1,1.31E2,1.7E1,8.5E1,1.3E1,1.5E1,3.1E1],"tree_param":{"num_deleted":"0","num_feature":"62","num_nodes":"21","size_leaf_vector":"1"}},{"base_weights":[-2.4257073E-1,8.9784634E-1,-5.828987E0,-7.0479784E0,-5.1450024E0,-7.4341207E0,-5.4309864E0,-5.5481772E0,-4.0466886E0,-6.9200784E-1,-5.6818295E-1,-4.3893972E-1,-1.21331476E-1,-5.8663716E0,-4.6652427E0,-4.3063407E0,-2.859547E0,-4.894649E-1,-3.6783394E-1,-4.1484177E-1,-3.1313664E-1,-3.8157967E-1,-2.7452713E-1,-2.4141434E-1,1.8449096E-2],"categories":[],"categories_nodes":[],"categories_segments":[],"categories_sizes":[],"default_left":[0,0,0,0,0,0,0,0,0,0,0,0,0,0,0,0,0,0,0,0,0,0,0,0,0],"id":20,"left_children":[1,-1,3,5,7,9,11,13,15,-1,-1,-1,-1,17,19,21,23,-1,-1,-1,-1,-1,-1,-1,-1],"loss_changes":[5.611083E4,0E0,4.5483008E2,9.012207E1,1.4625977E2,5.5458984E0,1.2823486E0,5.017285E1,2.035962E1,0E0,0E0,0E0,0E0,3.546289E1,1.018103E1,1.8088135E1,1.1446304E1,0E0,0E0,0E0,0E0,0E0,0E0,0E0,0E0],"parents":[2147483647,0,0,2,2,3,3,4,4,5,5,6,6,7,7,8,8,13,13,14,14,15,15,16,16],"right_children":[2,-1,4,6,8,10,12,14,16,-1,-1,-1,-1,18,20,22,24,-1,-1,-1,-1,-1,-1,-1,-1],"split_conditions":[2.5E-2,8.9784634E-1,1E0,4.7866666E-1,2.7272728E-1,1.3333334E-2,7.2727275E-1,2.7272728E-1,5.4545456E-1,-6.9200784E-1,-5.6818295E-1,-4.3893972E-1,-1.21331476E-1,9.586667E-1,5E-1,1E0,9E0,-4.894649E-1,-3.6783394E-1,-4.1484177E-1,-3.1313664E-1,-3.8157967E-1,-2.7452713E-1,-2.4141434E-1,1.8449096E-2],"split_indices":[27,0,19,2,33,2,33,35,33,0,0,0,0,2,27,20,0,0,0,0,0,0,0,0,0],"split_type":[0,0,0,0,0,0,0,0,0,0,0,0,0,0,0,0,0,0,0,0,0,0,0,0,0],"sum_hessian":[8.74E2,2.86E2,5.88E2,2.08E2,3.8E2,1.65E2,4.3E1,2.75E2,1.05E2,3E1,1.35E2,4.2E1,1E0,1.98E2,7.7E1,8.4E1,2.1E1,1.62E2,3.6E1,4.2E1,3.5E1,5.2E1,3.2E1,2E1,1E0],"tree_param":{"num_deleted":"0","num_feature":"62","num_nodes":"25","size_leaf_vector":"1"}},{"base_weights":[-1.7304362E-1,8.2623816E-1,-5.270679E0,-6.12739E0,-4.3284426E0,-6.733083E0,-5.2061725E0,-4.861005E0,-3.3702013E0,-6.915722E0,-3.543041E-1,-5.3427606E0,-2.4809067E-1,-5.4222555E0,-3.9309015E0,-3.6089787E0,-7.6479703E-1,-5.8673424E-1,-4.7357947E-1,-4.305342E-1,-3.4691926E-2,-4.7127154E-1,-3.084928E-1,-3.2286307E-1,-1.6975978E-1,-3.0485672E-1,-1.377652E-1,-1.1015455E-1,8.9799605E-2],"categories":[],"categories_nodes":[],"categories_segments":[],"categories_sizes":[],"default_left":[0,0,0,0,0,0,0,0,0,0,0,0,0,0,0,0,0,0,0,0,0,0,0,0,0,0,0,0,0],"id":21,"left_children":[1,-1,3,5,7,9,11,13,15,17,-1,19,-1,21,23,25,27,-1,-1,-1,-1,-1,-1,-1,-1,-1,-1,-1,-1],"loss_changes":[4.6518797E4,0E0,4.4570605E2,1.3457031E2,1.2752832E2,4.512451E1,1.9371826E1,7.212744E1,6.1939453E1,2.5351562E1,0E0,1.982788E1,0E0,5.7282715E1,4.9068604E0,2.9599243E1,1.3098372E1,0E0,0E0,0E0,0E0,0E0,0E0,0E0,0E0,0E0,0E0,0E0,0E0],"parents":[2147483647,0,0,2,2,3,3,4,4,5,5,6,6,7,7,8,8,9,9,11,11,13,13,14,14,15,15,16,16],"right_children":[2,-1,4,6,8,10,12,14,16,18,-1,20,-1,22,24,26,28,-1,-1,-1,-1,-1,-1,-1,-1,-1,-1,-1,-1],"split_conditions":[1E-1,8.2623816E-1,1.6666667E-1,1E0,1E0,1E0,1E0,3.6666667E-1,1E0,1.3636364E-1,-3.543041E-1,1E0,-2.4809067E-1,1E0,1E0,1E0,4.0466666E-1,-5.8673424E-1,-4.7357947E-1,-4.305342E-1,-3.4691926E-2,-4.7127154E-1,-3.084928E-1,-3.2286307E-1,-1.6975978E-1,-3.0485672E-1,-1.377652E-1,-1.1015455E-1,8.9799605E-2],"split_indices":[9,0,11,24,24,20,25,2,20,36,0,20,0,20,25,25,2,0,0,0,0,0,0,0,0,0,0,0,0],"split_type":[0,0,0,0,0,0,0,0,0,0,0,0,0,0,0,0,0,0,0,0,0,0,0,0,0,0,0,0,0],"sum_hessian":[8.67E2,2.83E2,5.84E2,3.03E2,2.81E2,1.79E2,1.24E2,1.78E2,1.03E2,1.64E2,1.5E1,1.15E2,9E0,1.08E2,7E1,9.4E1,9E0,1.11E2,5.3E1,1.14E2,1E0,8.1E1,2.7E1,6.5E1,5E0,8.4E1,1E1,7E0,2E0],"tree_param":{"num_deleted":"0","num_feature":"62","num_nodes":"29","size_leaf_vector":"1"}},{"base_weights":[-5.9150632E-2,7.6039046E-1,-4.908891E0,-6.0492315E0,-4.3180285E0,-6.526622E0,-5.007391E0,-4.762836E0,-3.3679929E0,-6.689334E0,-3.953956E0,-3.0281386E0,-4.2542738E-1,-5.3811455E0,-4.0327005E0,-3.9518538E0,-1.7234204E0,-5.476137E-1,-3.7938702E-1,-4.0082824E-1,1.4487101E-2,-2.8022593E-1,6.874862E-2,-4.89899E-1,-3.8929796E-1,-3.568257E-1,-2.726373E-1,-2.1726462E-1,-3.3955005E-1,-6.080758E-3,-1.6589779E-1],"categories":[],"categories_nodes":[],"categories_segments":[],"categories_sizes":[],"default_left":[0,0,0,0,0,0,0,0,0,0,0,0,0,0,0,0,0,0,0,0,0,0,0,0,0,0,0,0,0,0,0],"id":22,"left_children":[1,-1,3,5,7,9,11,13,15,17,19,21,-1,23,25,27,29,-1,-1,-1,-1,-1,-1,-1,-1,-1,-1,-1,-1,-1,-1],"loss_changes":[3.9425887E4,0E0,3.5389355E2,6.181836E1,1.4242725E2,2.6713379E1,2.3222412E1,9.251611E1,1.1129419E2,3.340332E0,4.4589813E1,2.3308891E1,0E0,2.1439209E1,1.6857178E1,2.1014404E1,1.9463486E1,0E0,0E0,0E0,0E0,0E0,0E0,0E0,0E0,0E0,0E0,0E0,0E0,0E0,0E0],"parents":[2147483647,0,0,2,2,3,3,4,4,5,5,6,6,7,7,8,8,9,9,10,10,11,11,13,13,14,14,15,15,16,16],"right_children":[2,-1,4,6,8,10,12,14,16,18,20,22,-1,24,26,28,30,-1,-1,-1,-1,-1,-1,-1,-1,-1,-1,-1,-1,-1,-1],"split_conditions":[1E-1,7.6039046E-1,1E0,1E0,1E0,7.46E-1,4.5454547E-1,1E0,1E0,1E0,1E0,6.6E-1,-4.2542738E-1,9.090909E-2,1.6666667E-1,3.6363637E-1,3.6363637E-1,-5.476137E-1,-3.7938702E-1,-4.0082824E-1,1.4487101E-2,-2.8022593E-1,6.874862E-2,-4.89899E-1,-3.8929796E-1,-3.568257E-1,-2.726373E-1,-2.1726462E-1,-3.3955005E-1,-6.080758E-3,-1.6589779E-1],"split_indices":[9,0,19,24,13,2,34,24,24,20,13,9,0,35,11,34,34,0,0,0,0,0,0,0,0,0,0,0,0,0,0],"split_type":[0,0,0,0,0,0,0,0,0,0,0,0,0,0,0,0,0,0,0,0,0,0,0,0,0,0,0,0,0,0,0],"sum_hessian":[8.48E2,2.85E2,5.63E2,1.89E2,3.74E2,1.26E2,6.3E1,2.52E2,1.22E2,1.17E2,9E0,1E1,5.3E1,1.33E2,1.19E2,8.9E1,3.3E1,1.06E2,1.1E1,7E0,2E0,9E0,1E0,5E1,8.3E1,6.7E1,5.2E1,1.9E1,7E1,6E0,2.7E1],"tree_param":{"num_deleted":"0","num_feature":"62","num_nodes":"31","size_leaf_vector":"1"}},{"base_weights":[-9.8028444E-2,6.998223E-1,-4.498161E0,-4.8783956E0,-3.1239624E0,-5.731791E0,-4.340258E0,-3.8369548E0,-2.764444E0,-5.8678436E0,-2.5855076E0,-4.7804894E0,-3.5855687E0,-3.1169862E-1,-5.863365E-2,-3.217101E0,-1.7013692E0,-5.0645477E-1,-3.9738944E-1,-9.293594E-3,-2.303723E-1,-4.044723E-1,-2.8813878E-1,-3.065719E-1,-1.5302484E-1,-2.823059E-1,-1.29935E-1,-1.9292031E-1,-5.1348537E-2],"categories":[],"categories_nodes":[],"categories_segments":[],"categories_sizes":[],"default_left":[0,0,0,0,0,0,0,0,0,0,0,0,0,0,0,0,0,0,0,0,0,0,0,0,0,0,0,0,0],"id":23,"left_children":[1,-1,3,5,7,9,11,13,15,17,19,21,23,-1,-1,25,27,-1,-1,-1,-1,-1,-1,-1,-1,-1,-1,-1,-1],"loss_changes":[3.42135E4,0E0,2.9147754E2,1.8545703E2,2.271643E1,5.9311035E1,7.754736E1,4.6884155E0,3.7835266E1,3.773828E1,6.2025833E0,3.9252197E1,3.7628906E1,0E0,0E0,2.5054504E1,2.0271667E1,0E0,0E0,0E0,0E0,0E0,0E0,0E0,0E0,0E0,0E0,0E0,0E0],"parents":[2147483647,0,0,2,2,3,3,4,4,5,5,6,6,7,7,8,8,9,9,10,10,11,11,12,12,15,15,16,16],"right_children":[2,-1,4,6,8,10,12,14,16,18,20,22,24,-1,-1,26,28,-1,-1,-1,-1,-1,-1,-1,-1,-1,-1,-1,-1],"split_conditions":[1E-1,6.998223E-1,2.7272728E-1,1E0,1.6666667E-1,1E0,1E0,7.2727275E-1,1E0,1E0,3.1E-1,1E0,1E0,-3.1169862E-1,-5.863365E-2,9.42E-1,8.5E-1,-5.0645477E-1,-3.9738944E-1,-9.293594E-3,-2.303723E-1,-4.044723E-1,-2.8813878E-1,-3.065719E-1,-1.5302484E-1,-2.823059E-1,-1.29935E-1,-1.9292031E-1,-5.1348537E-2],"split_indices":[9,0,33,19,11,25,24,33,24,24,9,20,13,0,0,2,27,0,0,0,0,0,0,0,0,0,0,0,0],"split_type":[0,0,0,0,0,0,0,0,0,0,0,0,0,0,0,0,0,0,0,0,0,0,0,0,0,0,0,0,0],"sum_hessian":[8.77E2,2.91E2,5.86E2,4.57E2,1.29E2,1.73E2,2.84E2,4E1,8.9E1,1.65E2,8E0,1.76E2,1.08E2,3.9E1,1E0,6.1E1,2.8E1,1.05E2,6E1,1E0,7E0,1.4E2,3.6E1,9.3E1,1.5E1,5E1,1.1E1,1.6E1,1.2E1],"tree_param":{"num_deleted":"0","num_feature":"62","num_nodes":"29","size_leaf_vector":"1"}},{"base_weights":[-1.0641916E-1,6.439579E-1,-4.134362E0,-4.8454037E0,-3.3184695E0,-5.503982E0,-4.234156E0,-3.854277E0,-2.5848558E0,-5.5998383E0,-2.2733308E-1,-4.40959E0,-2.2209353E0,-4.2027164E0,-2.6800218E0,-2.7210069E0,-1.1667832E0,-5.054532E-1,-4.1236076E-1,-2.3812166E-1,-3.6582708E-1,-8.921814E-3,-1.8909135E-1,-4.105255E-1,-2.9228413E-1,-2.2623293E-1,-9.106927E-2,-2.656118E-1,-1.7938076E-1,-1.3696653E-1,-2.6891047E-2],"categories":[],"categories_nodes":[],"categories_segments":[],"categories_sizes":[],"default_left":[0,0,0,0,0,0,0,0,0,0,0,0,0,0,0,0,0,0,0,0,0,0,0,0,0,0,0,0,0,0,0],"id":24,"left_children":[1,-1,3,5,7,9,11,13,15,17,-1,19,21,23,25,27,29,-1,-1,-1,-1,-1,-1,-1,-1,-1,-1,-1,-1,-1,-1],"loss_changes":[2.812129E4,0E0,3.163369E2,9.907178E1,9.6167725E1,2.0581055E1,4.742285E1,5.1746826E1,1.9414673E1,1.12578125E1,0E0,2.101294E1,4.251808E0,4.0932373E1,5.4446106E0,2.2960083E1,4.8598957E0,0E0,0E0,0E0,0E0,0E0,0E0,0E0,0E0,0E0,0E0,0E0,0E0,0E0,0E0],"parents":[2147483647,0,0,2,2,3,3,4,4,5,5,6,6,7,7,8,8,9,9,11,11,12,12,13,13,14,14,15,15,16,16],"right_children":[2,-1,4,6,8,10,12,14,16,18,-1,20,22,24,26,28,30,-1,-1,-1,-1,-1,-1,-1,-1,-1,-1,-1,-1,-1,-1],"split_conditions":[1E-1,6.439579E-1,1.6666667E-1,1.2933333E-1,3.6666667E-1,1E0,1E0,1E0,1E0,1.6E-2,-2.2733308E-1,3.6363637E-1,3.1E-1,9.090909E-2,1E0,1E0,5E0,-5.054532E-1,-4.1236076E-1,-2.3812166E-1,-3.6582708E-1,-8.921814E-3,-1.8909135E-1,-4.105255E-1,-2.9228413E-1,-2.2623293E-1,-9.106927E-2,-2.656118E-1,-1.7938076E-1,-1.3696653E-1,-2.6891047E-2],"split_indices":[9,0,11,2,2,25,25,20,25,2,0,34,9,35,16,13,0,0,0,0,0,0,0,0,0,0,0,0,0,0,0],"split_type":[0,0,0,0,0,0,0,0,0,0,0,0,0,0,0,0,0,0,0,0,0,0,0,0,0,0,0,0,0,0,0],"sum_hessian":[8.54E2,2.82E2,5.72E2,3.03E2,2.69E2,1.42E2,1.61E2,1.53E2,1.16E2,1.36E2,6E0,1.47E2,1.4E1,1.16E2,3.7E1,1.05E2,1.1E1,4.7E1,8.9E1,1.7E1,1.3E2,1E0,1.3E1,4E1,7.6E1,3.3E1,4E0,4.4E1,6.1E1,6E0,5E0],"tree_param":{"num_deleted":"0","num_feature":"62","num_nodes":"31","size_leaf_vector":"1"}},{"base_weights":[-4.7983244E-2,5.9270185E-1,-3.8147159E0,-4.4781876E0,-3.0629025E0,-5.086994E0,-3.864124E0,-2.4111738E0,-3.7355466E0,-5.173983E0,-2.5583653E0,-4.0241666E0,-2.2022407E0,-2.8445063E0,-1.8157592E0,-3.8575683E0,-9.706437E-1,-4.4282335E-1,-3.4628153E-1,-2.3592578E-1,-8.564911E-3,-1.5662098E-1,-3.3063388E-1,-4.6094816E-2,-1.8177857E-1,-2.313142E-1,-5.2860007E-2,4.8836775E-2,-1.785147E-1,-3.3267945E-1,-2.4283344E-1,-1.0263954E-1,3.613838E-2],"categories":[],"categories_nodes":[],"categories_segments":[],"categories_sizes":[],"default_left":[0,0,0,0,0,0,0,0,0,0,0,0,0,0,0,0,0,0,0,0,0,0,0,0,0,0,0,0,0,0,0,0,0],"id":25,"left_children":[1,-1,3,5,7,9,11,13,15,17,19,21,23,25,27,29,31,-1,-1,-1,-1,-1,-1,-1,-1,-1,-1,-1,-1,-1,-1,-1,-1],"loss_changes":[2.460492E4,0E0,2.7658984E2,9.511377E1,1.1198633E2,1.997754E1,3.2895508E1,3.1730896E1,4.1464355E1,2.0333984E1,6.3884583E0,2.3821533E1,5.117264E-1,6.389038E0,6.489882E1,1.9045166E1,3.6895204E0,0E0,0E0,0E0,0E0,0E0,0E0,0E0,0E0,0E0,0E0,0E0,0E0,0E0,0E0,0E0,0E0],"parents":[2147483647,0,0,2,2,3,3,4,4,5,5,6,6,7,7,8,8,9,9,10,10,11,11,12,12,13,13,14,14,15,15,16,16],"right_children":[2,-1,4,6,8,10,12,14,16,18,20,22,24,26,28,30,32,-1,-1,-1,-1,-1,-1,-1,-1,-1,-1,-1,-1,-1,-1,-1,-1],"split_conditions":[1E0,5.9270185E-1,1.6666667E-1,1E0,7.2727275E-1,1E0,1E0,1E0,1E0,1E0,1.2733333E-1,3.6363637E-1,6.5E1,7.2727275E-1,9.090909E-2,1E0,1.8181819E-1,-4.4282335E-1,-3.4628153E-1,-2.3592578E-1,-8.564911E-3,-1.5662098E-1,-3.3063388E-1,-4.6094816E-2,-1.8177857E-1,-2.313142E-1,-5.2860007E-2,4.8836775E-2,-1.785147E-1,-3.3267945E-1,-2.4283344E-1,-1.0263954E-1,3.613838E-2],"split_indices":[30,0,11,19,34,25,25,24,25,24,2,34,1,33,35,24,33,0,0,0,0,0,0,0,0,0,0,0,0,0,0,0,0],"split_type":[0,0,0,0,0,0,0,0,0,0,0,0,0,0,0,0,0,0,0,0,0,0,0,0,0,0,0,0,0,0,0,0,0],"sum_hessian":[8.74E2,2.93E2,5.81E2,3.06E2,2.75E2,1.5E2,1.56E2,1.42E2,1.33E2,1.44E2,6E0,1.41E2,1.5E1,8E1,6.2E1,1.27E2,6E0,9.7E1,4.7E1,5E0,1E0,8E0,1.33E2,1E0,1.4E1,7.8E1,2E0,9E0,5.3E1,9E1,3.7E1,5E0,1E0],"tree_param":{"num_deleted":"0","num_feature":"62","num_nodes":"33","size_leaf_vector":"1"}},{"base_weights":[6.8205975E-2,5.4545933E-1,-3.551502E0,-3.0071278E0,-4.257075E0,-3.5785558E0,-2.5698833E0,-4.5416694E0,-3.3370829E0,-4.0128813E0,-3.009454E0,-3.033723E0,-1.8830317E0,-4.7676315E0,-3.1184924E-1,-2.8250653E-1,-1.8439698E0,-1.3299057E-1,-3.2718948E-1,1.18003845E-1,-2.4857211E-1,-2.7245834E-1,-1.8148908E-1,-1.7997158E-1,-9.9672265E-2,-3.983967E-1,-2.8145903E-1,-1.7263065E-1,-3.9747924E-2],"categories":[],"categories_nodes":[],"categories_segments":[],"categories_sizes":[],"default_left":[0,0,0,0,0,0,0,0,0,0,0,0,0,0,0,0,0,0,0,0,0,0,0,0,0,0,0,0,0],"id":26,"left_children":[1,-1,3,5,7,9,11,13,15,17,19,21,23,25,-1,-1,27,-1,-1,-1,-1,-1,-1,-1,-1,-1,-1,-1,-1],"loss_changes":[2.07191E4,0E0,1.9921875E2,6.9507324E1,4.715869E1,2.1044922E1,5.227063E1,7.4450684E0,1.0890503E1,6.411133E0,3.174701E1,2.2728638E1,1.4949188E1,1.6435303E1,0E0,0E0,2.7337723E0,0E0,0E0,0E0,0E0,0E0,0E0,0E0,0E0,0E0,0E0,0E0,0E0],"parents":[2147483647,0,0,2,2,3,3,4,4,5,5,6,6,7,7,8,8,9,9,10,10,11,11,12,12,13,13,16,16],"right_children":[2,-1,4,6,8,10,12,14,16,18,20,22,24,26,-1,-1,28,-1,-1,-1,-1,-1,-1,-1,-1,-1,-1,-1,-1],"split_conditions":[2.5E-2,5.4545933E-1,9.0909094E-1,1.6666667E-1,4.1666666E-1,1E0,3.6933333E-1,1.25E-1,1E0,2.7272728E-1,9.090909E-2,1E0,1E0,1E0,-3.1184924E-1,-2.8250653E-1,8E0,-1.3299057E-1,-3.2718948E-1,1.18003845E-1,-2.4857211E-1,-2.7245834E-1,-1.8148908E-1,-1.7997158E-1,-9.9672265E-2,-3.983967E-1,-2.8145903E-1,-1.7263065E-1,-3.9747924E-2],"split_indices":[27,0,34,11,2,24,2,4,25,34,35,24,24,21,0,0,0,0,0,0,0,0,0,0,0,0,0,0,0],"split_type":[0,0,0,0,0,0,0,0,0,0,0,0,0,0,0,0,0,0,0,0,0,0,0,0,0,0,0,0,0],"sum_hessian":[8.46E2,2.95E2,5.51E2,3.14E2,2.37E2,1.33E2,1.81E2,1.78E2,5.9E1,7.2E1,6.1E1,1.06E2,7.5E1,1.27E2,5.1E1,5.1E1,8E0,3E0,6.9E1,1E0,6E1,6.9E1,3.7E1,4.6E1,2.9E1,1.06E2,2.1E1,6E0,2E0],"tree_param":{"num_deleted":"0","num_feature":"62","num_nodes":"29","size_leaf_vector":"1"}},{"base_weights":[-3.1579692E-2,5.019528E-1,-3.250436E0,-3.983946E0,-2.8098614E0,-4.213463E0,-3.0334516E0,-3.130659E0,-2.198945E0,-4.3497844E0,-2.738717E0,-3.1804416E0,-9.771553E-2,-3.2706892E0,-1.626245E0,-2.2625542E0,9.644999E-2,-3.5395908E-1,-1.7276815E-1,-2.2674751E-1,-4.8347548E-2,-2.5966233E-1,-1.0167239E-1,-3.0824846E-1,-2.3879427E-1,-1.4986077E-1,-3.2939453E-2,-2.3682779E-1,-1.5693127E-1],"categories":[],"categories_nodes":[],"categories_segments":[],"categories_sizes":[],"default_left":[0,0,0,0,0,0,0,0,0,0,0,0,0,0,0,0,0,0,0,0,0,0,0,0,0,0,0,0,0],"id":27,"left_children":[1,-1,3,5,7,9,11,13,15,17,19,21,-1,23,25,27,-1,-1,-1,-1,-1,-1,-1,-1,-1,-1,-1,-1,-1],"loss_changes":[1.7598531E4,0E0,1.7430322E2,3.3685547E1,6.406079E1,2.2062988E1,8.100891E0,4.418701E1,3.0447693E1,1.5478027E1,1.7568512E0,9.902649E-1,0E0,2.411499E1,5.8286934E0,2.064978E1,0E0,0E0,0E0,0E0,0E0,0E0,0E0,0E0,0E0,0E0,0E0,0E0,0E0],"parents":[2147483647,0,0,2,2,3,3,4,4,5,5,6,6,7,7,8,8,9,9,10,10,11,11,13,13,14,14,15,15],"right_children":[2,-1,4,6,8,10,12,14,16,18,20,22,-1,24,26,28,-1,-1,-1,-1,-1,-1,-1,-1,-1,-1,-1,-1,-1],"split_conditions":[1E-1,5.019528E-1,1.42E-1,1.8181819E-1,1E0,1E0,1E0,1E0,8.1E-1,1E0,1E2,1E0,-9.771553E-2,1E0,3.6363637E-1,3.0933332E-1,9.644999E-2,-3.5395908E-1,-1.7276815E-1,-2.2674751E-1,-4.8347548E-2,-2.5966233E-1,-1.0167239E-1,-3.0824846E-1,-2.3879427E-1,-1.4986077E-1,-3.2939453E-2,-2.3682779E-1,-1.5693127E-1],"split_indices":[9,0,2,35,13,20,25,25,9,25,1,20,0,19,35,2,0,0,0,0,0,0,0,0,0,0,0,0,0],"split_type":[0,0,0,0,0,0,0,0,0,0,0,0,0,0,0,0,0,0,0,0,0,0,0,0,0,0,0,0,0],"sum_hessian":[8.65E2,2.92E2,5.73E2,2.12E2,3.61E2,1.68E2,4.4E1,2.34E2,1.27E2,1.52E2,1.6E1,4E1,4E0,2.13E2,2.1E1,1.25E2,2E0,1.46E2,6E0,1.5E1,1E0,3.8E1,2E0,6.6E1,1.47E2,1.7E1,4E0,3.5E1,9E1],"tree_param":{"num_deleted":"0","num_feature":"62","num_nodes":"29","size_leaf_vector":"1"}},{"base_weights":[-6.0958624E-2,4.6191177E-1,-3.0560071E0,-3.3412256E0,-2.0402796E0,-3.9273138E0,-2.9287164E0,-2.6966984E0,-1.6919281E0,-4.287404E0,-3.218912E0,-3.2625449E0,-2.3675766E0,-1.2746397E0,-2.993811E0,-2.0584595E0,-5.487496E-1,-3.53552E-1,-1.9676067E-1,-2.6851982E-1,-1.8006898E-1,-2.7332383E-1,-1.9550027E-1,-1.9386224E-1,-3.2879446E-2,-1.0864796E-1,-2.4278488E-2,-6.0209274E-2,-2.4311355E-1,-1.910119E-1,-1.2151334E-1,7.643738E-3,-1.06516786E-1],"categories":[],"categories_nodes":[],"categories_segments":[],"categories_sizes":[],"default_left":[0,0,0,0,0,0,0,0,0,0,0,0,0,0,0,0,0,0,0,0,0,0,0,0,0,0,0,0,0,0,0,0,0],"id":28,"left_children":[1,-1,3,5,7,9,11,13,15,17,19,21,23,25,27,29,31,-1,-1,-1,-1,-1,-1,-1,-1,-1,-1,-1,-1,-1,-1,-1,-1],"loss_changes":[1.4889445E4,0E0,1.5628613E2,9.439209E1,2.4249146E1,3.1604736E1,4.1167236E1,1.3929443E1,3.4486343E1,1.6877197E1,9.690552E-1,1.1952515E1,1.0011536E1,3.1731606E-1,1.150177E0,7.740509E0,1.122176E1,0E0,0E0,0E0,0E0,0E0,0E0,0E0,0E0,0E0,0E0,0E0,0E0,0E0,0E0,0E0,0E0],"parents":[2147483647,0,0,2,2,3,3,4,4,5,5,6,6,7,7,8,8,9,9,10,10,11,11,12,12,13,13,14,14,15,15,16,16],"right_children":[2,-1,4,6,8,10,12,14,16,18,20,22,24,26,28,30,32,-1,-1,-1,-1,-1,-1,-1,-1,-1,-1,-1,-1,-1,-1,-1,-1],"split_conditions":[1E-1,4.6191177E-1,2.7272728E-1,1E0,1.6666667E-1,1E0,1E0,2.7272728E-1,8.5E-1,1E0,1E0,1E0,1E0,7.2727275E-1,2.9E-1,1E0,1.8181819E-1,-3.53552E-1,-1.9676067E-1,-2.6851982E-1,-1.8006898E-1,-2.7332383E-1,-1.9550027E-1,-1.9386224E-1,-3.2879446E-2,-1.0864796E-1,-2.4278488E-2,-6.0209274E-2,-2.4311355E-1,-1.910119E-1,-1.2151334E-1,7.643738E-3,-1.06516786E-1],"split_indices":[9,0,33,19,11,24,24,34,27,20,13,20,20,33,9,20,35,0,0,0,0,0,0,0,0,0,0,0,0,0,0,0,0],"split_type":[0,0,0,0,0,0,0,0,0,0,0,0,0,0,0,0,0,0,0,0,0,0,0,0,0,0,0,0,0,0,0,0,0],"sum_hessian":[8.5E2,2.88E2,5.62E2,4.37E2,1.25E2,1.77E2,2.6E2,4.1E1,8.4E1,1.14E2,6.3E1,1.6E2,1E2,8E0,3.3E1,6.3E1,2.1E1,1.05E2,9E0,5.3E1,1E1,1.32E2,2.8E1,9.7E1,3E0,7E0,1E0,1E0,3.2E1,3.7E1,2.6E1,1.2E1,9E0],"tree_param":{"num_deleted":"0","num_feature":"62","num_nodes":"33","size_leaf_vector":"1"}},{"base_weights":[-1.7491762E-3,4.2510664E-1,-2.7583225E0,-3.4203064E0,-2.3805232E0,-3.6509585E0,-2.6612856E0,-2.7732081E0,-1.829586E0,-3.7324455E0,-2.1124494E0,-2.7403698E0,-1.0469522E0,-2.8775754E0,-9.7028977E-1,-1.9632689E0,2.9177245E-1,-3.0436364E-1,-1.6249433E-1,-4.5098495E-2,-1.7775138E-1,-2.2886695E-1,-1.424344E-1,-1.1028972E-1,-3.814842E-2,-2.5037718E-1,-1.6195501E-1,-1.1163957E-1,2.6823577E-2,-1.8749136E-1,-1.1561917E-1,1.0416301E-1,-2.61763E-2],"categories":[],"categories_nodes":[],"categories_segments":[],"categories_sizes":[],"default_left":[0,0,0,0,0,0,0,0,0,0,0,0,0,0,0,0,0,0,0,0,0,0,0,0,0,0,0,0,0,0,0,0,0],"id":29,"left_children":[1,-1,3,5,7,9,11,13,15,17,19,21,23,25,27,29,31,-1,-1,-1,-1,-1,-1,-1,-1,-1,-1,-1,-1,-1,-1,-1,-1],"loss_changes":[1.25721E4,0E0,1.3316211E2,2.5822998E1,7.345923E1,1.1296753E1,3.6420288E0,3.6722656E1,4.4245544E1,9.935547E0,4.4241333E-1,4.572754E-1,9.893179E-2,3.625586E1,7.6847315E0,2.5184326E1,6.679333E0,0E0,0E0,0E0,0E0,0E0,0E0,0E0,0E0,0E0,0E0,0E0,0E0,0E0,0E0,0E0,0E0],"parents":[2147483647,0,0,2,2,3,3,4,4,5,5,6,6,7,7,8,8,9,9,10,10,11,11,12,12,13,13,14,14,15,15,16,16],"right_children":[2,-1,4,6,8,10,12,14,16,18,20,22,24,26,28,30,32,-1,-1,-1,-1,-1,-1,-1,-1,-1,-1,-1,-1,-1,-1,-1,-1],"split_conditions":[1E-1,4.2510664E-1,1.2733333E-1,1.3636364E-1,1E0,1E0,1E0,1E0,1E0,3.75E-1,2E0,9.75E-1,3E0,1E0,1E0,1.6666667E-1,7.6E-1,-3.0436364E-1,-1.6249433E-1,-4.5098495E-2,-1.7775138E-1,-2.2886695E-1,-1.424344E-1,-1.1028972E-1,-3.814842E-2,-2.5037718E-1,-1.6195501E-1,-1.1163957E-1,2.6823577E-2,-1.8749136E-1,-1.1561917E-1,1.0416301E-1,-2.61763E-2],"split_indices":[9,0,2,36,24,20,25,25,20,4,0,27,0,20,13,11,9,0,0,0,0,0,0,0,0,0,0,0,0,0,0,0,0],"split_type":[0,0,0,0,0,0,0,0,0,0,0,0,0,0,0,0,0,0,0,0,0,0,0,0,0,0,0,0,0,0,0,0,0],"sum_hessian":[8.56E2,2.92E2,5.64E2,2.02E2,3.62E2,1.52E2,5E1,2.09E2,1.53E2,1.43E2,9E0,4.7E1,3E0,1.97E2,1.2E1,1.44E2,9E0,1.36E2,7E0,1E0,8E0,4E1,7E0,1E0,2E0,1.5E2,4.7E1,9E0,3E0,8.1E1,6.3E1,3E0,6E0],"tree_param":{"num_deleted":"0","num_feature":"62","num_nodes":"33","size_leaf_vector":"1"}},{"base_weights":[3.8245518E-2,3.912452E-1,-2.538275E0,-2.1057549E0,-3.1068628E0,-1.2678005E0,-2.2913969E0,-3.3267963E0,-2.1957815E0,-6.3077176E-1,-1.4802824E0,-2.3825765E0,-1.1228622E0,-3.999775E0,-3.118955E0,-2.3321893E0,7.1866924E-1,-1.0780458E-1,1.2487962E-2,-9.294586E-3,-1.2328216E-1,-2.0927997E-1,-1.5512429E-1,1.0628611E-2,-1.00962855E-1,-3.2383147E-1,-8.107689E-2,-2.2644392E-1,-2.7770284E-1,-1.9823769E-1,-7.1897745E-2,2.1540642E-1,-1.2916611E-1],"categories":[],"categories_nodes":[],"categories_segments":[],"categories_sizes":[],"default_left":[0,0,0,0,0,0,0,0,0,0,0,0,0,0,0,0,0,0,0,0,0,0,0,0,0,0,0,0,0,0,0,0,0],"id":30,"left_children":[1,-1,3,5,7,9,11,13,15,17,19,21,23,25,27,29,31,-1,-1,-1,-1,-1,-1,-1,-1,-1,-1,-1,-1,-1,-1,-1,-1],"loss_changes":[1.0814229E4,0E0,1.3240576E2,4.7496216E1,4.118628E1,7.3230667E0,2.5453003E1,1.4520264E1,2.1553772E1,9.798656E0,3.549736E0,2.0188354E1,3.837696E0,1.9328003E0,5.619629E0,7.803711E0,1.8164234E1,0E0,0E0,0E0,0E0,0E0,0E0,0E0,0E0,0E0,0E0,0E0,0E0,0E0,0E0,0E0,0E0],"parents":[2147483647,0,0,2,2,3,3,4,4,5,5,6,6,7,7,8,8,9,9,10,10,11,11,12,12,13,13,14,14,15,15,16,16],"right_children":[2,-1,4,6,8,10,12,14,16,18,20,22,24,26,28,30,32,-1,-1,-1,-1,-1,-1,-1,-1,-1,-1,-1,-1,-1,-1,-1,-1],"split_conditions":[1E-1,3.912452E-1,9.0909094E-1,3.6363637E-1,7.2E-1,9.090909E-2,1E0,1.4E-2,6.7E-1,5.25E-1,3E-1,1E0,3.3E-1,3.75E-1,1E0,1E0,5E0,-1.0780458E-1,1.2487962E-2,-9.294586E-3,-1.2328216E-1,-2.0927997E-1,-1.5512429E-1,1.0628611E-2,-1.00962855E-1,-3.2383147E-1,-8.107689E-2,-2.2644392E-1,-2.7770284E-1,-1.9823769E-1,-7.1897745E-2,2.1540642E-1,-1.2916611E-1],"split_indices":[9,0,34,34,2,35,25,2,9,27,9,21,9,4,34,25,0,0,0,0,0,0,0,0,0,0,0,0,0,0,0,0,0],"split_type":[0,0,0,0,0,0,0,0,0,0,0,0,0,0,0,0,0,0,0,0,0,0,0,0,0,0,0,0,0,0,0,0,0],"sum_hessian":[8.63E2,2.99E2,5.64E2,3.23E2,2.41E2,6E1,2.63E2,1.92E2,4.9E1,1.6E1,4.4E1,2.43E2,2E1,4.1E1,1.51E2,4.7E1,2E0,8E0,8E0,2E0,4.2E1,1.56E2,8.7E1,2E0,1.8E1,4E1,1E0,8.8E1,6.3E1,4.2E1,5E0,1E0,1E0],"tree_param":{"num_deleted":"0","num_feature":"62","num_nodes":"33","size_leaf_vector":"1"}},{"base_weights":[-1.3709168E-1,3.5998225E-1,-2.368844E0,-3.003459E0,-2.0128388E0,-3.1069486E0,-1.1961995E0,-2.164655E0,-1.1645453E0,-3.4400854E0,-2.5022318E0,-1.5947816E0,5.3120118E-2,-2.4509845E0,-1.6937917E0,-1.4476599E0,-3.6327553E-1,-2.521889E-1,-3.194979E-1,-2.0299387E-1,-6.5884225E-2,-1.3533632E-1,-2.5022278E-2,-2.3837046E-1,-1.7055842E-1,-1.4293084E-1,-9.0099145E-3,-1.4885847E-1,-8.474372E-2,1.0495479E-1,-5.3927936E-2],"categories":[],"categories_nodes":[],"categories_segments":[],"categories_sizes":[],"default_left":[0,0,0,0,0,0,0,0,0,0,0,0,0,0,0,0,0,0,0,0,0,0,0,0,0,0,0,0,0,0,0],"id":31,"left_children":[1,-1,3,5,7,9,11,13,15,17,19,21,-1,23,25,27,29,-1,-1,-1,-1,-1,-1,-1,-1,-1,-1,-1,-1,-1,-1],"loss_changes":[9.044765E3,0E0,1.2725098E2,3.556018E1,4.6546143E1,3.1279785E1,1.0697693E1,3.926123E1,1.3085167E1,7.3223877E0,2.2819214E0,8.37677E-1,0E0,2.703833E1,1.8148956E1,5.0874786E0,9.73619E0,0E0,0E0,0E0,0E0,0E0,0E0,0E0,0E0,0E0,0E0,0E0,0E0,0E0,0E0],"parents":[2147483647,0,0,2,2,3,3,4,4,5,5,6,6,7,7,8,8,9,9,10,10,11,11,13,13,14,14,15,15,16,16],"right_children":[2,-1,4,6,8,10,12,14,16,18,20,22,-1,24,26,28,30,-1,-1,-1,-1,-1,-1,-1,-1,-1,-1,-1,-1,-1,-1],"split_conditions":[1E-1,3.5998225E-1,1E0,1E0,3.6363637E-1,1E0,1E0,1E0,1E0,1E0,5E-1,9.6E-1,5.3120118E-2,4.5454547E-2,1E0,4.5454547E-1,4.5454547E-2,-2.521889E-1,-3.194979E-1,-2.0299387E-1,-6.5884225E-2,-1.3533632E-1,-2.5022278E-2,-2.3837046E-1,-1.7055842E-1,-1.4293084E-1,-9.0099145E-3,-1.4885847E-1,-8.474372E-2,1.0495479E-1,-5.3927936E-2],"split_indices":[9,0,19,25,33,24,13,24,24,34,4,9,0,36,20,33,36,0,0,0,0,0,0,0,0,0,0,0,0,0,0],"split_type":[0,0,0,0,0,0,0,0,0,0,0,0,0,0,0,0,0,0,0,0,0,0,0,0,0,0,0,0,0,0,0],"sum_hessian":[8.72E2,2.83E2,5.89E2,2.09E2,3.8E2,1.97E2,1.2E1,3.21E2,5.9E1,1.24E2,7.3E1,1E1,2E0,1.97E2,1.24E2,4.3E1,1.6E1,8.6E1,3.8E1,7.1E1,2E0,9E0,1E0,7.1E1,1.26E2,1.17E2,7E0,1.9E1,2.4E1,2E0,1.4E1],"tree_param":{"num_deleted":"0","num_feature":"62","num_nodes":"31","size_leaf_vector":"1"}},{"base_weights":[-4.9702402E-2,3.3131298E-1,-2.1818085E0,-2.5888135E0,-1.7201947E0,-2.1417682E0,-2.9568965E0,-1.898337E0,-9.5164114E-1,-2.4928713E0,-1.673073E0,-3.0204654E0,-1.3476881E0,-2.1087153E0,-1.4395268E0,-1.0760082E0,1.479812E0,-2.192239E-1,-1.3907975E-1,1.0029719E-1,-1.4316688E-1,-2.5753352E-1,-2.0278645E-1,1.8780364E-2,-1.2858301E-1,-1.8986088E-1,-1.19178265E-1,-1.2916984E-1,-5.33216E-2,-1.03898056E-1,-2.6394804E-3,-3.492996E-2,2.125074E-1],"categories":[],"categories_nodes":[],"categories_segments":[],"categories_sizes":[],"default_left":[0,0,0,0,0,0,0,0,0,0,0,0,0,0,0,0,0,0,0,0,0,0,0,0,0,0,0,0,0,0,0,0,0],"id":32,"left_children":[1,-1,3,5,7,9,11,13,15,17,19,21,23,25,27,29,31,-1,-1,-1,-1,-1,-1,-1,-1,-1,-1,-1,-1,-1,-1,-1,-1],"loss_changes":[7.711782E3,0E0,1.0301367E2,4.3361084E1,3.529657E1,1.8867615E1,1.2603638E1,1.810315E1,1.7619095E1,9.794922E0,2.3727188E1,6.8935547E0,3.6637306E0,2.0699524E1,8.669037E0,1.180434E1,7.9240627E0,0E0,0E0,0E0,0E0,0E0,0E0,0E0,0E0,0E0,0E0,0E0,0E0,0E0,0E0,0E0,0E0],"parents":[2147483647,0,0,2,2,3,3,4,4,5,5,6,6,7,7,8,8,9,9,10,10,11,11,12,12,13,13,14,14,15,15,16,16],"right_children":[2,-1,4,6,8,10,12,14,16,18,20,22,24,26,28,30,32,-1,-1,-1,-1,-1,-1,-1,-1,-1,-1,-1,-1,-1,-1,-1,-1],"split_conditions":[1E-1,3.3131298E-1,1.6666667E-1,9.0909094E-1,7.7933335E-1,1E0,1E0,1E0,6.7E-1,1E0,4.5454547E-2,1E0,1.25E-1,1.8181819E-1,4.75E-1,1E0,2E0,-2.192239E-1,-1.3907975E-1,1.0029719E-1,-1.4316688E-1,-2.5753352E-1,-2.0278645E-1,1.8780364E-2,-1.2858301E-1,-1.8986088E-1,-1.19178265E-1,-1.2916984E-1,-5.33216E-2,-1.03898056E-1,-2.6394804E-3,-3.492996E-2,2.125074E-1],"split_indices":[9,0,11,34,2,24,25,24,9,13,36,24,4,36,27,25,0,0,0,0,0,0,0,0,0,0,0,0,0,0,0,0,0],"split_type":[0,0,0,0,0,0,0,0,0,0,0,0,0,0,0,0,0,0,0,0,0,0,0,0,0,0,0,0,0,0,0,0,0],"sum_hessian":[8.61E2,2.9E2,5.71E2,3.01E2,2.7E2,1.39E2,1.62E2,2.18E2,5.2E1,7.7E1,6.2E1,1.55E2,7E0,1.47E2,7.1E1,5E1,2E0,5.6E1,2.1E1,2E0,6E1,1.06E2,4.9E1,1E0,6E0,1.01E2,4.6E1,5.7E1,1.4E1,4.1E1,9E0,1E0,1E0],"tree_param":{"num_deleted":"0","num_feature":"62","num_nodes":"33","size_leaf_vector":"1"}},{"base_weights":[-8.2206495E-2,3.0488798E-1,-1.9955001E0,-2.3925054E0,-1.5470462E0,-2.6463952E0,-1.9287112E0,-1.8223839E0,-1.0464803E0,-2.8987467E0,-2.113493E0,-2.0139198E0,-8.4966916E-1,-2.212647E0,-1.3791647E0,-1.337659E0,-3.4582952E-1,-2.4449764E-1,-1.6870472E-1,-1.7666675E-1,-7.8807026E-2,-1.7173918E-1,-1.0453919E-1,-8.3794534E-2,-3.126348E-3,-1.8342571E-1,-2.7440948E-2,-1.2351167E-1,-1.877311E-2,-1.17993556E-1,-1.8256616E-2,2.739552E-2,-6.895525E-2],"categories":[],"categories_nodes":[],"categories_segments":[],"categories_sizes":[],"default_left":[0,0,0,0,0,0,0,0,0,0,0,0,0,0,0,0,0,0,0,0,0,0,0,0,0,0,0,0,0,0,0,0,0],"id":33,"left_children":[1,-1,3,5,7,9,11,13,15,17,19,21,23,25,27,29,31,-1,-1,-1,-1,-1,-1,-1,-1,-1,-1,-1,-1,-1,-1,-1,-1],"loss_changes":[6.510615E3,0E0,1.00629395E2,3.1281494E1,3.6408142E1,2.0365845E1,8.678497E0,2.7737427E1,2.0142876E1,9.850708E0,4.994934E0,6.9632263E0,1.5621095E0,1.3153992E1,1.585173E1,1.0475555E1,1.1307159E1,0E0,0E0,0E0,0E0,0E0,0E0,0E0,0E0,0E0,0E0,0E0,0E0,0E0,0E0,0E0,0E0],"parents":[2147483647,0,0,2,2,3,3,4,4,5,5,6,6,7,7,8,8,9,9,10,10,11,11,12,12,13,13,14,14,15,15,16,16],"right_children":[2,-1,4,6,8,10,12,14,16,18,20,22,24,26,28,30,32,-1,-1,-1,-1,-1,-1,-1,-1,-1,-1,-1,-1,-1,-1,-1,-1],"split_conditions":[2.5E-2,3.0488798E-1,1.6666667E-1,1.8181819E-1,1E0,1E0,1E0,1E0,1E0,1E0,1E0,3.6363637E-1,1E0,1E0,3.6363637E-1,1E0,5E0,-2.4449764E-1,-1.6870472E-1,-1.7666675E-1,-7.8807026E-2,-1.7173918E-1,-1.0453919E-1,-8.3794534E-2,-3.126348E-3,-1.8342571E-1,-2.7440948E-2,-1.2351167E-1,-1.877311E-2,-1.17993556E-1,-1.8256616E-2,2.739552E-2,-6.895525E-2],"split_indices":[27,0,11,35,24,24,25,21,13,21,13,33,13,25,35,25,0,0,0,0,0,0,0,0,0,0,0,0,0,0,0,0,0],"split_type":[0,0,0,0,0,0,0,0,0,0,0,0,0,0,0,0,0,0,0,0,0,0,0,0,0,0,0,0,0,0,0,0,0],"sum_hessian":[8.72E2,2.87E2,5.85E2,3.08E2,2.77E2,1.96E2,1.12E2,1.77E2,1E2,1.3E2,6.6E1,1.03E2,9E0,9.2E1,8.5E1,7E1,3E1,1.06E2,2.4E1,6E1,6E0,8.5E1,1.8E1,7E0,2E0,8.8E1,4E0,7.4E1,1.1E1,6.2E1,8E0,1.3E1,1.7E1],"tree_param":{"num_deleted":"0","num_feature":"62","num_nodes":"33","size_leaf_vector":"1"}},{"base_weights":[-1.1295109E-1,2.8057152E-1,-1.8703858E0,-2.2301762E0,-1.4679363E0,-2.0281284E0,-2.8642757E0,-1.7017815E0,-1.0299968E0,-2.2799652E0,-1.6344936E0,2.7809067E-2,-2.9144094E0,-1.9246323E0,-1.0254704E0,-1.7597647E0,-7.76389E-1,-1.9345845E-1,-1.2811935E-1,9.9151045E-2,-1.36706E-1,-2.6073095E-1,-1.8677148E-1,-2.0639117E-1,-1.3428056E-1,-9.051592E-2,7.283203E-3,-2.8565781E-2,-1.6079524E-1,-8.8001125E-2,-1.45853525E-2],"categories":[],"categories_nodes":[],"categories_segments":[],"categories_sizes":[],"default_left":[0,0,0,0,0,0,0,0,0,0,0,0,0,0,0,0,0,0,0,0,0,0,0,0,0,0,0,0,0,0,0],"id":34,"left_children":[1,-1,3,5,7,9,11,13,15,17,19,-1,21,23,25,27,29,-1,-1,-1,-1,-1,-1,-1,-1,-1,-1,-1,-1,-1,-1],"loss_changes":[5.5479316E3,0E0,8.172241E1,3.3651367E1,2.6921997E1,1.976764E1,1.2606812E1,2.530603E1,1.7141212E1,9.448181E0,2.2625366E1,0E0,6.581238E0,1.7441772E1,5.664345E0,8.055313E0,1.44109535E1,0E0,0E0,0E0,0E0,0E0,0E0,0E0,0E0,0E0,0E0,0E0,0E0,0E0,0E0],"parents":[2147483647,0,0,2,2,3,3,4,4,5,5,6,6,7,7,8,8,9,9,10,10,12,12,13,13,14,14,15,15,16,16],"right_children":[2,-1,4,6,8,10,12,14,16,18,20,-1,22,24,26,28,30,-1,-1,-1,-1,-1,-1,-1,-1,-1,-1,-1,-1,-1,-1],"split_conditions":[1E-1,2.8057152E-1,1.6666667E-1,1E0,5.5E-1,1E0,3.1E-1,1E0,1E0,1E0,4.5454547E-2,2.7809067E-2,1E0,4.5454547E-2,4.6133333E-1,3.6363637E-1,1E0,-1.9345845E-1,-1.2811935E-1,9.9151045E-2,-1.36706E-1,-2.6073095E-1,-1.8677148E-1,-2.0639117E-1,-1.3428056E-1,-9.051592E-2,7.283203E-3,-2.8565781E-2,-1.6079524E-1,-8.8001125E-2,-1.45853525E-2],"split_indices":[9,0,11,34,27,24,9,20,19,13,36,0,19,36,2,34,13,0,0,0,0,0,0,0,0,0,0,0,0,0,0],"split_type":[0,0,0,0,0,0,0,0,0,0,0,0,0,0,0,0,0,0,0,0,0,0,0,0,0,0,0,0,0,0,0],"sum_hessian":[8.7E2,2.84E2,5.86E2,3.07E2,2.79E2,2.36E2,7.1E1,1.8E2,9.9E1,1.41E2,9.5E1,1E0,7E1,1.34E2,4.6E1,2.4E1,7.5E1,1.15E2,2.6E1,2E0,9.3E1,4.1E1,2.9E1,3.4E1,1E2,4.2E1,4E0,4E0,2E1,4.8E1,2.7E1],"tree_param":{"num_deleted":"0","num_feature":"62","num_nodes":"31","size_leaf_vector":"1"}},{"base_weights":[-6.357553E-2,2.5824133E-1,-1.6928077E0,-2.1879237E0,-1.4264542E0,-2.3294796E-1,-2.019475E0,-5.8426994E-1,-1.5282532E0,-2.0844564E0,-7.583264E-1,-8.9253557E-1,7.121264E-2,-1.7413996E0,-1.1716783E0,-1.01841226E-1,-1.7669374E-1,1.6356086E-3,-8.760051E-2,-1.4567575E-1,-5.437333E-2,-2.5853042E-2,5.7330932E-2,-1.6260926E-1,-1.0881419E-1,-1.23051554E-1,-6.517201E-2],"categories":[],"categories_nodes":[],"categories_segments":[],"categories_sizes":[],"default_left":[0,0,0,0,0,0,0,0,0,0,0,0,0,0,0,0,0,0,0,0,0,0,0,0,0,0,0],"id":35,"left_children":[1,-1,3,5,7,-1,9,11,13,15,17,19,21,23,25,-1,-1,-1,-1,-1,-1,-1,-1,-1,-1,-1,-1],"loss_changes":[4.8105044E3,0E0,7.600452E1,1.9484009E1,3.2800354E1,0E0,1.2515015E1,8.954321E0,2.4560547E1,1.3617615E1,2.6443553E0,4.6912594E0,4.0496836E0,2.1326233E1,1.6279343E1,0E0,0E0,0E0,0E0,0E0,0E0,0E0,0E0,0E0,0E0,0E0,0E0],"parents":[2147483647,0,0,2,2,3,3,4,4,6,6,7,7,8,8,9,9,10,10,11,11,12,12,13,13,14,14],"right_children":[2,-1,4,6,8,-1,10,12,14,16,18,20,22,24,26,-1,-1,-1,-1,-1,-1,-1,-1,-1,-1,-1,-1],"split_conditions":[1E0,2.5824133E-1,1E0,1.4E-2,3.6363637E-1,-2.3294796E-1,1E0,1E0,1E0,4.5454547E-1,9.090909E-2,2.34E-1,4.4666666E-1,1E0,1.6666667E-1,-1.01841226E-1,-1.7669374E-1,1.6356086E-3,-8.760051E-2,-1.4567575E-1,-5.437333E-2,-2.5853042E-2,5.7330932E-2,-1.6260926E-1,-1.0881419E-1,-1.23051554E-1,-6.517201E-2],"split_indices":[28,0,19,2,34,0,25,24,24,34,33,2,2,21,11,0,0,0,0,0,0,0,0,0,0,0,0],"split_type":[0,0,0,0,0,0,0,0,0,0,0,0,0,0,0,0,0,0,0,0,0,0,0,0,0,0,0],"sum_hessian":[8.95E2,2.96E2,5.99E2,2.07E2,3.92E2,3.6E1,1.71E2,4.3E1,3.49E2,1.62E2,9E0,2.9E1,1.4E1,2.16E2,1.33E2,2.3E1,1.39E2,3E0,6E0,4E0,2.5E1,9E0,5E0,1.2E2,9.6E1,6.4E1,6.9E1],"tree_param":{"num_deleted":"0","num_feature":"62","num_nodes":"27","size_leaf_vector":"1"}},{"base_weights":[-6.621024E-2,2.3761791E-1,-1.5790031E0,-1.7617763E0,-1.0714642E0,-2.114518E0,-1.5219754E0,-1.2738609E0,-6.499577E-1,-1.9303907E0,-2.1206899E-1,-1.7378001E0,-1.1117837E0,-1.4687409E0,-9.7916424E-1,2.1556485E-1,-1.0066713E0,-9.942734E-2,-1.5875275E-1,-6.8165414E-2,-1.4416966E-1,-5.438582E-2,-1.19401425E-1,-1.8188731E-1,-1.0257026E-1,6.9613114E-2,-8.339266E-2,-1.7931353E-2,1.2725765E-1,-1.1457547E-1,-4.225331E-2],"categories":[],"categories_nodes":[],"categories_segments":[],"categories_sizes":[],"default_left":[0,0,0,0,0,0,0,0,0,0,0,0,0,0,0,0,0,0,0,0,0,0,0,0,0,0,0,0,0,0,0],"id":36,"left_children":[1,-1,3,5,7,9,11,13,15,17,-1,19,21,23,25,27,29,-1,-1,-1,-1,-1,-1,-1,-1,-1,-1,-1,-1,-1,-1],"loss_changes":[3.9367224E3,0E0,5.1173584E1,3.222412E1,1.2310028E1,1.1374939E1,2.0465881E1,4.4772186E0,1.6271675E1,2.2876892E0,0E0,7.8077393E0,1.3786949E1,6.0966797E0,6.053261E0,1.0031193E1,6.777294E0,0E0,0E0,0E0,0E0,0E0,0E0,0E0,0E0,0E0,0E0,0E0,0E0,0E0,0E0],"parents":[2147483647,0,0,2,2,3,3,4,4,5,5,6,6,7,7,8,8,9,9,11,11,12,12,13,13,14,14,15,15,16,16],"right_children":[2,-1,4,6,8,10,12,14,16,18,-1,20,22,24,26,28,30,-1,-1,-1,-1,-1,-1,-1,-1,-1,-1,-1,-1,-1,-1],"split_conditions":[1E-1,2.3761791E-1,1E0,1E0,7E-1,1E0,8.5E-1,2.7272728E-1,3E0,4.5454547E-1,-2.1206899E-1,3.6363637E-1,1E0,1E0,1E0,6.8E-1,1E0,-9.942734E-2,-1.5875275E-1,-6.8165414E-2,-1.4416966E-1,-5.438582E-2,-1.19401425E-1,-1.8188731E-1,-1.0257026E-1,6.9613114E-2,-8.339266E-2,-1.7931353E-2,1.2725765E-1,-1.1457547E-1,-4.225331E-2],"split_indices":[9,0,13,19,27,34,27,33,0,34,0,34,29,21,21,9,19,0,0,0,0,0,0,0,0,0,0,0,0,0,0],"split_type":[0,0,0,0,0,0,0,0,0,0,0,0,0,0,0,0,0,0,0,0,0,0,0,0,0,0,0,0,0,0,0],"sum_hessian":[8.55E2,2.84E2,5.71E2,4.18E2,1.53E2,1.66E2,2.52E2,1.02E2,5.1E1,1.27E2,3.9E1,1.63E2,8.9E1,5.9E1,4.3E1,1.5E1,3.6E1,1.1E1,1.16E2,1.2E1,1.51E2,4.3E1,4.6E1,9E0,5E1,1E0,4.2E1,1.2E1,3E0,1.8E1,1.8E1],"tree_param":{"num_deleted":"0","num_feature":"62","num_nodes":"31","size_leaf_vector":"1"}},{"base_weights":[-3.7022002E-2,2.1869622E-1,-1.436652E0,-1.7149596E0,-1.1217473E0,-1.7955427E0,-6.932943E-1,-1.3665365E0,-7.246339E-1,-2.016651E0,-1.4598382E0,-8.070523E-1,2.9762344E-2,-1.690323E0,-1.0492976E0,-8.247024E-1,4.566342E-1,-1.7512622E-1,-1.0953291E-1,-6.281941E-2,-1.2671041E-1,1.83403E-2,-6.938536E-2,-1.5267113E-1,-6.93456E-2,-8.829457E-2,-9.767494E-3,-1.1870746E-1,-5.1968668E-2,-1.0850859E-2,2.0779175E-1],"categories":[],"categories_nodes":[],"categories_segments":[],"categories_sizes":[],"default_left":[0,0,0,0,0,0,0,0,0,0,0,0,0,0,0,0,0,0,0,0,0,0,0,0,0,0,0,0,0,0,0],"id":37,"left_children":[1,-1,3,5,7,9,11,13,15,17,19,21,-1,23,25,27,29,-1,-1,-1,-1,-1,-1,-1,-1,-1,-1,-1,-1,-1,-1],"loss_changes":[3.3855344E3,0E0,4.8907593E1,2.3947876E1,2.5742249E1,1.8062256E1,3.208785E0,1.5585663E1,1.3024815E1,1.5759094E1,8.462936E0,1.5727968E0,0E0,1.3071167E1,4.302704E0,1.0461838E1,1.1763485E1,0E0,0E0,0E0,0E0,0E0,0E0,0E0,0E0,0E0,0E0,0E0,0E0,0E0,0E0],"parents":[2147483647,0,0,2,2,3,3,4,4,5,5,6,6,7,7,8,8,9,9,10,10,11,11,13,13,14,14,15,15,16,16],"right_children":[2,-1,4,6,8,10,12,14,16,18,20,22,-1,24,26,28,30,-1,-1,-1,-1,-1,-1,-1,-1,-1,-1,-1,-1,-1,-1],"split_conditions":[1E-1,2.1869622E-1,1.6666667E-1,1E0,3.8266668E-1,1E0,1E0,9.090909E-2,6.9E-1,1E0,5.4545456E-1,6.5E1,2.9762344E-2,1E0,1E0,1E0,9.586667E-1,-1.7512622E-1,-1.0953291E-1,-6.281941E-2,-1.2671041E-1,1.83403E-2,-6.938536E-2,-1.5267113E-1,-6.93456E-2,-8.829457E-2,-9.767494E-3,-1.1870746E-1,-5.1968668E-2,-1.0850859E-2,2.0779175E-1],"split_indices":[9,0,11,25,2,24,13,36,9,21,34,1,0,24,25,19,2,0,0,0,0,0,0,0,0,0,0,0,0,0,0],"split_type":[0,0,0,0,0,0,0,0,0,0,0,0,0,0,0,0,0,0,0,0,0,0,0,0,0,0,0,0,0,0,0],"sum_hessian":[8.71E2,2.92E2,5.79E2,3.05E2,2.74E2,2.82E2,2.3E1,1.68E2,1.06E2,1.67E2,1.15E2,2.1E1,2E0,8.1E1,8.7E1,9.8E1,8E0,1.3E2,3.7E1,1.9E1,9.6E1,1E0,2E1,6.3E1,1.8E1,8.2E1,5E0,1.9E1,7.9E1,7E0,1E0],"tree_param":{"num_deleted":"0","num_feature":"62","num_nodes":"31","size_leaf_vector":"1"}},{"base_weights":[-3.169951E-2,2.0126256E-1,-1.345608E0,-1.7851312E0,-1.1086879E0,-2.0896525E0,-1.4839743E0,-1.3442912E0,-7.4142414E-1,-2.3586578E0,-1.5969503E0,-1.1731037E0,-2.0544343E0,-1.510937E0,-7.4284166E-1,-3.3967745E-1,-1.0976112E0,-1.9141226E-1,-7.321543E-2,-4.322275E-2,-1.3394359E-1,-6.158475E-2,-1.1192428E-1,-1.7435837E-1,-4.3236922E-2,-1.6944797E-1,-9.739591E-2,-6.799177E-2,1.6137924E-2,-5.64567E-2,2.8631464E-3,-9.941772E-2,-1.5675506E-2],"categories":[],"categories_nodes":[],"categories_segments":[],"categories_sizes":[],"default_left":[0,0,0,0,0,0,0,0,0,0,0,0,0,0,0,0,0,0,0,0,0,0,0,0,0,0,0,0,0,0,0,0,0],"id":38,"left_children":[1,-1,3,5,7,9,11,13,15,17,19,21,23,25,27,29,31,-1,-1,-1,-1,-1,-1,-1,-1,-1,-1,-1,-1,-1,-1,-1,-1],"loss_changes":[2.8919824E3,0E0,5.73761E1,1.5057312E1,3.1278473E1,8.957153E0,1.5855881E1,2.1529358E1,2.0805504E1,7.545166E-1,2.119316E0,5.2105713E0,5.448105E0,2.878363E1,5.3286114E0,9.782972E0,9.962128E0,0E0,0E0,0E0,0E0,0E0,0E0,0E0,0E0,0E0,0E0,0E0,0E0,0E0,0E0,0E0,0E0],"parents":[2147483647,0,0,2,2,3,3,4,4,5,5,6,6,7,7,8,8,9,9,10,10,11,11,12,12,13,13,14,14,15,15,16,16],"right_children":[2,-1,4,6,8,10,12,14,16,18,20,22,24,26,28,30,32,-1,-1,-1,-1,-1,-1,-1,-1,-1,-1,-1,-1,-1,-1,-1,-1],"split_conditions":[1E-1,2.0126256E-1,1E0,6.25E-1,5.5E-1,1E0,1E0,1E0,7.2727275E-1,1E0,4.6E-1,9.0909094E-1,1E0,4.5454547E-2,1E0,5.3466666E-1,1E0,-1.9141226E-1,-7.321543E-2,-4.322275E-2,-1.3394359E-1,-6.158475E-2,-1.1192428E-1,-1.7435837E-1,-4.3236922E-2,-1.6944797E-1,-9.739591E-2,-6.799177E-2,1.6137924E-2,-5.64567E-2,2.8631464E-3,-9.941772E-2,-1.5675506E-2],"split_indices":[9,0,19,27,27,24,29,20,34,25,9,34,25,36,24,2,13,0,0,0,0,0,0,0,0,0,0,0,0,0,0,0,0],"split_type":[0,0,0,0,0,0,0,0,0,0,0,0,0,0,0,0,0,0,0,0,0,0,0,0,0,0,0,0,0,0,0,0,0],"sum_hessian":[8.62E2,2.93E2,5.69E2,1.97E2,3.72E2,9.5E1,1.02E2,2.25E2,1.47E2,5.9E1,3.6E1,6.8E1,3.4E1,1.75E2,5E1,7E1,7.7E1,5.7E1,2E0,3E0,3.3E1,2.6E1,4.2E1,3.1E1,3E0,5.5E1,1.2E2,4.5E1,5E0,3.5E1,3.5E1,6.6E1,1.1E1],"tree_param":{"num_deleted":"0","num_feature":"62","num_nodes":"33","size_leaf_vector":"1"}},{"base_weights":[-1.31413415E-2,1.8518226E-1,-1.2248511E0,-1.616885E0,-1.0204145E0,-1.4409442E0,-2.0650318E0,-1.234553E0,-6.7877084E-1,-8.749628E-2,-1.4927251E0,-2.1739514E0,3.2972145E-1,-1.4846143E0,-7.7894425E-1,-8.672512E-1,3.494943E-2,8.0652505E-2,-1.2153607E-1,-1.265062E-1,-7.919329E-2,-4.566486E-2,-1.7571147E-1,3.1753235E-2,7.813339E-3,-1.2816286E-1,-5.646836E-2,-8.222035E-2,-3.3552684E-2,-2.4454428E-2,-8.097591E-2,4.6462882E-2,-2.4930315E-2],"categories":[],"categories_nodes":[],"categories_segments":[],"categories_sizes":[],"default_left":[0,0,0,0,0,0,0,0,0,0,0,0,0,0,0,0,0,0,0,0,0,0,0,0,0,0,0,0,0,0,0,0,0],"id":39,"left_children":[1,-1,3,5,7,9,11,13,15,17,19,21,23,25,27,29,31,-1,-1,-1,-1,-1,-1,-1,-1,-1,-1,-1,-1,-1,-1,-1,-1],"loss_changes":[2.2989363E3,0E0,4.130841E1,1.1374634E1,2.5133453E1,9.260468E0,1.3497742E1,2.3566437E1,1.8728905E1,1.0943498E1,4.1815796E0,4.372406E-1,8.012563E-3,1.1579803E1,6.6359825E0,8.644409E0,5.856245E0,0E0,0E0,0E0,0E0,0E0,0E0,0E0,0E0,0E0,0E0,0E0,0E0,0E0,0E0,0E0,0E0],"parents":[2147483647,0,0,2,2,3,3,4,4,5,5,6,6,7,7,8,8,9,9,10,10,11,11,12,12,13,13,14,14,15,15,16,16],"right_children":[2,-1,4,6,8,10,12,14,16,18,20,22,24,26,28,30,32,-1,-1,-1,-1,-1,-1,-1,-1,-1,-1,-1,-1,-1,-1,-1,-1],"split_conditions":[1E-1,1.8518226E-1,1E0,1E0,1E0,4.5454547E-2,1E0,1.8181819E-1,1E0,1.6666667E-1,1.25E-1,3.7E-1,5E0,3.6363637E-1,1E0,5.4545456E-1,4.5454547E-2,8.0652505E-2,-1.2153607E-1,-1.265062E-1,-7.919329E-2,-4.566486E-2,-1.7571147E-1,3.1753235E-2,7.813339E-3,-1.2816286E-1,-5.646836E-2,-8.222035E-2,-3.3552684E-2,-2.4454428E-2,-8.097591E-2,4.6462882E-2,-2.4930315E-2],"split_indices":[9,0,19,34,24,36,25,35,13,11,4,9,0,33,21,34,36,0,0,0,0,0,0,0,0,0,0,0,0,0,0,0,0],"split_type":[0,0,0,0,0,0,0,0,0,0,0,0,0,0,0,0,0,0,0,0,0,0,0,0,0,0,0,0,0,0,0,0,0],"sum_hessian":[8.13E2,2.78E2,5.35E2,1.81E2,3.54E2,1.33E2,4.8E1,2.16E2,1.38E2,5E0,1.28E2,4.6E1,2E0,1.38E2,7.8E1,1.09E2,2.9E1,3E0,2E0,1.07E2,2.1E1,1E0,4.5E1,1E0,1E0,1.19E2,1.9E1,4.5E1,3.3E1,2.3E1,8.6E1,1.1E1,1.8E1],"tree_param":{"num_deleted":"0","num_feature":"62","num_nodes":"33","size_leaf_vector":"1"}},{"base_weights":[-3.143962E-2,1.7044006E-1,-1.108615E0,-1.4791695E0,-8.716776E-1,-1.918638E0,-1.2450838E0,-3.092692E-1,-9.715473E-1,2.422371E-2,-1.9522945E0,-1.2983241E0,-3.7521046E-1,-1.220405E0,-1.937475E-1,-1.1632146E0,-6.847181E-1,-1.03995234E-1,-1.6749738E-1,-1.126453E-1,-8.144165E-2,-6.4678065E-2,3.8703282E-3,-2.9425556E-2,-1.2437943E-1,3.3639908E-2,-3.1902865E-2,-9.705561E-2,-6.7471145E-3,-7.913811E-2,-2.321993E-2],"categories":[],"categories_nodes":[],"categories_segments":[],"categories_sizes":[],"default_left":[0,0,0,0,0,0,0,0,0,0,0,0,0,0,0,0,0,0,0,0,0,0,0,0,0,0,0,0,0,0,0],"id":40,"left_children":[1,-1,3,5,7,9,11,13,15,-1,17,19,21,23,25,27,29,-1,-1,-1,-1,-1,-1,-1,-1,-1,-1,-1,-1,-1,-1],"loss_changes":[2.0167645E3,0E0,4.945807E1,2.0654785E1,1.9639008E1,6.2733154E0,6.413376E0,5.5526266E0,1.5751251E1,0E0,4.197632E0,2.8731232E0,1.8743806E0,1.1384449E0,6.4648905E0,9.54985E0,1.4487522E1,0E0,0E0,0E0,0E0,0E0,0E0,0E0,0E0,0E0,0E0,0E0,0E0,0E0,0E0],"parents":[2147483647,0,0,2,2,3,3,4,4,5,5,6,6,7,7,8,8,10,10,11,11,12,12,13,13,14,14,15,15,16,16],"right_children":[2,-1,4,6,8,10,12,14,16,-1,18,20,22,24,26,28,30,-1,-1,-1,-1,-1,-1,-1,-1,-1,-1,-1,-1,-1,-1],"split_conditions":[1E-1,1.7044006E-1,1.58E-1,4.5454547E-2,3.6363637E-1,3.6363637E-1,1E0,2.68E-1,1E0,2.422371E-2,7.2E-1,1.6666667E-1,1E0,5.8E-1,4.5454547E-2,1E0,1.6666667E-1,-1.03995234E-1,-1.6749738E-1,-1.126453E-1,-8.144165E-2,-6.4678065E-2,3.8703282E-3,-2.9425556E-2,-1.2437943E-1,3.3639908E-2,-3.1902865E-2,-9.705561E-2,-6.7471145E-3,-7.913811E-2,-2.321993E-2],"split_indices":[9,0,2,36,34,34,25,2,24,0,9,11,24,9,36,25,11,0,0,0,0,0,0,0,0,0,0,0,0,0,0],"split_type":[0,0,0,0,0,0,0,0,0,0,0,0,0,0,0,0,0,0,0,0,0,0,0,0,0,0,0,0,0,0,0],"sum_hessian":[8.64E2,2.87E2,5.77E2,2.23E2,3.54E2,7.5E1,1.48E2,5.4E1,3E2,1E0,7.4E1,1.39E2,9E0,5E0,4.9E1,1.78E2,1.22E2,1.5E1,5.9E1,9.7E1,4.2E1,4E0,5E0,2E0,3E0,1.2E1,3.7E1,1.7E2,8E0,6.8E1,5.4E1],"tree_param":{"num_deleted":"0","num_feature":"62","num_nodes":"31","size_leaf_vector":"1"}},{"base_weights":[-1.150615E-2,1.5685593E-1,-1.0113803E0,-1.2391468E0,-7.4839455E-1,-1.1024833E0,-1.7081536E0,-9.878598E-1,-3.4899184E-1,-1.1540961E0,-3.1099796E-1,3.0752983E-2,-1.7456836E0,-1.1019657E0,-3.8204956E-1,-8.6347896E-1,-1.9671439E-1,-1.0076E-1,-5.449028E-2,-5.431172E-2,-1.7895355E-3,-1.4925706E-1,-8.902521E-2,-9.073991E-2,2.2338295E-2,-4.746008E-2,-1.3723894E-4,-8.924013E-2,2.920195E-3,-3.4799818E-2,1.8986845E-2],"categories":[],"categories_nodes":[],"categories_segments":[],"categories_sizes":[],"default_left":[0,0,0,0,0,0,0,0,0,0,0,0,0,0,0,0,0,0,0,0,0,0,0,0,0,0,0,0,0,0,0],"id":41,"left_children":[1,-1,3,5,7,9,11,13,15,17,19,-1,21,23,25,27,29,-1,-1,-1,-1,-1,-1,-1,-1,-1,-1,-1,-1,-1,-1],"loss_changes":[1.699838E3,0E0,3.3335083E1,1.7666107E1,2.5287598E1,9.404419E0,5.932846E0,1.1123123E1,7.821308E0,1.0309113E1,1.683791E0,0E0,2.9373627E0,6.55925E0,2.2481408E0,5.2574806E0,8.377391E0,0E0,0E0,0E0,0E0,0E0,0E0,0E0,0E0,0E0,0E0,0E0,0E0,0E0,0E0],"parents":[2147483647,0,0,2,2,3,3,4,4,5,5,6,6,7,7,8,8,9,9,10,10,12,12,13,13,14,14,15,15,16,16],"right_children":[2,-1,4,6,8,10,12,14,16,18,20,-1,22,24,26,28,30,-1,-1,-1,-1,-1,-1,-1,-1,-1,-1,-1,-1,-1,-1],"split_conditions":[1E-1,1.5685593E-1,1.6666667E-1,1E0,5.5E-1,1E0,3.1E-1,3.6363637E-1,1E0,1E0,4.75E-1,3.0752983E-2,2.5E-1,1E0,1E0,6.7E-1,1E0,-1.0076E-1,-5.449028E-2,-5.431172E-2,-1.7895355E-3,-1.4925706E-1,-8.902521E-2,-9.073991E-2,2.2338295E-2,-4.746008E-2,-1.3723894E-4,-8.924013E-2,2.920195E-3,-3.4799818E-2,1.8986845E-2],"split_indices":[9,0,11,34,27,25,9,35,19,13,27,0,4,25,13,9,13,0,0,0,0,0,0,0,0,0,0,0,0,0,0],"split_type":[0,0,0,0,0,0,0,0,0,0,0,0,0,0,0,0,0,0,0,0,0,0,0,0,0,0,0,0,0,0,0],"sum_hessian":[8.6E2,2.89E2,5.71E2,3.04E2,2.67E2,2.38E2,6.6E1,1.66E2,1.01E2,2.23E2,1.5E1,1E0,6.5E1,1.39E2,2.7E1,2.2E1,7.9E1,1.81E2,4.2E1,6E0,9E0,5.3E1,1.2E1,1.36E2,3E0,1.7E1,1E1,1.7E1,5E0,5.1E1,2.8E1],"tree_param":{"num_deleted":"0","num_feature":"62","num_nodes":"31","size_leaf_vector":"1"}},{"base_weights":[-2.8342517E-2,1.4435269E-1,-9.59062E-1,-1.2002764E0,-6.820009E-1,-1.3303262E0,-7.9791677E-1,-7.404346E-1,2.2774744E-1,-1.1724106E0,-1.7367696E0,-9.707903E-1,-4.4182533E-1,-9.276664E-1,-4.2456928E-1,1.06517315E-1,7.5798225E-1,-9.760364E-2,7.798985E-3,-1.4154005E-1,-4.065786E-2,-8.832999E-2,-4.880905E-2,-5.422018E-2,-2.9636037E-3,-1.04289845E-1,-6.014092E-2,-5.3423397E-2,-5.388958E-3,4.0794943E-2,-2.9465833E-3,7.874329E-2,1.2214584E-2],"categories":[],"categories_nodes":[],"categories_segments":[],"categories_sizes":[],"default_left":[0,0,0,0,0,0,0,0,0,0,0,0,0,0,0,0,0,0,0,0,0,0,0,0,0,0,0,0,0,0,0,0,0],"id":42,"left_children":[1,-1,3,5,7,9,11,13,15,17,19,21,23,25,27,29,31,-1,-1,-1,-1,-1,-1,-1,-1,-1,-1,-1,-1,-1,-1,-1,-1],"loss_changes":[1.4738163E3,0E0,3.7475647E1,1.4898193E1,1.4468658E1,1.2661835E1,4.3111115E0,1.4568573E1,1.0120292E0,1.0281509E1,1.5749207E0,1.7789879E0,2.5533543E0,9.468948E0,8.295601E0,8.8623255E-1,2.606703E-1,0E0,0E0,0E0,0E0,0E0,0E0,0E0,0E0,0E0,0E0,0E0,0E0,0E0,0E0,0E0,0E0],"parents":[2147483647,0,0,2,2,3,3,4,4,5,5,6,6,7,7,8,8,9,9,10,10,11,11,12,12,13,13,14,14,15,15,16,16],"right_children":[2,-1,4,6,8,10,12,14,16,18,20,22,24,26,28,30,32,-1,-1,-1,-1,-1,-1,-1,-1,-1,-1,-1,-1,-1,-1,-1,-1],"split_conditions":[1E-1,1.4435269E-1,1.6666667E-1,4.6133333E-1,1E0,1E0,1.25E-1,1E0,1E0,8.75E-1,5E-1,2.7272728E-1,1.8181819E-1,9.090909E-2,5E-1,3.3E-1,6E0,-9.760364E-2,7.798985E-3,-1.4154005E-1,-4.065786E-2,-8.832999E-2,-4.880905E-2,-5.422018E-2,-2.9636037E-3,-1.04289845E-1,-6.014092E-2,-5.3423397E-2,-5.388958E-3,4.0794943E-2,-2.9465833E-3,7.874329E-2,1.2214584E-2],"split_indices":[9,0,11,2,25,34,4,13,13,4,4,35,35,35,27,9,0,0,0,0,0,0,0,0,0,0,0,0,0,0,0,0,0],"split_type":[0,0,0,0,0,0,0,0,0,0,0,0,0,0,0,0,0,0,0,0,0,0,0,0,0,0,0,0,0,0,0,0,0],"sum_hessian":[8.62E2,2.9E2,5.72E2,3.04E2,2.68E2,2.28E2,7.6E1,2.52E2,1.6E1,1.67E2,6.1E1,5E1,2.6E1,1.57E2,9.5E1,1.4E1,2E0,1.61E2,6E0,5.9E1,2E0,3.5E1,1.5E1,1.6E1,1E1,4.8E1,1.09E2,5.6E1,3.9E1,3E0,1.1E1,1E0,1E0],"tree_param":{"num_deleted":"0","num_feature":"62","num_nodes":"33","size_leaf_vector":"1"}},{"base_weights":[-5.623708E-2,1.3282421E-1,-8.7479836E-1,-9.6934056E-1,-3.4404588E-1,-1.2010303E0,-6.4276534E-1,-4.6060938E-1,5.349657E-1,-1.5799823E0,-1.0073167E0,-8.6603576E-1,-4.3597862E-1,-6.0071576E-1,-1.9350104E-1,1.2021383E-1,1.2807195E-1,-1.4665702E-1,-3.0464368E-2,-9.941978E-2,-6.620471E-2,-7.5087875E-2,6.135206E-3,4.4066724E-3,-4.2106796E-2,-5.3116176E-2,1.0119781E-2,-8.7748796E-2,-9.765172E-3,3.2947082E-2,-4.8025206E-2],"categories":[],"categories_nodes":[],"categories_segments":[],"categories_sizes":[],"default_left":[0,0,0,0,0,0,0,0,0,0,0,0,0,0,0,0,0,0,0,0,0,0,0,0,0,0,0,0,0,0,0],"id":43,"left_children":[1,-1,3,5,7,9,11,13,15,17,19,21,23,25,27,29,-1,-1,-1,-1,-1,-1,-1,-1,-1,-1,-1,-1,-1,-1,-1],"loss_changes":[1.2140476E3,0E0,2.9020935E1,3.6757416E1,9.467872E0,1.9623413E1,9.225647E0,2.8776474E0,4.670627E0,2.8454086E1,7.181717E0,6.844246E0,4.909754E0,2.4752789E0,1.7375604E0,2.1383493E0,0E0,0E0,0E0,0E0,0E0,0E0,0E0,0E0,0E0,0E0,0E0,0E0,0E0,0E0,0E0],"parents":[2147483647,0,0,2,2,3,3,4,4,5,5,6,6,7,7,8,8,9,9,10,10,11,11,12,12,13,13,14,14,15,15],"right_children":[2,-1,4,6,8,10,12,14,16,18,20,22,24,26,28,30,-1,-1,-1,-1,-1,-1,-1,-1,-1,-1,-1,-1,-1,-1,-1],"split_conditions":[2.5E-2,1.3282421E-1,1E0,1E0,1E0,4.5454547E-2,4.25E-1,1.8181819E-1,4.0466666E-1,4.7066668E-1,1E0,7.5E-1,4.5454547E-2,4.5454547E-1,1E0,7E0,1.2807195E-1,-1.4665702E-1,-3.0464368E-2,-9.941978E-2,-6.620471E-2,-7.5087875E-2,6.135206E-3,4.4066724E-3,-4.2106796E-2,-5.3116176E-2,1.0119781E-2,-8.7748796E-2,-9.765172E-3,3.2947082E-2,-4.8025206E-2],"split_indices":[27,0,20,24,24,36,27,35,2,2,19,4,36,33,19,0,0,0,0,0,0,0,0,0,0,0,0,0,0,0,0],"split_type":[0,0,0,0,0,0,0,0,0,0,0,0,0,0,0,0,0,0,0,0,0,0,0,0,0,0,0,0,0,0,0],"sum_hessian":[8.62E2,2.78E2,5.84E2,4.95E2,8.9E1,2.88E2,2.07E2,7.9E1,1E1,9.5E1,1.93E2,9.8E1,1.09E2,5.1E1,2.8E1,8E0,2E0,7.8E1,1.7E1,8.1E1,1.12E2,9.1E1,7E0,1.7E1,9.2E1,4.7E1,4E0,1E0,2.7E1,6E0,2E0],"tree_param":{"num_deleted":"0","num_feature":"62","num_nodes":"31","size_leaf_vector":"1"}},{"base_weights":[-2.3794424E-2,1.222329E-1,-7.94043E-1,-1.0904188E0,-6.25424E-1,-1.1426266E0,-8.4773846E-2,-8.025878E-1,-3.0470237E-1,-1.0176493E0,-1.4657477E0,8.197174E-1,-5.2642274E-1,-9.279863E-1,-4.9654225E-1,-3.7597284E-1,1.5380003E0,-5.193192E-3,-8.476097E-2,-1.2464078E-1,-6.896632E-2,2.0068016E-2,7.405785E-2,-8.742828E-3,-6.038785E-2,-7.781368E-2,4.3021394E-3,-5.2599855E-2,-3.1781936E-4,-9.561063E-3,-5.0771296E-2,-1.6371917E-3,1.5461862E-1],"categories":[],"categories_nodes":[],"categories_segments":[],"categories_sizes":[],"default_left":[0,0,0,0,0,0,0,0,0,0,0,0,0,0,0,0,0,0,0,0,0,0,0,0,0,0,0,0,0,0,0,0,0],"id":44,"left_children":[1,-1,3,5,7,9,11,13,15,17,19,21,23,25,27,29,31,-1,-1,-1,-1,-1,-1,-1,-1,-1,-1,-1,-1,-1,-1,-1,-1],"loss_changes":[9.980094E2,0E0,2.7203857E1,1.0456116E1,2.0097107E1,6.2214966E0,4.825661E0,8.366074E0,1.7519855E1,5.554901E0,1.497345E0,8.994818E-3,6.797843E-1,7.15921E0,5.467844E0,8.216398E0,3.1154375E0,0E0,0E0,0E0,0E0,0E0,0E0,0E0,0E0,0E0,0E0,0E0,0E0,0E0,0E0,0E0,0E0],"parents":[2147483647,0,0,2,2,3,3,4,4,5,5,6,6,7,7,8,8,9,9,10,10,11,11,12,12,13,13,14,14,15,15,16,16],"right_children":[2,-1,4,6,8,10,12,14,16,18,20,22,24,26,28,30,32,-1,-1,-1,-1,-1,-1,-1,-1,-1,-1,-1,-1,-1,-1,-1,-1],"split_conditions":[1E-1,1.222329E-1,1E0,1E0,4.3866667E-1,1E0,4.5454547E-2,1E0,6.7E-1,4.5454547E-2,1E0,5.8666665E-2,7.6E-1,1E0,7.9E-1,7.2727275E-1,2E0,-5.193192E-3,-8.476097E-2,-1.2464078E-1,-6.896632E-2,2.0068016E-2,7.405785E-2,-8.742828E-3,-6.038785E-2,-7.781368E-2,4.3021394E-3,-5.2599855E-2,-3.1781936E-4,-9.561063E-3,-5.0771296E-2,-1.6371917E-3,1.5461862E-1],"split_indices":[9,0,19,25,2,34,36,13,9,36,21,2,9,25,9,34,0,0,0,0,0,0,0,0,0,0,0,0,0,0,0,0,0],"split_type":[0,0,0,0,0,0,0,0,0,0,0,0,0,0,0,0,0,0,0,0,0,0,0,0,0,0,0,0,0,0,0,0,0],"sum_hessian":[8.33E2,2.76E2,5.57E2,2E2,3.57E2,1.9E2,1E1,2.29E2,1.28E2,1.4E2,5E1,3E0,7E0,1.61E2,6.8E1,1.24E2,4E0,6E0,1.34E2,4.2E1,8E0,1E0,2E0,3E0,4E0,1.54E2,7E0,5.1E1,1.7E1,6.3E1,6.1E1,1E0,3E0],"tree_param":{"num_deleted":"0","num_feature":"62","num_nodes":"33","size_leaf_vector":"1"}},{"base_weights":[-3.010935E-2,1.4028804E0,-7.680334E-1,1.1250937E-1,1.5529861E-2,-1.0638709E0,-6.064081E-1,-9.4379276E-1,-1.339513E0,-7.387892E-1,-1.8781798E-1,-1.1387212E0,-7.8293645E-1,-1.4232862E0,-7.9507244E-1,-9.432545E-1,-4.9902907E-1,-2.4626286E-1,1.5891718E0,-1.0189733E-1,-5.6516487E-2,-3.9300263E-2,-9.9003695E-2,-1.2201803E-1,-6.98561E-2,-7.495428E-2,1.9265288E-2,-8.524688E-2,-4.0869016E-2,-5.022782E-2,-1.5221627E-2,-4.150994E-2,1.1138452E-3,-1.5717315E-3,1.9227234E-1],"categories":[],"categories_nodes":[],"categories_segments":[],"categories_sizes":[],"default_left":[0,0,0,0,0,0,0,0,0,0,0,0,0,0,0,0,0,0,0,0,0,0,0,0,0,0,0,0,0,0,0,0,0,0,0],"id":45,"left_children":[1,3,5,-1,-1,7,9,11,13,15,17,19,21,23,25,27,29,31,33,-1,-1,-1,-1,-1,-1,-1,-1,-1,-1,-1,-1,-1,-1,-1,-1],"loss_changes":[9.083589E2,9.576416E-1,2.6465881E1,0E0,0E0,5.3223724E0,2.0308792E1,3.5609436E0,1.5137405E0,1.3255646E1,9.738393E0,2.7181168E0,1.0132816E1,1.415863E0,1.6950979E0,7.3898926E0,5.0909195E0,6.2490335E0,3.977075E0,0E0,0E0,0E0,0E0,0E0,0E0,0E0,0E0,0E0,0E0,0E0,0E0,0E0,0E0,0E0,0E0],"parents":[2147483647,0,0,1,1,2,2,5,5,6,6,7,7,8,8,9,9,10,10,11,11,12,12,13,13,14,14,15,15,16,16,17,17,18,18],"right_children":[2,4,6,-1,-1,8,10,12,14,16,18,20,22,24,26,28,30,32,34,-1,-1,-1,-1,-1,-1,-1,-1,-1,-1,-1,-1,-1,-1,-1,-1],"split_conditions":[2.1E-1,1.3333333E-3,1E0,1.1250937E-1,1.5529861E-2,1E0,6.5066665E-1,6E-1,2.5E-1,1.8181819E-1,6.7E-1,1.25E-1,1E0,1E0,2.2E-2,1E0,1E0,1.6666667E-1,2E0,-1.0189733E-1,-5.6516487E-2,-3.9300263E-2,-9.9003695E-2,-1.2201803E-1,-6.98561E-2,-7.495428E-2,1.9265288E-2,-8.524688E-2,-4.0869016E-2,-5.022782E-2,-1.5221627E-2,-4.150994E-2,1.1138452E-3,-1.5717315E-3,1.9227234E-1],"split_indices":[9,2,19,0,0,34,2,27,4,35,9,4,29,21,2,24,13,11,0,0,0,0,0,0,0,0,0,0,0,0,0,0,0,0,0],"split_type":[0,0,0,0,0,0,0,0,0,0,0,0,0,0,0,0,0,0,0,0,0,0,0,0,0,0,0,0,0,0,0,0,0,0,0],"sum_hessian":[8.57E2,2.91E2,5.66E2,2.9E2,1E0,1.98E2,3.68E2,1.41E2,5.7E1,2.79E2,8.9E1,6.1E1,8E1,4.8E1,9E0,1.49E2,1.3E2,8.7E1,2E0,4.5E1,1.6E1,5E1,3E1,3.9E1,9E0,8E0,1E0,1.15E2,3.4E1,9.1E1,3.9E1,4.2E1,4.5E1,1E0,1E0],"tree_param":{"num_deleted":"0","num_feature":"62","num_nodes":"35","size_leaf_vector":"1"}},{"base_weights":[-5.2117802E-2,1.0352409E-1,-6.853877E-1,-7.600009E-1,-1.903091E-1,-8.245445E-1,2.706765E-2,7.566056E-1,-2.6451424E-1,-2.1016763E-1,-8.773667E-1,-4.412368E-1,1.3977577E-1,1.0727623E-1,-2.1978073E-2,-2.1128583E-1,-8.325553E-1,-5.1220506E-2,1.2102095E-2,-8.035228E-2,-4.7274027E-2,-4.47277E-2,1.5351181E-2,7.792572E-2,6.661143E-3,4.6320963E-3,-2.2970578E-2,-1.1249937E-1,1.6790314E-2],"categories":[],"categories_nodes":[],"categories_segments":[],"categories_sizes":[],"default_left":[0,0,0,0,0,0,0,0,0,0,0,0,0,0,0,0,0,0,0,0,0,0,0,0,0,0,0,0,0],"id":46,"left_children":[1,-1,3,5,7,9,11,13,15,17,19,21,23,-1,-1,25,27,-1,-1,-1,-1,-1,-1,-1,-1,-1,-1,-1,-1],"loss_changes":[7.4340424E2,0E0,2.1760437E1,2.6184418E1,5.7511415E0,1.5263123E1,2.1729426E0,3.9843287E0,2.061551E0,6.159519E0,1.5344696E1,7.042445E-1,1.4747549E0,0E0,0E0,1.4253893E0,3.8833256E0,0E0,0E0,0E0,0E0,0E0,0E0,0E0,0E0,0E0,0E0,0E0,0E0],"parents":[2147483647,0,0,2,2,3,3,4,4,5,5,6,6,7,7,8,8,9,9,10,10,11,11,12,12,15,15,16,16],"right_children":[2,-1,4,6,8,10,12,14,16,18,20,22,24,-1,-1,26,28,-1,-1,-1,-1,-1,-1,-1,-1,-1,-1,-1,-1],"split_conditions":[1E-1,1.0352409E-1,1E0,1E0,1E0,3.6363637E-1,2.25E-1,9.090909E-2,8.4E-1,5E-1,1.25E-1,9.6E-1,3.5E-1,1.0727623E-1,-2.1978073E-2,3.6363637E-1,9.7E-1,-5.1220506E-2,1.2102095E-2,-8.035228E-2,-4.7274027E-2,-4.47277E-2,1.5351181E-2,7.792572E-2,6.661143E-3,4.6320963E-3,-2.2970578E-2,-1.1249937E-1,1.6790314E-2],"split_indices":[9,0,20,25,21,34,27,35,9,27,4,9,27,0,0,34,9,0,0,0,0,0,0,0,0,0,0,0,0],"split_type":[0,0,0,0,0,0,0,0,0,0,0,0,0,0,0,0,0,0,0,0,0,0,0,0,0,0,0,0,0],"sum_hessian":[8.7E2,2.78E2,5.92E2,5.14E2,7.8E1,4.75E2,3.9E1,5E0,7.3E1,3.8E1,4.37E2,7E0,3.2E1,3E0,2E0,6.8E1,5E0,1.7E1,2.1E1,3.01E2,1.36E2,6E0,1E0,1E0,3.1E1,1.5E1,5.3E1,3E0,2E0],"tree_param":{"num_deleted":"0","num_feature":"62","num_nodes":"29","size_leaf_vector":"1"}},{"base_weights":[-3.184547E-2,9.528263E-2,-6.453596E-1,-8.110253E-1,-3.7110263E-1,-9.6257514E-1,-5.184957E-1,-4.8726064E-1,7.3819846E-2,-1.3139238E0,-8.0768424E-1,-2.2482792E-1,-7.274664E-1,-5.64088E-1,9.568446E-2,1.0333211E0,-2.9521948E-1,-1.1401322E-1,3.337982E-2,-8.4291525E-2,-5.0645456E-2,-5.2865487E-2,-7.5924885E-3,-7.4760035E-2,-3.2517496E-2,-8.466831E-3,-5.29156E-2,2.1803612E-2,-3.1351317E-2,1.0655769E-1,-3.249354E-2,-6.929545E-2,7.959017E-3],"categories":[],"categories_nodes":[],"categories_segments":[],"categories_sizes":[],"default_left":[0,0,0,0,0,0,0,0,0,0,0,0,0,0,0,0,0,0,0,0,0,0,0,0,0,0,0,0,0,0,0,0,0],"id":47,"left_children":[1,-1,3,5,7,9,11,13,15,17,19,21,23,25,27,29,31,-1,-1,-1,-1,-1,-1,-1,-1,-1,-1,-1,-1,-1,-1,-1,-1],"loss_changes":[6.467366E2,0E0,2.5778702E1,1.5327713E1,1.1302494E1,1.1673218E1,7.4460754E0,7.8019753E0,1.6593367E1,1.4075111E1,6.4194717E0,2.9394534E0,4.4050903E0,6.7559547E0,1.9177016E0,6.129756E0,7.748668E0,0E0,0E0,0E0,0E0,0E0,0E0,0E0,0E0,0E0,0E0,0E0,0E0,0E0,0E0,0E0,0E0],"parents":[2147483647,0,0,2,2,3,3,4,4,5,5,6,6,7,7,8,8,9,9,10,10,11,11,12,12,13,13,14,14,15,15,16,16],"right_children":[2,-1,4,6,8,10,12,14,16,18,20,22,24,26,28,30,32,-1,-1,-1,-1,-1,-1,-1,-1,-1,-1,-1,-1,-1,-1,-1,-1],"split_conditions":[1E-1,9.528263E-2,1E0,1E0,1E0,4.5454547E-2,6.1E-1,1E0,4.5454547E-2,1E0,3.5E-1,4.4E-1,4.5454547E-2,5.4545456E-1,1E0,1E0,1E0,-1.1401322E-1,3.337982E-2,-8.4291525E-2,-5.0645456E-2,-5.2865487E-2,-7.5924885E-3,-7.4760035E-2,-3.2517496E-2,-8.466831E-3,-5.29156E-2,2.1803612E-2,-3.1351317E-2,1.0655769E-1,-3.249354E-2,-6.929545E-2,7.959017E-3],"split_indices":[9,0,24,21,13,36,9,25,36,25,27,9,36,34,34,16,19,0,0,0,0,0,0,0,0,0,0,0,0,0,0,0,0],"split_type":[0,0,0,0,0,0,0,0,0,0,0,0,0,0,0,0,0,0,0,0,0,0,0,0,0,0,0,0,0,0,0,0,0],"sum_hessian":[8.6E2,2.87E2,5.73E2,3.56E2,2.17E2,2.33E2,1.23E2,1.72E2,4.5E1,6.9E1,1.64E2,5.2E1,7.1E1,1.52E2,2E1,1.2E1,3.3E1,6.5E1,4E0,6.6E1,9.8E1,1.1E1,4.1E1,4.2E1,2.9E1,2.7E1,1.25E2,1.5E1,5E0,1E1,2E0,1.3E1,2E1],"tree_param":{"num_deleted":"0","num_feature":"62","num_nodes":"33","size_leaf_vector":"1"}},{"base_weights":[-1.1433353E-2,8.768852E-2,-5.719484E-1,-7.3432535E-1,-3.041588E-1,-8.881233E-1,-4.0429562E-1,-2.170284E-2,-4.5214826E-1,-1.2992737E0,-7.265596E-1,-5.961765E-1,-1.24041505E-1,1.047241E0,-1.8092278E-1,-5.103961E-1,7.892653E-2,-1.1066982E-1,1.6183014E-3,-7.480211E-2,-4.4701967E-2,-5.6834273E-2,-3.038915E-4,-2.7015308E-2,2.206442E-3,2.4768447E-3,1.1826935E-1,-4.2745434E-2,-4.0065655E-3,-4.7338214E-2,-3.0042226E-3,1.5487774E-2,-1.5130737E-2],"categories":[],"categories_nodes":[],"categories_segments":[],"categories_sizes":[],"default_left":[0,0,0,0,0,0,0,0,0,0,0,0,0,0,0,0,0,0,0,0,0,0,0,0,0,0,0,0,0,0,0,0,0],"id":48,"left_children":[1,-1,3,5,7,9,11,13,15,17,19,21,23,25,27,29,31,-1,-1,-1,-1,-1,-1,-1,-1,-1,-1,-1,-1,-1,-1,-1,-1],"loss_changes":[5.3575037E2,0E0,2.4692322E1,1.771074E1,9.102699E0,1.5131332E1,6.11022E0,1.3124455E1,4.4638405E0,7.4628983E0,5.6335907E0,4.5995617E0,1.5642271E0,4.3356752E0,3.0712178E0,4.9387436E0,4.9769634E-1,0E0,0E0,0E0,0E0,0E0,0E0,0E0,0E0,0E0,0E0,0E0,0E0,0E0,0E0,0E0,0E0],"parents":[2147483647,0,0,2,2,3,3,4,4,5,5,6,6,7,7,8,8,9,9,10,10,11,11,12,12,13,13,14,14,15,15,16,16],"right_children":[2,-1,4,6,8,10,12,14,16,18,20,22,24,26,28,30,32,-1,-1,-1,-1,-1,-1,-1,-1,-1,-1,-1,-1,-1,-1,-1,-1],"split_conditions":[2.5E-2,8.768852E-2,1E0,1E0,6.363636E-1,4.5454547E-2,4.5454547E-2,9.090909E-2,5E-1,1E0,1E0,4.5454547E-1,1.6666667E-1,1.5E-1,1E0,1E0,1E0,-1.1066982E-1,1.6183014E-3,-7.480211E-2,-4.4701967E-2,-5.6834273E-2,-3.038915E-4,-2.7015308E-2,2.206442E-3,2.4768447E-3,1.1826935E-1,-4.2745434E-2,-4.0065655E-3,-4.7338214E-2,-3.0042226E-3,1.5487774E-2,-1.5130737E-2],"split_indices":[27,0,24,21,34,36,36,35,4,25,19,33,11,27,19,13,34,0,0,0,0,0,0,0,0,0,0,0,0,0,0,0,0],"split_type":[0,0,0,0,0,0,0,0,0,0,0,0,0,0,0,0,0,0,0,0,0,0,0,0,0,0,0,0,0,0,0,0,0],"sum_hessian":[8.61E2,2.89E2,5.72E2,3.55E2,2.17E2,2.41E2,1.14E2,7.5E1,1.42E2,6.6E1,1.75E2,6.7E1,4.7E1,9E0,6.6E1,1.28E2,1.4E1,6.2E1,4E0,7.6E1,9.9E1,5.6E1,1.1E1,1.9E1,2.8E1,3E0,6E0,1.7E1,4.9E1,1.09E2,1.9E1,1E1,4E0],"tree_param":{"num_deleted":"0","num_feature":"62","num_nodes":"33","size_leaf_vector":"1"}},{"base_weights":[-3.2476686E-2,8.0697335E-2,-5.530174E-1,-7.618969E-1,-4.4275546E-1,-6.443735E-1,-9.9426246E-1,-5.27843E-1,-1.8376714E-1,-5.348777E-1,-9.199332E-1,-1.0769665E0,-2.703755E-1,-7.459489E-1,-3.8191247E-1,4.3224335E-2,-3.6874557E-1,6.258022E-2,-5.0261214E-2,3.4526672E-2,-7.75571E-2,-4.7082875E-2,-9.146757E-2,-6.1402474E-2,1.8611844E-3,-7.135929E-2,-4.017564E-2,-3.962259E-2,-1.1241326E-2,2.7223377E-2,-1.7480884E-2,-1.794545E-2,-4.7666796E-2],"categories":[],"categories_nodes":[],"categories_segments":[],"categories_sizes":[],"default_left":[0,0,0,0,0,0,0,0,0,0,0,0,0,0,0,0,0,0,0,0,0,0,0,0,0,0,0,0,0,0,0,0,0],"id":49,"left_children":[1,-1,3,5,7,9,11,13,15,17,19,21,23,25,27,29,31,-1,-1,-1,-1,-1,-1,-1,-1,-1,-1,-1,-1,-1,-1,-1,-1],"loss_changes":[4.715415E2,0E0,1.302092E1,4.793686E0,8.320999E0,3.581253E0,3.6002655E0,8.849846E0,4.046838E0,1.2668806E1,2.8952332E0,1.2075195E0,1.1857353E0,3.6102486E0,4.6922684E0,3.4954975E0,1.6046343E0,0E0,0E0,0E0,0E0,0E0,0E0,0E0,0E0,0E0,0E0,0E0,0E0,0E0,0E0,0E0,0E0],"parents":[2147483647,0,0,2,2,3,3,4,4,5,5,6,6,7,7,8,8,9,9,10,10,11,11,12,12,13,13,14,14,15,15,16,16],"right_children":[2,-1,4,6,8,10,12,14,16,18,20,22,24,26,28,30,32,-1,-1,-1,-1,-1,-1,-1,-1,-1,-1,-1,-1,-1,-1,-1,-1],"split_conditions":[1E-1,8.0697335E-2,1E0,1E0,6.5066665E-1,1E0,3.6363637E-1,9.090909E-2,7.2727275E-1,4.5454547E-2,3.1E-1,4.3E-1,9.090909E-2,1E0,1E0,4.090909E-1,1E0,6.258022E-2,-5.0261214E-2,3.4526672E-2,-7.75571E-2,-4.7082875E-2,-9.146757E-2,-6.1402474E-2,1.8611844E-3,-7.135929E-2,-4.017564E-2,-3.962259E-2,-1.1241326E-2,2.7223377E-2,-1.7480884E-2,-1.794545E-2,-4.7666796E-2],"split_indices":[9,0,19,61,2,34,35,36,34,36,9,9,33,13,13,36,29,0,0,0,0,0,0,0,0,0,0,0,0,0,0,0,0],"split_type":[0,0,0,0,0,0,0,0,0,0,0,0,0,0,0,0,0,0,0,0,0,0,0,0,0,0,0,0,0,0,0,0,0],"sum_hessian":[8.68E2,2.89E2,5.79E2,1.98E2,3.81E2,1.34E2,6.4E1,2.86E2,9.5E1,9.8E1,3.6E1,5.7E1,7E0,1.13E2,1.73E2,4.3E1,5.2E1,6E0,9.2E1,1E0,3.5E1,8E0,4.9E1,2E0,5E0,6.9E1,4.4E1,1.17E2,5.6E1,2E1,2.3E1,3.3E1,1.9E1],"tree_param":{"num_deleted":"0","num_feature":"62","num_nodes":"33","size_leaf_vector":"1"}},{"base_weights":[-1.22022545E-2,7.426391E-2,-4.9663052E-1,-5.3613913E-1,2.2317733E-1,-5.9908503E-1,-1.2391558E-1,-2.704408E-2,3.225221E-1,-7.2730935E-1,-4.0247068E-1,-2.2399881E-1,6.015557E-1,2.1050833E-1,6.0070265E-2,-7.9314865E-2,-4.753498E-2,-3.5737924E-2,1.739192E-2,-2.5281174E-2,5.7439804E-3,1.003332E-1,1.8874358E-2,2.0448685E-4,3.3458255E-2],"categories":[],"categories_nodes":[],"categories_segments":[],"categories_sizes":[],"default_left":[0,0,0,0,0,0,0,0,0,0,0,0,0,0,0,0,0,0,0,0,0,0,0,0,0],"id":50,"left_children":[1,-1,3,5,7,9,11,-1,13,15,17,19,21,23,-1,-1,-1,-1,-1,-1,-1,-1,-1,-1,-1],"loss_changes":[3.8863675E2,0E0,1.61306E1,1.3781876E1,1.7816821E0,1.1379837E1,5.3624883E0,0E0,1.0894608E0,9.22084E0,5.171913E0,1.7646523E0,1.8516049E0,9.4923896E-1,0E0,0E0,0E0,0E0,0E0,0E0,0E0,0E0,0E0,0E0,0E0],"parents":[2147483647,0,0,2,2,3,3,4,4,5,5,6,6,8,8,9,9,10,10,11,11,12,12,13,13],"right_children":[2,-1,4,6,8,10,12,-1,14,16,18,20,22,24,-1,-1,-1,-1,-1,-1,-1,-1,-1,-1,-1],"split_conditions":[1E-1,7.426391E-2,1E0,1E0,2E-1,1E0,1E0,-2.704408E-2,1E0,4.5454547E-2,7.5E-1,3.6363637E-1,5.7E-1,1.25E-1,6.0070265E-2,-7.9314865E-2,-4.753498E-2,-3.5737924E-2,1.739192E-2,-2.5281174E-2,5.7439804E-3,1.003332E-1,1.8874358E-2,2.0448685E-4,3.3458255E-2],"split_indices":[9,0,25,20,27,24,24,0,13,36,4,35,9,4,0,0,0,0,0,0,0,0,0,0,0],"split_type":[0,0,0,0,0,0,0,0,0,0,0,0,0,0,0,0,0,0,0,0,0,0,0,0,0],"sum_hessian":[8.51E2,2.89E2,5.62E2,5.33E2,2.9E1,4.62E2,7.1E1,4E0,2.5E1,2.78E2,1.84E2,6.3E1,8E0,2.1E1,4E0,9.1E1,1.87E2,1.72E2,1.2E1,4.8E1,1.5E1,2E0,6E0,1.1E1,1E1],"tree_param":{"num_deleted":"0","num_feature":"62","num_nodes":"25","size_leaf_vector":"1"}},{"base_weights":[-4.335205E-3,6.8340756E-2,-4.328784E-1,-5.9290814E-1,-2.5367737E-1,-7.644692E-1,-4.2416292E-1,-3.6150062E-1,-4.1100044E-2,-8.152124E-1,1.15449056E-1,-5.182351E-1,2.1029873E-2,-4.590812E-1,-1.296055E-1,1.7877208E-1,-1.9626209E-1,-8.549097E-2,-5.450021E-2,-1.6686345E-2,2.4978114E-2,-1.3514335E-2,-4.590868E-2,1.23358155E-2,-2.649315E-2,-2.6225187E-2,-5.3463537E-2,-1.6207973E-2,3.1989496E-2,3.4824174E-3,8.7176844E-2,-2.4214668E-2,3.7343863E-2],"categories":[],"categories_nodes":[],"categories_segments":[],"categories_sizes":[],"default_left":[0,0,0,0,0,0,0,0,0,0,0,0,0,0,0,0,0,0,0,0,0,0,0,0,0,0,0,0,0,0,0,0,0],"id":51,"left_children":[1,-1,3,5,7,9,11,13,15,17,19,21,23,25,27,29,31,-1,-1,-1,-1,-1,-1,-1,-1,-1,-1,-1,-1,-1,-1,-1,-1],"loss_changes":[3.1717035E2,0E0,1.6339165E1,8.447624E0,6.2425175E0,6.7469482E0,6.5023346E0,4.0362473E0,3.2078562E0,4.058754E0,6.3897705E-1,2.390049E0,1.3642913E0,3.2686768E0,2.2066822E0,4.757249E0,4.022298E0,0E0,0E0,0E0,0E0,0E0,0E0,0E0,0E0,0E0,0E0,0E0,0E0,0E0,0E0,0E0,0E0],"parents":[2147483647,0,0,2,2,3,3,4,4,5,5,6,6,7,7,8,8,9,9,10,10,11,11,12,12,13,13,14,14,15,15,16,16],"right_children":[2,-1,4,6,8,10,12,14,16,18,20,22,24,26,28,30,32,-1,-1,-1,-1,-1,-1,-1,-1,-1,-1,-1,-1,-1,-1,-1,-1],"split_conditions":[1E-1,6.8340756E-2,1.6666667E-1,5.5E-1,6.25E-1,7.5E-1,1.25E-1,1E0,5E0,4.5454547E-2,2.3066667E-1,8.75E-1,9.0909094E-1,7.6E-1,4.6133333E-1,7E-1,3.75E-1,-8.549097E-2,-5.450021E-2,-1.6686345E-2,2.4978114E-2,-1.3514335E-2,-4.590868E-2,1.23358155E-2,-2.649315E-2,-2.6225187E-2,-5.3463537E-2,-1.6207973E-2,3.1989496E-2,3.4824174E-3,8.7176844E-2,-2.4214668E-2,3.7343863E-2],"split_indices":[9,0,11,27,27,4,4,20,0,36,2,27,34,9,2,9,4,0,0,0,0,0,0,0,0,0,0,0,0,0,0,0,0],"split_type":[0,0,0,0,0,0,0,0,0,0,0,0,0,0,0,0,0,0,0,0,0,0,0,0,0,0,0,0,0,0,0,0,0],"sum_hessian":[8.6E2,2.86E2,5.74E2,3.02E2,2.72E2,1.48E2,1.54E2,1.8E2,9.2E1,1.4E2,8E0,1.27E2,2.7E1,1.26E2,5.4E1,3.8E1,5.4E1,4.6E1,9.4E1,3E0,5E0,1.8E1,1.09E2,2E1,7E0,7.9E1,4.7E1,4.8E1,6E0,3.4E1,4E0,4.7E1,7E0],"tree_param":{"num_deleted":"0","num_feature":"62","num_nodes":"33","size_leaf_vector":"1"}},{"base_weights":[-1.51951555E-2,7.773056E-1,-4.3857837E-1,6.29011E-2,2.0133846E-1,-5.6447554E-1,-2.9903445E-1,2.071701E-2,-3.4712981E-3,-8.0338514E-1,-4.7906783E-1,-4.6962383E-1,-1.9063613E-1,-9.364035E-1,-2.7882594E-1,-6.165955E-1,-3.591762E-1,-6.674417E-1,-3.1013638E-1,1.7575487E-2,-2.7406725E-1,-1.345882E-1,-6.5955125E-2,-4.2633712E-2,1.5146808E-1,-5.2908886E-2,-1.1089249E-2,-3.4542542E-2,-5.047946E-3,-7.814475E-2,-1.4112241E-2,-3.31785E-2,2.0344894E-2,-3.0920008E-2,1.3938223E-2,-1.8926062E-2,-5.6814063E-2],"categories":[],"categories_nodes":[],"categories_segments":[],"categories_sizes":[],"default_left":[0,0,0,0,0,0,0,0,0,0,0,0,0,0,0,0,0,0,0,0,0,0,0,0,0,0,0,0,0,0,0,0,0,0,0,0,0],"id":52,"left_children":[1,3,5,-1,7,9,11,-1,-1,13,15,17,19,21,23,25,27,29,31,33,35,-1,-1,-1,-1,-1,-1,-1,-1,-1,-1,-1,-1,-1,-1,-1,-1],"loss_changes":[2.929244E2,1.4102325E0,9.827499E0,0E0,9.585078E-2,5.695732E0,4.9401875E0,0E0,0E0,5.11166E0,3.438961E0,3.1056976E0,2.9232001E0,3.7077103E0,1.03919935E1,2.090828E0,2.5738735E0,6.8156166E0,3.6477704E0,3.1690085E0,1.7940321E0,0E0,0E0,0E0,0E0,0E0,0E0,0E0,0E0,0E0,0E0,0E0,0E0,0E0,0E0,0E0,0E0],"parents":[2147483647,0,0,1,1,2,2,4,4,5,5,6,6,9,9,10,10,11,11,12,12,13,13,14,14,15,15,16,16,17,17,18,18,19,19,20,20],"right_children":[2,4,6,-1,8,10,12,-1,-1,14,16,18,20,22,24,26,28,30,32,34,36,-1,-1,-1,-1,-1,-1,-1,-1,-1,-1,-1,-1,-1,-1,-1,-1],"split_conditions":[9.090909E-2,1.3333333E-3,1.6666667E-1,6.29011E-2,4.9E-1,4.5454547E-2,9.090909E-2,2.071701E-2,-3.4712981E-3,1E0,1E0,1E0,5.3E-1,9.0909094E-1,8E-1,5.4545456E-1,1E0,1.25E-1,1E0,1E0,5.4545456E-1,-1.345882E-1,-6.5955125E-2,-4.2633712E-2,1.5146808E-1,-5.2908886E-2,-1.1089249E-2,-3.4542542E-2,-5.047946E-3,-7.814475E-2,-1.4112241E-2,-3.31785E-2,2.0344894E-2,-3.0920008E-2,1.3938223E-2,-1.8926062E-2,-5.6814063E-2],"split_indices":[34,2,11,0,9,36,35,0,0,13,19,21,9,34,9,36,13,4,2,19,33,0,0,0,0,0,0,0,0,0,0,0,0,0,0,0,0],"split_type":[0,0,0,0,0,0,0,0,0,0,0,0,0,0,0,0,0,0,0,0,0,0,0,0,0,0,0,0,0,0,0,0,0,0,0,0,0],"sum_hessian":[8.71E2,3.03E2,5.68E2,2.98E2,5E0,2.97E2,2.71E2,4E0,1E0,7.6E1,2.21E2,1.04E2,1.67E2,6E1,1.6E1,1.01E2,1.2E2,4.5E1,5.9E1,4.8E1,1.19E2,6E0,5.4E1,1.5E1,1E0,9.2E1,9E0,9.6E1,2.4E1,2.7E1,1.8E1,5E1,9E0,1.3E1,3.5E1,1.11E2,8E0],"tree_param":{"num_deleted":"0","num_feature":"62","num_nodes":"37","size_leaf_vector":"1"}},{"base_weights":[-3.4565546E-2,5.7872403E-2,-4.02325E-1,-5.4217213E-1,-2.4130559E-1,-6.8774587E-1,-3.9403972E-1,-2.8267655E-1,3.2010415E-1,3.269603E-2,-7.380036E-1,-1.7018764E-1,-6.497277E-1,-5.840546E-1,-2.1073106E-1,4.047529E-1,-9.851694E-2,2.7126739E-2,-1.5265884E-2,-6.7446426E-2,-3.5498165E-2,3.8753035E-3,-2.6813483E-2,-7.069886E-2,-3.6923017E-2,-3.275798E-2,-8.180635E-2,-2.5183864E-2,1.6051529E-2,6.109568E-2,2.3914048E-2,-2.4531478E-2,5.845845E-3],"categories":[],"categories_nodes":[],"categories_segments":[],"categories_sizes":[],"default_left":[0,0,0,0,